tree
version=v2
num_class=1
num_tree_per_iteration=1
label_index=0
max_feature_idx=1177
objective=binary sigmoid:1
feature_names=ECs_0023 ECs_0024 ECs_0025 ECs_0052 ECs_0053 ECs_0061 ECs_0073 ECs_0146 ECs_0217 ECs_0218 ECs_0222 ECs_0223 ECs_0224 ECs_0225 ECs_0226 ECs_0227 ECs_0228 ECs_0229 ECs_0230 ECs_0231 ECs_0232 ECs_0233 ECs_0234 ECs_0236 ECs_0237 ECs_0241 ECs_0242 ECs_0244 ECs_0245 ECs_0252 ECs_0253 ECs_0257 ECs_0259 ECs_0262 ECs_0274 ECs_0275 ECs_0276 ECs_0280 ECs_0281 ECs_0282 ECs_0284 ECs_0285 ECs_0287 ECs_0288 ECs_0289 ECs_0296 ECs_0297 ECs_0298 ECs_0299 ECs_0300 ECs_0301 ECs_0302 ECs_0303 ECs_0305 ECs_0306 ECs_0307 ECs_0309 ECs_0310 ECs_0311 ECs_0314 ECs_0315 ECs_0316 ECs_0317 ECs_0319 ECs_0320 ECs_0321 ECs_0324 ECs_0331 ECs_0332 ECs_0338 ECs_0350 ECs_0351 ECs_0352 ECs_0356 ECs_0370 ECs_0374 ECs_0377 ECs_0378 ECs_0395 ECs_0399 ECs_0400 ECs_0413 ECs_0414 ECs_0415 ECs_0416 ECs_0417 ECs_0418 ECs_0442 ECs_0443 ECs_0454 ECs_0461 ECs_0462 ECs_0472 ECs_0540 ECs_0542 ECs_0543 ECs_0544 ECs_0546 ECs_0548 ECs_0549 ECs_0560 ECs_0561 ECs_0563 ECs_0602 ECs_0603 ECs_0605 ECs_0606 ECs_0607 ECs_0620 ECs_0621 ECs_0627 ECs_0647 ECs_0683 ECs_0721 ECs_0729 ECs_0730 ECs_0731 ECs_0755 ECs_0756 ECs_0757 ECs_0758 ECs_0759 ECs_0760 ECs_0761 ECs_0762 ECs_0763 ECs_0764 ECs_0766 ECs_0767 ECs_0802 ECs_0804 ECs_0805 ECs_0806 ECs_0807 ECs_0808 ECs_0809 ECs_0814 ECs_0815 ECs_0818 ECs_0820 ECs_0822 ECs_0824 ECs_0825 ECs_0829 ECs_0830 ECs_0831 ECs_0832 ECs_0833 ECs_0834 ECs_0835 ECs_0836 ECs_0837 ECs_0838 ECs_0839 ECs_0841 ECs_0842 ECs_0843 ECs_0847 ECs_0848 ECs_0849 ECs_0850 ECs_0876 ECs_0940 ECs_0941 ECs_0942 ECs_0950 ECs_1016 ECs_1020 ECs_1055 ECs_1056 ECs_1058 ECs_1059 ECs_1061 ECs_1063 ECs_1064 ECs_1065 ECs_1067 ECs_1068 ECs_1069 ECs_1070 ECs_1071 ECs_1073 ECs_1074 ECs_1075 ECs_1076 ECs_1077 ECs_1079 ECs_1080 ECs_1082 ECs_1083 ECs_1084 ECs_1085 ECs_1087 ECs_1088 ECs_1090 ECs_1091 ECs_1092 ECs_1094 ECs_1096 ECs_1097 ECs_1106 ECs_1114 ECs_1115 ECs_1117 ECs_1118 ECs_1121 ECs_1122 ECs_1123 ECs_1143 ECs_1160 ECs_1161 ECs_1162 ECs_1163 ECs_1164 ECs_1166 ECs_1167 ECs_1168 ECs_1169 ECs_1172 ECs_1174 ECs_1175 ECs_1176 ECs_1177 ECs_1181 ECs_1185 ECs_1186 ECs_1187 ECs_1189 ECs_1192 ECs_1193 ECs_1195 ECs_1196 ECs_1199 ECs_1200 ECs_1201 ECs_1203 ECs_1205 ECs_1206 ECs_1211 ECs_1219 ECs_1220 ECs_1221 ECs_1222 ECs_1223 ECs_1224 ECs_1225 ECs_1226 ECs_1227 ECs_1230 ECs_1232 ECs_1233 ECs_1234 ECs_1235 ECs_1236 ECs_1237 ECs_1238 ECs_1239 ECs_1240 ECs_1241 ECs_1242 ECs_1246 ECs_1247 ECs_1248 ECs_1249 ECs_1251 ECs_1262 ECs_1267 ECs_1269 ECs_1270 ECs_1271 ECs_1272 ECs_1273 ECs_1274 ECs_1275 ECs_1276 ECs_1277 ECs_1278 ECs_1280 ECs_1282 ECs_1283 ECs_1297 ECs_1298 ECs_1299 ECs_1300 ECs_1302 ECs_1303 ECs_1304 ECs_1305 ECs_1312 ECs_1313 ECs_1316 ECs_1317 ECs_1319 ECs_1321 ECs_1322 ECs_1323 ECs_1324 ECs_1325 ECs_1326 ECs_1327 ECs_1330 ECs_1333 ECs_1336 ECs_1337 ECs_1338 ECs_1339 ECs_1340 ECs_1341 ECs_1342 ECs_1343 ECs_1344 ECs_1345 ECs_1346 ECs_1348 ECs_1349 ECs_1350 ECs_1351 ECs_1352 ECs_1353 ECs_1354 ECs_1355 ECs_1356 ECs_1358 ECs_1360 ECs_1362 ECs_1364 ECs_1365 ECs_1366 ECs_1370 ECs_1373 ECs_1374 ECs_1376 ECs_1377 ECs_1378 ECs_1380 ECs_1382 ECs_1386 ECs_1387 ECs_1389 ECs_1393 ECs_1394 ECs_1396 ECs_1397 ECs_1398 ECs_1399 ECs_1403 ECs_1404 ECs_1405 ECs_1407 ECs_1408 ECs_1501 ECs_1502 ECs_1504 ECs_1505 ECs_1506 ECs_1507 ECs_1508 ECs_1510 ECs_1511 ECs_1512 ECs_1513 ECs_1515 ECs_1516 ECs_1517 ECs_1518 ECs_1523 ECs_1524 ECs_1527 ECs_1528 ECs_1529 ECs_1530 ECs_1532 ECs_1534 ECs_1536 ECs_1538 ECs_1544 ECs_1552 ECs_1556 ECs_1557 ECs_1558 ECs_1560 ECs_1561 ECs_1563 ECs_1564 ECs_1565 ECs_1568 ECs_1574 ECs_1577 ECs_1578 ECs_1579 ECs_1581 ECs_1582 ECs_1586 ECs_1587 ECs_1588 ECs_1589 ECs_1590 ECs_1591 ECs_1592 ECs_1593 ECs_1594 ECs_1595 ECs_1597 ECs_1598 ECs_1599 ECs_1609 ECs_1610 ECs_1611 ECs_1612 ECs_1613 ECs_1614 ECs_1615 ECs_1616 ECs_1617 ECs_1618 ECs_1619 ECs_1620 ECs_1621 ECs_1622 ECs_1623 ECs_1625 ECs_1627 ECs_1629 ECs_1630 ECs_1637 ECs_1638 ECs_1639 ECs_1640 ECs_1641 ECs_1642 ECs_1643 ECs_1644 ECs_1645 ECs_1646 ECs_1647 ECs_1648 ECs_1649 ECs_1652 ECs_1656 ECs_1657 ECs_1662 ECs_1663 ECs_1664 ECs_1689 ECs_1693 ECs_1694 ECs_1696 ECs_1697 ECs_1698 ECs_1699 ECs_1757 ECs_1759 ECs_1762 ECs_1763 ECs_1765 ECs_1766 ECs_1767 ECs_1768 ECs_1769 ECs_1772 ECs_1774 ECs_1775 ECs_1776 ECs_1777 ECs_1779 ECs_1780 ECs_1781 ECs_1801 ECs_1803 ECs_1805 ECs_1806 ECs_1807 ECs_1808 ECs_1812 ECs_1814 ECs_1815 ECs_1816 ECs_1824 ECs_1825 ECs_1840 ECs_1862 ECs_1863 ECs_1864 ECs_1865 ECs_1866 ECs_1929 ECs_1930 ECs_1931 ECs_1933 ECs_1934 ECs_1935 ECs_1936 ECs_1937 ECs_1940 ECs_1941 ECs_1942 ECs_1943 ECs_1944 ECs_1945 ECs_1946 ECs_1948 ECs_1949 ECs_1950 ECs_1953 ECs_1956 ECs_1957 ECs_1958 ECs_1959 ECs_1963 ECs_1974 ECs_1975 ECs_1980 ECs_1982 ECs_1983 ECs_1984 ECs_1985 ECs_1986 ECs_1989 ECs_1991 ECs_1992 ECs_1993 ECs_1994 ECs_1995 ECs_1996 ECs_2006 ECs_2009 ECs_2010 ECs_2011 ECs_2017 ECs_2059 ECs_2060 ECs_2061 ECs_2064 ECs_2112 ECs_2113 ECs_2125 ECs_2146 ECs_2153 ECs_2154 ECs_2155 ECs_2156 ECs_2159 ECs_2164 ECs_2168 ECs_2170 ECs_2171 ECs_2172 ECs_2173 ECs_2174 ECs_2175 ECs_2176 ECs_2177 ECs_2178 ECs_2179 ECs_2180 ECs_2182 ECs_2183 ECs_2189 ECs_2190 ECs_2191 ECs_2192 ECs_2193 ECs_2195 ECs_2196 ECs_2197 ECs_2198 ECs_2199 ECs_2202 ECs_2203 ECs_2204 ECs_2205 ECs_2206 ECs_2207 ECs_2208 ECs_2209 ECs_2210 ECs_2211 ECs_2212 ECs_2214 ECs_2215 ECs_2221 ECs_2225 ECs_2230 ECs_2234 ECs_2235 ECs_2239 ECs_2240 ECs_2241 ECs_2242 ECs_2243 ECs_2244 ECs_2245 ECs_2246 ECs_2247 ECs_2248 ECs_2250 ECs_2251 ECs_2252 ECs_2254 ECs_2255 ECs_2261 ECs_2265 ECs_2268 ECs_2269 ECs_2271 ECs_2272 ECs_2273 ECs_2275 ECs_2276 ECs_2277 ECs_2278 ECs_2279 ECs_2283 ECs_2284 ECs_2285 ECs_2286 ECs_2287 ECs_2452 ECs_2468 ECs_2473 ECs_2479 ECs_2480 ECs_2482 ECs_2483 ECs_2484 ECs_2485 ECs_2510 ECs_2529 ECs_2587 ECs_2618 ECs_2619 ECs_2620 ECs_2621 ECs_2622 ECs_2623 ECs_2624 ECs_2625 ECs_2626 ECs_2627 ECs_2628 ECs_2629 ECs_2630 ECs_2631 ECs_2632 ECs_2633 ECs_2634 ECs_2635 ECs_2636 ECs_2637 ECs_2638 ECs_2639 ECs_2643 ECs_2644 ECs_2645 ECs_2646 ECs_2647 ECs_2671 ECs_2672 ECs_2674 ECs_2699 ECs_2712 ECs_2714 ECs_2715 ECs_2716 ECs_2718 ECs_2719 ECs_2725 ECs_2726 ECs_2727 ECs_2728 ECs_2729 ECs_2731 ECs_2732 ECs_2733 ECs_2734 ECs_2735 ECs_2736 ECs_2738 ECs_2740 ECs_2741 ECs_2742 ECs_2749 ECs_2751 ECs_2752 ECs_2754 ECs_2755 ECs_2756 ECs_2757 ECs_2759 ECs_2760 ECs_2761 ECs_2762 ECs_2763 ECs_2765 ECs_2766 ECs_2767 ECs_2768 ECs_2769 ECs_2770 ECs_2772 ECs_2773 ECs_2792 ECs_2794 ECs_2796 ECs_2797 ECs_2799 ECs_2800 ECs_2801 ECs_2802 ECs_2804 ECs_2805 ECs_2806 ECs_2807 ECs_2808 ECs_2831 ECs_2836 ECs_2841 ECs_2843 ECs_2845 ECs_2847 ECs_2856 ECs_2869 ECs_2870 ECs_2908 ECs_2909 ECs_2931 ECs_2939 ECs_2940 ECs_2941 ECs_2942 ECs_2943 ECs_2944 ECs_2945 ECs_2946 ECs_2947 ECs_2948 ECs_2949 ECs_2950 ECs_2951 ECs_2952 ECs_2953 ECs_2954 ECs_2955 ECs_2956 ECs_2961 ECs_2962 ECs_2963 ECs_2964 ECs_2965 ECs_2967 ECs_2968 ECs_2970 ECs_2971 ECs_2972 ECs_2973 ECs_2974 ECs_2976 ECs_2977 ECs_2978 ECs_2979 ECs_2980 ECs_2981 ECs_2984 ECs_2985 ECs_2987 ECs_2988 ECs_2989 ECs_2990 ECs_2993 ECs_2995 ECs_2996 ECs_2997 ECs_3001 ECs_3003 ECs_3005 ECs_3006 ECs_3007 ECs_3009 ECs_3010 ECs_3011 ECs_3012 ECs_3013 ECs_3027 ECs_3028 ECs_3029 ECs_3030 ECs_3031 ECs_3032 ECs_3056 ECs_3057 ECs_3123 ECs_3129 ECs_3136 ECs_3219 ECs_3231 ECs_3232 ECs_3233 ECs_3240 ECs_3241 ECs_3242 ECs_3243 ECs_3244 ECs_3276 ECs_3277 ECs_3279 ECs_3408 ECs_3410 ECs_3412 ECs_3483 ECs_3485 ECs_3486 ECs_3487 ECs_3489 ECs_3495 ECs_3496 ECs_3497 ECs_3498 ECs_3500 ECs_3501 ECs_3502 ECs_3503 ECs_3504 ECs_3505 ECs_3506 ECs_3507 ECs_3508 ECs_3509 ECs_3510 ECs_3511 ECs_3512 ECs_3513 ECs_3514 ECs_3517 ECs_3534 ECs_3535 ECs_3591 ECs_3592 ECs_3593 ECs_3594 ECs_3608 ECs_3609 ECs_3610 ECs_3611 ECs_3612 ECs_3613 ECs_3614 ECs_3615 ECs_3635 ECs_3637 ECs_3704 ECs_3705 ECs_3706 ECs_3707 ECs_3708 ECs_3709 ECs_3710 ECs_3712 ECs_3715 ECs_3716 ECs_3717 ECs_3718 ECs_3719 ECs_3720 ECs_3721 ECs_3722 ECs_3724 ECs_3725 ECs_3726 ECs_3727 ECs_3729 ECs_3730 ECs_3731 ECs_3732 ECs_3733 ECs_3734 ECs_3735 ECs_3737 ECs_3799 ECs_3801 ECs_3802 ECs_3803 ECs_3813 ECs_3846 ECs_3847 ECs_3850 ECs_3855 ECs_3857 ECs_3858 ECs_3866 ECs_3868 ECs_3869 ECs_3904 ECs_3912 ECs_3913 ECs_3914 ECs_3915 ECs_3916 ECs_3917 ECs_3937 ECs_3965 ECs_4001 ECs_4020 ECs_4021 ECs_4022 ECs_4157 ECs_4190 ECs_4222 ECs_4223 ECs_4225 ECs_4261 ECs_4262 ECs_4280 ECs_4300 ECs_4307 ECs_4308 ECs_4324 ECs_4325 ECs_4326 ECs_4327 ECs_4328 ECs_4329 ECs_4330 ECs_4331 ECs_4332 ECs_4333 ECs_4334 ECs_4335 ECs_4336 ECs_4337 ECs_4338 ECs_4339 ECs_4340 ECs_4341 ECs_4349 ECs_4350 ECs_4351 ECs_4352 ECs_4353 ECs_4354 ECs_4355 ECs_4356 ECs_4357 ECs_4373 ECs_4374 ECs_4379 ECs_4380 ECs_4382 ECs_4383 ECs_4384 ECs_4385 ECs_4386 ECs_4387 ECs_4415 ECs_4426 ECs_4427 ECs_4430 ECs_4431 ECs_4457 ECs_4458 ECs_4459 ECs_4460 ECs_4461 ECs_4462 ECs_4465 ECs_4470 ECs_4471 ECs_4479 ECs_4480 ECs_4496 ECs_4500 ECs_4501 ECs_4528 ECs_4534 ECs_4535 ECs_4537 ECs_4539 ECs_4540 ECs_4545 ECs_4546 ECs_4547 ECs_4550 ECs_4551 ECs_4552 ECs_4553 ECs_4554 ECs_4555 ECs_4556 ECs_4557 ECs_4558 ECs_4559 ECs_4560 ECs_4561 ECs_4562 ECs_4563 ECs_4564 ECs_4565 ECs_4567 ECs_4568 ECs_4569 ECs_4570 ECs_4571 ECs_4572 ECs_4573 ECs_4574 ECs_4575 ECs_4576 ECs_4577 ECs_4578 ECs_4580 ECs_4581 ECs_4582 ECs_4583 ECs_4584 ECs_4585 ECs_4586 ECs_4587 ECs_4588 ECs_4590 ECs_4591 ECs_4592 ECs_4597 ECs_4598 ECs_4607 ECs_4609 ECs_4618 ECs_4653 ECs_4665 ECs_4667 ECs_4670 ECs_4744 ECs_4747 ECs_4748 ECs_4795 ECs_4797 ECs_4799 ECs_4800 ECs_4801 ECs_4802 ECs_4803 ECs_4813 ECs_4827 ECs_4854 ECs_4855 ECs_4864 ECs_4892 ECs_4893 ECs_4903 ECs_4912 ECs_4941 ECs_4945 ECs_4946 ECs_4947 ECs_4948 ECs_4950 ECs_4951 ECs_4952 ECs_4954 ECs_4955 ECs_4956 ECs_4957 ECs_4960 ECs_4961 ECs_4962 ECs_4963 ECs_4965 ECs_4966 ECs_4967 ECs_4968 ECs_4969 ECs_4970 ECs_4971 ECs_4972 ECs_4973 ECs_4974 ECs_4975 ECs_4976 ECs_4977 ECs_4978 ECs_4979 ECs_4980 ECs_4981 ECs_4982 ECs_4983 ECs_4984 ECs_4985 ECs_4986 ECs_4987 ECs_4988 ECs_4989 ECs_4990 ECs_4992 ECs_4995 ECs_4998 ECs_5000 ECs_5001 ECs_5002 ECs_5003 ECs_5004 ECs_5063 ECs_5067 ECs_5068 ECs_5069 ECs_5070 ECs_5071 ECs_5072 ECs_5073 ECs_5074 ECs_5075 ECs_5079 ECs_5082 ECs_5180 ECs_5182 ECs_5183 ECs_5193 ECs_5202 ECs_5203 ECs_5242 ECs_5243 ECs_5244 ECs_5246 ECs_5248 ECs_5249 ECs_5252 ECs_5254 ECs_5256 ECs_5257 ECs_5258 ECs_5259 ECs_5260 ECs_5261 ECs_5262 ECs_5263 ECs_5264 ECs_5266 ECs_5271 ECs_5280 ECs_5295 ECs_5301 ECs_5302 ECs_5303 ECs_5305 ECs_5306 ECs_5307 ECs_5308 ECs_5310 ECs_5316 ECs_5377 ECs_5399 ECs_5400 ECs_5414 ECs_5415 ECs_5418 ECs_5451 ECs_5700 ECs_5703 ECs_5709 ECs_5711 ECs_5714 ECs_5715 ECs_5717 ECs_5718 ECs_5719 ECs_5726 ECs_5728 ECs_5730 ECs_5731 ECs_5734 ECs_5735 ECs_5738 ECs_5740 ECs_5741 ECs_5742 ECs_5743 ECs_5764 ECs_5766 ECs_5773 ECs_5779 ECs_5781
feature_infos=[0:1] [0:1] [0:1] [0:1] [0:1] [0:1] [0:1] [0:1] [0:1] [0:1] [0:1] [0:1] [0:1] [0:1] [0:1] [0:1] [0:1] [0:1] [0:1] [0:1] [0:1] [0:1] [0:1] [0:1] [0:1] [0:1] [0:1] [0:1] [0:1] [0:1] [0:1] [0:1] [0:1] [0:1] [0:1] [0:1] [0:1] [0:1] [0:1] [0:1] [0:1] [0:1] [0:1] [0:1] [0:1] [0:1] [0:1] [0:1] [0:1] [0:1] [0:1] [0:1] [0:1] [0:1] [0:1] [0:1] [0:1] [0:1] [0:1] [0:1] [0:1] [0:1] [0:1] [0:1] [0:1] [0:1] [0:1] [0:1] [0:1] [0:1] [0:1] [0:1] [0:1] [0:1] [0:1] [0:1] [0:1] [0:1] [0:1] [0:1] [0:1] [0:1] [0:1] [0:1] [0:1] [0:1] [0:1] [0:1] [0:1] [0:1] [0:1] [0:1] [0:1] [0:1] [0:1] [0:1] [0:1] [0:1] [0:1] [0:1] [0:1] [0:1] [0:1] [0:1] [0:1] [0:1] [0:1] [0:1] [0:1] [0:1] [0:1] [0:1] [0:1] [0:1] [0:1] [0:1] [0:1] [0:1] [0:1] [0:1] [0:1] [0:1] [0:1] [0:1] [0:1] [0:1] [0:1] [0:1] [0:1] [0:1] [0:1] [0:1] [0:1] [0:1] [0:1] [0:1] [0:1] [0:1] [0:1] [0:1] [0:1] [0:1] [0:1] [0:1] [0:1] [0:1] [0:1] [0:1] [0:1] [0:1] [0:1] [0:1] [0:1] [0:1] [0:1] [0:1] [0:1] [0:1] [0:1] [0:1] [0:1] [0:1] [0:1] [0:1] [0:1] [0:1] [0:1] [0:1] [0:1] [0:1] [0:1] [0:1] [0:1] [0:1] [0:1] [0:1] [0:1] [0:1] [0:1] [0:1] [0:1] [0:1] [0:1] [0:1] [0:1] [0:1] [0:1] [0:1] [0:1] [0:1] [0:1] [0:1] [0:1] [0:1] [0:1] [0:1] [0:1] [0:1] [0:1] [0:1] [0:1] [0:1] [0:1] [0:1] [0:1] [0:1] [0:1] [0:1] [0:1] [0:1] [0:1] [0:1] [0:1] [0:1] [0:1] [0:1] [0:1] [0:1] [0:1] [0:1] [0:1] [0:1] [0:1] [0:1] [0:1] [0:1] [0:1] [0:1] [0:1] [0:1] [0:1] [0:1] [0:1] [0:1] [0:1] [0:1] [0:1] [0:1] [0:1] [0:1] [0:1] [0:1] [0:1] [0:1] [0:1] [0:1] [0:1] [0:1] [0:1] [0:1] [0:1] [0:1] [0:1] [0:1] [0:1] [0:1] [0:1] [0:1] [0:1] [0:1] [0:1] [0:1] [0:1] [0:1] [0:1] [0:1] [0:1] [0:1] [0:1] [0:1] [0:1] [0:1] [0:1] [0:1] [0:1] [0:1] [0:1] [0:1] [0:1] [0:1] [0:1] [0:1] [0:1] [0:1] [0:1] [0:1] [0:1] [0:1] [0:1] [0:1] [0:1] [0:1] [0:1] [0:1] [0:1] [0:1] [0:1] [0:1] [0:1] [0:1] [0:1] [0:1] [0:1] [0:1] [0:1] [0:1] [0:1] [0:1] [0:1] [0:1] [0:1] [0:1] [0:1] [0:1] [0:1] [0:1] [0:1] [0:1] [0:1] [0:1] [0:1] [0:1] [0:1] [0:1] [0:1] [0:1] [0:1] [0:1] [0:1] [0:1] [0:1] [0:1] [0:1] [0:1] [0:1] [0:1] [0:1] [0:1] [0:1] [0:1] [0:1] [0:1] [0:1] [0:1] [0:1] [0:1] [0:1] [0:1] [0:1] [0:1] [0:1] [0:1] [0:1] [0:1] [0:1] [0:1] [0:1] [0:1] [0:1] [0:1] [0:1] [0:1] [0:1] [0:1] [0:1] [0:1] [0:1] [0:1] [0:1] [0:1] [0:1] [0:1] [0:1] [0:1] [0:1] [0:1] [0:1] [0:1] [0:1] [0:1] [0:1] [0:1] [0:1] [0:1] [0:1] [0:1] [0:1] [0:1] [0:1] [0:1] [0:1] [0:1] [0:1] [0:1] [0:1] [0:1] [0:1] [0:1] [0:1] [0:1] [0:1] [0:1] [0:1] [0:1] [0:1] [0:1] [0:1] [0:1] [0:1] [0:1] [0:1] [0:1] [0:1] [0:1] [0:1] [0:1] [0:1] [0:1] [0:1] [0:1] [0:1] [0:1] [0:1] [0:1] [0:1] [0:1] [0:1] [0:1] [0:1] [0:1] [0:1] [0:1] [0:1] [0:1] [0:1] [0:1] [0:1] [0:1] [0:1] [0:1] [0:1] [0:1] [0:1] [0:1] [0:1] [0:1] [0:1] [0:1] [0:1] [0:1] [0:1] [0:1] [0:1] [0:1] [0:1] [0:1] [0:1] [0:1] [0:1] [0:1] [0:1] [0:1] [0:1] [0:1] [0:1] [0:1] [0:1] [0:1] [0:1] [0:1] [0:1] [0:1] [0:1] [0:1] [0:1] [0:1] [0:1] [0:1] [0:1] [0:1] [0:1] [0:1] [0:1] [0:1] [0:1] [0:1] [0:1] [0:1] [0:1] [0:1] [0:1] [0:1] [0:1] [0:1] [0:1] [0:1] [0:1] [0:1] [0:1] [0:1] [0:1] [0:1] [0:1] [0:1] [0:1] [0:1] [0:1] [0:1] [0:1] [0:1] [0:1] [0:1] [0:1] [0:1] [0:1] [0:1] [0:1] [0:1] [0:1] [0:1] [0:1] [0:1] [0:1] [0:1] [0:1] [0:1] [0:1] [0:1] [0:1] [0:1] [0:1] [0:1] [0:1] [0:1] [0:1] [0:1] [0:1] [0:1] [0:1] [0:1] [0:1] [0:1] [0:1] [0:1] [0:1] [0:1] [0:1] [0:1] [0:1] [0:1] [0:1] [0:1] [0:1] [0:1] [0:1] [0:1] [0:1] [0:1] [0:1] [0:1] [0:1] [0:1] [0:1] [0:1] [0:1] [0:1] [0:1] [0:1] [0:1] [0:1] [0:1] [0:1] [0:1] [0:1] [0:1] [0:1] [0:1] [0:1] [0:1] [0:1] [0:1] [0:1] [0:1] [0:1] [0:1] [0:1] [0:1] [0:1] [0:1] [0:1] [0:1] [0:1] [0:1] [0:1] [0:1] [0:1] [0:1] [0:1] [0:1] [0:1] [0:1] [0:1] [0:1] [0:1] [0:1] [0:1] [0:1] [0:1] [0:1] [0:1] [0:1] [0:1] [0:1] [0:1] [0:1] [0:1] [0:1] [0:1] [0:1] [0:1] [0:1] [0:1] [0:1] [0:1] [0:1] [0:1] [0:1] [0:1] [0:1] [0:1] [0:1] [0:1] [0:1] [0:1] [0:1] [0:1] [0:1] [0:1] [0:1] [0:1] [0:1] [0:1] [0:1] [0:1] [0:1] [0:1] [0:1] [0:1] [0:1] [0:1] [0:1] [0:1] [0:1] [0:1] [0:1] [0:1] [0:1] [0:1] [0:1] [0:1] [0:1] [0:1] [0:1] [0:1] [0:1] [0:1] [0:1] [0:1] [0:1] [0:1] [0:1] [0:1] [0:1] [0:1] [0:1] [0:1] [0:1] [0:1] [0:1] [0:1] [0:1] [0:1] [0:1] [0:1] [0:1] [0:1] [0:1] [0:1] [0:1] [0:1] [0:1] [0:1] [0:1] [0:1] [0:1] [0:1] [0:1] [0:1] [0:1] [0:1] [0:1] [0:1] [0:1] [0:1] [0:1] [0:1] [0:1] [0:1] [0:1] [0:1] [0:1] [0:1] [0:1] [0:1] [0:1] [0:1] [0:1] [0:1] [0:1] [0:1] [0:1] [0:1] [0:1] [0:1] [0:1] [0:1] [0:1] [0:1] [0:1] [0:1] [0:1] [0:1] [0:1] [0:1] [0:1] [0:1] [0:1] [0:1] [0:1] [0:1] [0:1] [0:1] [0:1] [0:1] [0:1] [0:1] [0:1] [0:1] [0:1] [0:1] [0:1] [0:1] [0:1] [0:1] [0:1] [0:1] [0:1] [0:1] [0:1] [0:1] [0:1] [0:1] [0:1] [0:1] [0:1] [0:1] [0:1] [0:1] [0:1] [0:1] [0:1] [0:1] [0:1] [0:1] [0:1] [0:1] [0:1] [0:1] [0:1] [0:1] [0:1] [0:1] [0:1] [0:1] [0:1] [0:1] [0:1] [0:1] [0:1] [0:1] [0:1] [0:1] [0:1] [0:1] [0:1] [0:1] [0:1] [0:1] [0:1] [0:1] [0:1] [0:1] [0:1] [0:1] [0:1] [0:1] [0:1] [0:1] [0:1] [0:1] [0:1] [0:1] [0:1] [0:1] [0:1] [0:1] [0:1] [0:1] [0:1] [0:1] [0:1] [0:1] [0:1] [0:1] [0:1] [0:1] [0:1] [0:1] [0:1] [0:1] [0:1] [0:1] [0:1] [0:1] [0:1] [0:1] [0:1] [0:1] [0:1] [0:1] [0:1] [0:1] [0:1] [0:1] [0:1] [0:1] [0:1] [0:1] [0:1] [0:1] [0:1] [0:1] [0:1] [0:1] [0:1] [0:1] [0:1] [0:1] [0:1] [0:1] [0:1] [0:1] [0:1] [0:1] [0:1] [0:1] [0:1] [0:1] [0:1] [0:1] [0:1] [0:1] [0:1] [0:1] [0:1] [0:1] [0:1] [0:1] [0:1] [0:1] [0:1] [0:1] [0:1] [0:1] [0:1] [0:1] [0:1] [0:1] [0:1] [0:1] [0:1] [0:1] [0:1] [0:1] [0:1] [0:1] [0:1] [0:1] [0:1] [0:1] [0:1] [0:1] [0:1] [0:1] [0:1] [0:1] [0:1] [0:1] [0:1] [0:1] [0:1] [0:1] [0:1] [0:1] [0:1] [0:1] [0:1] [0:1] [0:1] [0:1] [0:1] [0:1] [0:1] [0:1] [0:1] [0:1] [0:1] [0:1] [0:1] [0:1] [0:1] [0:1] [0:1] [0:1] [0:1] [0:1] [0:1] [0:1] [0:1] [0:1] [0:1] [0:1] [0:1] [0:1] [0:1] [0:1] [0:1] [0:1] [0:1] [0:1] [0:1] [0:1] [0:1] [0:1] [0:1] [0:1] [0:1] [0:1] [0:1] [0:1] [0:1] [0:1] [0:1] [0:1] [0:1] [0:1] [0:1] [0:1] [0:1] [0:1] [0:1] [0:1] [0:1] [0:1] [0:1] [0:1] [0:1] [0:1] [0:1] [0:1] [0:1] [0:1] [0:1] [0:1] [0:1] [0:1] [0:1] [0:1] [0:1] [0:1] [0:1] [0:1] [0:1] [0:1] [0:1] [0:1] [0:1] [0:1] [0:1] [0:1] [0:1] [0:1] [0:1] [0:1] [0:1] [0:1] [0:1] [0:1] [0:1] [0:1] [0:1] [0:1] [0:1] [0:1] [0:1] [0:1] [0:1] [0:1] [0:1] [0:1] [0:1] [0:1] [0:1] [0:1] [0:1] [0:1] [0:1] [0:1] [0:1] [0:1] [0:1] [0:1] [0:1] [0:1] [0:1] [0:1] [0:1] [0:1] [0:1] [0:1] [0:1] [0:1] [0:1] [0:1] [0:1] [0:1] [0:1] [0:1] [0:1] [0:1] [0:1] [0:1] [0:1] [0:1] [0:1] [0:1] [0:1] [0:1] [0:1] [0:1] [0:1] [0:1] [0:1] [0:1] [0:1] [0:1] [0:1] [0:1] [0:1] [0:1] [0:1] [0:1] [0:1] [0:1] [0:1] [0:1] [0:1] [0:1] [0:1] [0:1] [0:1] [0:1] [0:1] [0:1] [0:1] [0:1] [0:1] [0:1] [0:1] [0:1] [0:1] [0:1] [0:1] [0:1] [0:1] [0:1] [0:1] [0:1] [0:1] [0:1] [0:1] [0:1] [0:1] [0:1] [0:1] [0:1] [0:1] [0:1] [0:1] [0:1] [0:1] [0:1] [0:1] [0:1] [0:1] [0:1] [0:1] [0:1] [0:1] [0:1] [0:1] [0:1] [0:1] [0:1] [0:1] [0:1] [0:1] [0:1] [0:1] [0:1] [0:1] [0:1] [0:1] [0:1] [0:1] [0:1] [0:1] [0:1] [0:1] [0:1] [0:1] [0:1] [0:1] [0:1] [0:1] [0:1] [0:1] [0:1] [0:1] [0:1] [0:1] [0:1] [0:1] [0:1] [0:1] [0:1] [0:1] [0:1] [0:1] [0:1] [0:1] [0:1] [0:1] [0:1] [0:1] [0:1] [0:1] [0:1] [0:1] [0:1] [0:1] [0:1] [0:1] [0:1] [0:1] [0:1] [0:1] [0:1]
tree_sizes=821 1225 1798 2623 2625 2619 2620 2629 2627 2622 2640 2635 2636 2638 2642 2636 2638 2640 2643 2638 2650 2645 2645 2644

Tree=0
num_leaves=9
num_cat=0
split_feature=477 687 302 429 304 473 169 2
split_gain=980.684 62.5892 22.1177 17.2276 6.50825 4.96208 0.570343 5.68434e-14
threshold=1.0000000180025095e-35 1.0000000180025095e-35 1.0000000180025095e-35 1.0000000180025095e-35 1.0000000180025095e-35 1.0000000180025095e-35 1.0000000180025095e-35 1.0000000180025095e-35
decision_type=2 2 2 2 2 2 2 2
left_child=5 2 -2 -3 -5 7 -6 -1
right_child=1 3 -4 4 6 -7 -8 -9
leaf_value=-0.48397746403368064 -0.42189712063733531 -0.26935684829202977 -0.1633189946647319 -0.17667976422177142 -0.10459758772268157 -0.38154489742971087 -0.074247197617801658 -0.48397746403368064
leaf_count=135 33 21 23 28 27 20 420 487
internal_value=0 1.97838 -0.0501255 2.2074 2.28672 -1.70104 2.34602 -1.73295
internal_count=1194 552 56 496 475 642 447 622
shrinkage=1


Tree=1
num_leaves=14
num_cat=0
split_feature=477 687 899 429 791 611 473 344 169 302 422 953 9
split_gain=798.775 48.4416 20.0021 13.2931 5.31992 6.30172 4.39624 0.130496 0.00466624 0.00441994 0.0101614 0.000155618 5.68434e-14
threshold=1.0000000180025095e-35 1.0000000180025095e-35 1.0000000180025095e-35 1.0000000180025095e-35 1.0000000180025095e-35 1.0000000180025095e-35 1.0000000180025095e-35 1.0000000180025095e-35 1.0000000180025095e-35 1.0000000180025095e-35 1.0000000180025095e-35 1.0000000180025095e-35 1.0000000180025095e-35
decision_type=2 2 2 2 2 2 2 2 2 2 2 2 2
left_child=6 2 -2 -3 5 -5 12 -6 -9 10 -10 -11 -1
right_child=1 3 -4 4 7 -7 -8 8 9 11 -12 -13 -14
leaf_value=-0.16163270756244708 -0.16857670939708769 0.036960181800448098 0.085033128989357831 0.051487446440461361 0.19168400226517171 0.20857302084557322 -0.064596787655059384 0.211026386238435 0.21233645155097852 0.20828463793301455 0.20770728816727779 0.20770728816727782 -0.16163270756244708
leaf_count=194 20 21 36 20 20 21 20 23 30 20 52 289 428
internal_value=0 1.74446 -0.0465312 1.94146 2.00984 1.32022 -1.58545 2.07492 2.08254 2.08091 2.09398 2.07745 -1.61633
internal_count=1194 552 56 496 475 41 642 434 414 391 82 309 622
shrinkage=0.1


Tree=2
num_leaves=21
num_cat=0
split_feature=473 687 141 791 110 1133 344 599 432 555 562 583 648 422 302 459 512 284 28 569
split_gain=664.058 45.3287 23.5513 9.40409 13.0478 3.59628 1.3285 0.162167 0.0420551 0.0409322 0.0161614 0.00780793 0.0140993 0.00280291 0.00403636 0.000453069 0.000198579 8.57793e-05 9.30834e-05 6.07953e-06
threshold=1.0000000180025095e-35 1.0000000180025095e-35 1.0000000180025095e-35 1.0000000180025095e-35 1.0000000180025095e-35 1.0000000180025095e-35 1.0000000180025095e-35 1.0000000180025095e-35 1.0000000180025095e-35 1.0000000180025095e-35 1.0000000180025095e-35 1.0000000180025095e-35 1.0000000180025095e-35 1.0000000180025095e-35 1.0000000180025095e-35 1.0000000180025095e-35 1.0000000180025095e-35 1.0000000180025095e-35 1.0000000180025095e-35 1.0000000180025095e-35
decision_type=2 2 2 2 2 2 2 2 2 2 2 2 2 2 2 2 2 2 2 2
left_child=5 2 -2 4 -3 9 -5 -8 -9 15 -10 13 16 14 -12 -1 -13 18 19 -15
right_child=1 3 -4 6 -6 -7 7 8 10 -11 11 12 -14 17 -16 -17 -18 -19 -20 -21
leaf_value=-0.15243424213159004 0.1415309073492905 -0.017244484183994591 -0.11980470000506363 0.14238589228406681 0.19425899776341538 -0.065299021689371767 0.17066011665844591 0.19750577736978514 0.19422561982326128 -0.16059924356006908 0.19093980363102128 0.18866157558626706 0.19433606715962332 0.18762058503879403 0.18750623401084732 -0.15345168819662447 0.18781941436647798 0.18796302255032141 0.18796353226928258 0.18750623401084734
leaf_count=571 24 23 35 27 24 21 20 23 20 28 27 22 23 21 28 20 23 24 21 169
internal_value=0 1.5706 -0.119402 1.76588 0.911988 -1.49909 1.85533 1.88296 1.89174 -1.52846 1.88668 1.88359 1.90292 1.87906 1.89193 -1.52469 1.88231 1.87604 1.87563 1.87519
internal_count=1194 554 59 495 47 640 448 421 401 619 378 358 68 290 55 591 45 235 211 190
shrinkage=0.1


Tree=3
num_leaves=31
num_cat=0
split_feature=477 887 322 344 323 473 95 1024 385 791 432 169 1125 779 334 453 188 487 328 993 271 474 658 648 396 808 322 952 819 795
split_gain=560.164 35.0655 15.5357 10.5123 14.969 3.47118 2.70266 0.513421 0.113659 0.0860616 0.0442417 0.0187289 0.00319594 0.0031781 0.00334413 0.00182139 0.000855669 0.000497274 7.23905e-05 2.52164e-05 2.00103e-05 1.40852e-05 7.92221e-06 4.78547e-06 2.08173e-06 7.87271e-07 2.00164e-07 2.78139e-08 4.31867e-08 1.52923e-08
threshold=1.0000000180025095e-35 1.0000000180025095e-35 1.0000000180025095e-35 1.0000000180025095e-35 1.0000000180025095e-35 1.0000000180025095e-35 1.0000000180025095e-35 1.0000000180025095e-35 1.0000000180025095e-35 1.0000000180025095e-35 1.0000000180025095e-35 1.0000000180025095e-35 1.0000000180025095e-35 1.0000000180025095e-35 1.0000000180025095e-35 1.0000000180025095e-35 1.0000000180025095e-35 1.0000000180025095e-35 1.0000000180025095e-35 1.0000000180025095e-35 1.0000000180025095e-35 1.0000000180025095e-35 1.0000000180025095e-35 1.0000000180025095e-35 1.0000000180025095e-35 1.0000000180025095e-35 1.0000000180025095e-35 1.0000000180025095e-35 1.0000000180025095e-35 1.0000000180025095e-35
decision_type=2 2 2 2 2 2 2 2 2 2 2 2 2 2 2 2 2 2 2 2 2 2 2 2 2 2 2 2 2 2
left_child=5 2 -2 4 -3 12 -5 -8 -9 -10 -11 -12 19 14 -13 -15 17 -17 -18 26 21 23 -22 25 -24 -20 27 28 -1 -29
right_child=1 3 -4 6 -6 -7 7 8 9 10 11 13 -14 15 -16 16 18 -19 20 -21 22 -23 24 -25 -26 -27 -28 29 -30 -31
leaf_value=-0.14502085668870618 -0.15893816876538058 -0.039222773388793 0.091094168697052891 0.1094827517010285 0.18607902232775941 -0.057895234879316637 0.14169487007474557 0.16058644635257832 0.18565104525062898 0.18330634177427307 0.17897268031381808 0.17624265333136249 -0.14731407945070554 0.17469826772907779 0.17282243337561554 0.17285949522800392 0.17279155011608641 0.17425413081369148 0.17247817014642086 -0.1447923082811135 0.17264293036165634 0.17231312423007125 0.17245614873790055 0.17238957335535104 0.17254331812008211 0.17253312877015742 -0.1450030874249067 -0.14502055289440383 -0.14500712363176027 -0.14501603843431041
leaf_count=23 22 25 20 30 23 20 21 24 28 20 24 25 29 20 22 22 34 20 20 24 25 38 22 21 23 23 36 452 20 38
internal_value=0 1.44624 -0.360957 1.59044 0.692866 -1.42132 1.68442 1.72506 1.74085 1.74923 1.74075 1.73527 -1.45119 1.73111 1.74645 1.72842 1.72692 1.73524 1.72522 -1.4501 1.72468 1.72411 1.72552 1.72469 1.72501 1.72508 -1.45019 -1.4502 -1.45014 -1.4502
internal_count=1194 552 42 510 48 642 462 432 411 387 359 339 622 315 47 268 248 42 206 593 172 102 70 64 45 43 569 533 43 490
shrinkage=0.1


Tree=4
num_leaves=31
num_cat=0
split_feature=477 887 322 344 237 473 95 791 432 645 422 34 1125 563 497 41 169 558 510 977 993 1117 583 468 195 322 952 819 795 913
split_gain=475.98 29.3841 13.1299 9.16472 14.012 3.33493 2.4927 0.559239 0.0299651 0.014781 0.00659387 0.00710272 0.00205968 0.00187158 0.000653739 0.000865123 0.000594811 8.10541e-05 4.1473e-05 6.79246e-05 1.6213e-05 1.32093e-05 6.75092e-06 4.29701e-06 3.39939e-06 1.28699e-07 1.79676e-08 2.77666e-08 9.87856e-09 1.6845e-09
threshold=1.0000000180025095e-35 1.0000000180025095e-35 1.0000000180025095e-35 1.0000000180025095e-35 1.0000000180025095e-35 1.0000000180025095e-35 1.0000000180025095e-35 1.0000000180025095e-35 1.0000000180025095e-35 1.0000000180025095e-35 1.0000000180025095e-35 1.0000000180025095e-35 1.0000000180025095e-35 1.0000000180025095e-35 1.0000000180025095e-35 1.0000000180025095e-35 1.0000000180025095e-35 1.0000000180025095e-35 1.0000000180025095e-35 1.0000000180025095e-35 1.0000000180025095e-35 1.0000000180025095e-35 1.0000000180025095e-35 1.0000000180025095e-35 1.0000000180025095e-35 1.0000000180025095e-35 1.0000000180025095e-35 1.0000000180025095e-35 1.0000000180025095e-35 1.0000000180025095e-35
decision_type=2 2 2 2 2 2 2 2 2 2 2 2 2 2 2 2 2 2 2 2 2 2 2 2 2 2 2 2 2 2
left_child=5 2 -2 4 -3 12 -5 -8 -9 -10 11 -11 20 -13 15 -12 -16 -17 19 -18 25 24 23 -23 -20 26 27 -1 29 -28
right_child=1 3 -4 6 -6 -7 7 8 9 10 14 13 -14 -15 16 17 18 -19 21 -21 -22 22 -24 -25 -26 -27 28 -29 -30 -31
leaf_value=-0.13894322537410284 -0.15042088411340016 -0.033779940408321212 0.082590629590594836 0.099645070687219728 0.18711206702496125 -0.05286923197495802 0.13428560321047486 0.16978811895494117 0.16654474544457346 0.16677794320612993 0.16262577118674706 0.16070802695737663 -0.14083786427319731 0.16352416758542473 0.16223923912282112 0.16154112601406559 0.16148509585089352 0.1610270195133387 0.16102426145087068 0.16101773001883624 -0.13875443250725525 0.16092760570457351 0.1608470273769802 0.16103927240141011 0.161142991075862 -0.13892855781181365 -0.13894324916834461 -0.13893188171169413 -0.13893924857504045 -0.13894228338661013
leaf_count=23 22 27 20 30 21 20 31 23 30 21 36 20 29 20 20 30 22 23 20 33 24 32 23 27 21 36 329 20 38 123
internal_value=0 1.34152 -0.335664 1.47551 0.632655 -1.35942 1.56532 1.60536 1.6262 1.62179 1.61799 1.63738 -1.39024 1.62122 1.61385 1.61848 1.61176 1.61318 1.61056 1.61205 -1.38934 1.6099 1.60942 1.60979 1.61085 -1.38941 -1.38942 -1.38938 -1.38943 -1.38943
internal_count=1194 552 42 510 48 642 462 432 401 378 348 61 622 40 287 89 198 53 178 55 593 123 82 59 41 569 533 43 490 452
shrinkage=0.1


Tree=5
num_leaves=31
num_cat=0
split_feature=473 687 513 791 558 1133 344 599 157 562 885 431 600 993 422 799 23 169 727 964 517 1157 363 1132 584 160 537 766 819 957
split_gain=408.222 30.71 16.7598 7.00741 10.2612 2.84619 0.993413 0.126099 0.0434217 0.035079 0.0213725 0.0104641 0.00399973 0.00364179 0.00225732 0.00353697 0.00090354 0.00036854 0.000163458 0.00015361 1.50556e-05 6.46221e-06 2.42885e-06 2.19055e-06 1.22902e-06 8.93827e-07 8.65747e-07 1.17628e-07 1.99689e-08 4.62878e-08
threshold=1.0000000180025095e-35 1.0000000180025095e-35 1.0000000180025095e-35 1.0000000180025095e-35 1.0000000180025095e-35 1.0000000180025095e-35 1.0000000180025095e-35 1.0000000180025095e-35 1.0000000180025095e-35 1.0000000180025095e-35 1.0000000180025095e-35 1.0000000180025095e-35 1.0000000180025095e-35 1.0000000180025095e-35 1.0000000180025095e-35 1.0000000180025095e-35 1.0000000180025095e-35 1.0000000180025095e-35 1.0000000180025095e-35 1.0000000180025095e-35 1.0000000180025095e-35 1.0000000180025095e-35 1.0000000180025095e-35 1.0000000180025095e-35 1.0000000180025095e-35 1.0000000180025095e-35 1.0000000180025095e-35 1.0000000180025095e-35 1.0000000180025095e-35 1.0000000180025095e-35
decision_type=2 2 2 2 2 2 2 2 2 2 2 2 2 2 2 2 2 2 2 2 2 2 2 2 2 2 2 2 2 2
left_child=5 2 -2 4 -3 8 -5 -8 13 -9 -11 -12 14 23 15 -13 19 -18 -19 -16 -20 -22 25 27 26 -23 -24 28 -1 -30
right_child=1 3 -4 6 -6 -7 7 9 -10 10 11 12 -14 -15 16 -17 17 18 20 -21 21 22 24 -25 -26 -27 -28 -29 29 -31
leaf_value=-0.13389122352112154 -0.1122435007912749 0.15392548346571114 0.11174970967830872 0.11245862720380906 -0.038807479367153515 -0.052024338517072 0.13681226223724408 0.16241358518607815 -0.14457576516862583 0.1591782327896446 0.15692728635800227 0.15210422374660515 0.15543485400259005 -0.13680006578800127 0.15351129661339424 0.15579774837290472 0.15289997017322632 0.15252395053733669 0.15177360360907766 0.15269728242318056 0.15202660365699805 0.15182838212945335 0.15190954544541432 -0.13381191616510121 0.15188134667528255 0.1518914276688843 0.15196217172006282 -0.13387707921423184 -0.13388075861717003 -0.13389037256273578
leaf_count=374 35 26 24 27 21 21 20 20 20 26 27 25 21 23 21 21 20 20 39 20 22 20 24 20 22 20 33 38 35 109
internal_value=0 1.25088 -0.16575 1.42219 0.669839 -1.31419 1.5047 1.53039 -1.34364 1.53855 1.53403 1.52973 1.52643 -1.34002 1.5245 1.53805 1.52209 1.5204 1.51953 1.53115 1.5189 1.51922 1.51902 -1.33887 1.51924 1.5186 1.5194 -1.33889 -1.3389 -1.33888
internal_count=1194 554 59 495 47 640 448 421 619 401 381 355 328 599 307 46 261 220 200 41 180 141 119 576 79 40 57 556 518 144
shrinkage=0.1


Tree=6
num_leaves=31
num_cat=0
split_feature=477 382 237 333 1161 899 1118 791 703 301 157 13 690 1125 222 890 765 588 215 657 492 205 408 667 401 999 216 289 795 722
split_gain=352.982 23.9405 39.6871 12.567 3.13841 1.1323 0.83165 0.11268 0.105037 0.0507346 0.0260535 0.0106803 0.0081784 0.00436831 0.00189699 0.0021038 0.00488115 0.00184223 0.00110619 0.000317573 0.000922184 0.000202288 0.000134376 7.69992e-05 4.40221e-05 8.78019e-06 7.09833e-06 2.05637e-08 7.15781e-09 3.64425e-09
threshold=1.0000000180025095e-35 1.0000000180025095e-35 1.0000000180025095e-35 1.0000000180025095e-35 1.0000000180025095e-35 1.0000000180025095e-35 1.0000000180025095e-35 1.0000000180025095e-35 1.0000000180025095e-35 1.0000000180025095e-35 1.0000000180025095e-35 1.0000000180025095e-35 1.0000000180025095e-35 1.0000000180025095e-35 1.0000000180025095e-35 1.0000000180025095e-35 1.0000000180025095e-35 1.0000000180025095e-35 1.0000000180025095e-35 1.0000000180025095e-35 1.0000000180025095e-35 1.0000000180025095e-35 1.0000000180025095e-35 1.0000000180025095e-35 1.0000000180025095e-35 1.0000000180025095e-35 1.0000000180025095e-35 1.0000000180025095e-35 1.0000000180025095e-35 1.0000000180025095e-35
decision_type=2 2 2 2 2 2 2 2 2 2 2 2 2 2 2 2 2 2 2 2 2 2 2 2 2 2 2 2 2 2
left_child=4 2 3 6 10 -3 -2 -7 -4 -9 13 12 -11 19 21 16 -16 -10 23 25 -21 -13 -23 -17 -25 27 -24 28 29 -1
right_child=1 5 8 -5 -6 7 -8 9 17 11 -12 14 -14 -15 15 18 -18 -19 -20 20 -22 22 26 24 -26 -27 -28 -29 -30 -31
leaf_value=-0.12964425122305109 -0.11030130391965461 0.10627042524438268 0.16407709656899155 0.052698999152177073 -0.051458301429153343 0.16013384746236392 -0.16923893916708344 0.15411411566125169 0.1475698982295523 0.14613117005608631 -0.1382018401231446 0.14499295678569155 0.15081596852016294 -0.13263615530615619 0.14906664288612625 0.14440162966118461 0.14468191590841037 0.14496883621667225 0.14654433851489057 -0.12964338978718337 -0.13152622543898854 0.14396135339804544 0.14450765604049851 0.14511871299675755 0.14466494939272642 -0.12948933029040907 0.14466949825224029 -0.12963596817363118 -0.1296405504902666 -0.12964156728049706
leaf_count=384 21 32 21 22 27 30 23 38 28 38 20 39 31 29 24 24 23 23 20 53 20 24 27 20 20 22 24 20 36 31
internal_value=0 1.18718 0.421795 -0.764437 -1.26497 1.4467 -1.42832 1.47946 1.51804 1.46831 -1.30151 1.45914 1.48265 -1.29855 1.45241 1.458 1.4695 1.46408 1.4515 -1.29705 -1.30167 1.44594 1.44385 1.44709 1.44892 -1.29637 1.44584 -1.29643 -1.29644 -1.29644
internal_count=1194 552 138 66 642 414 44 382 72 352 615 314 69 595 245 131 47 51 84 566 73 114 75 64 40 493 51 471 451 415
shrinkage=0.1


Tree=7
num_leaves=31
num_cat=0
split_feature=473 687 596 791 283 619 344 599 562 993 385 1142 830 933 1125 1117 169 1013 135 217 586 174 174 91 37 334 198 515 507 656
split_gain=306.455 23.4161 13.3068 6.00805 8.48315 2.72494 1.07368 0.134217 0.035969 0.0219118 0.0181514 0.00471731 0.00529389 0.00598208 0.00308789 0.000945091 0.000806766 0.000655973 0.00035323 0.000101397 9.65635e-05 0.000183193 2.61939e-05 2.41288e-05 1.83192e-05 1.00775e-05 4.15643e-06 2.03323e-06 1.07677e-06 8.67615e-07
threshold=1.0000000180025095e-35 1.0000000180025095e-35 1.0000000180025095e-35 1.0000000180025095e-35 1.0000000180025095e-35 1.0000000180025095e-35 1.0000000180025095e-35 1.0000000180025095e-35 1.0000000180025095e-35 1.0000000180025095e-35 1.0000000180025095e-35 1.0000000180025095e-35 1.0000000180025095e-35 1.0000000180025095e-35 1.0000000180025095e-35 1.0000000180025095e-35 1.0000000180025095e-35 1.0000000180025095e-35 1.0000000180025095e-35 1.0000000180025095e-35 1.0000000180025095e-35 1.0000000180025095e-35 1.0000000180025095e-35 1.0000000180025095e-35 1.0000000180025095e-35 1.0000000180025095e-35 1.0000000180025095e-35 1.0000000180025095e-35 1.0000000180025095e-35 1.0000000180025095e-35
decision_type=2 2 2 2 2 2 2 2 2 2 2 2 2 2 2 2 2 2 2 2 2 2 2 2 2 2 2 2 2 2
left_child=5 2 -2 4 -3 9 -5 -8 -9 14 -10 12 13 -12 20 -14 -13 -18 -19 -17 26 -22 -20 -23 25 -24 29 28 -26 -1
right_child=1 3 -4 6 -6 -7 7 8 10 -11 11 16 15 -15 -16 19 17 18 22 -21 21 23 24 -25 27 -27 -28 -29 -30 -31
leaf_value=-0.1260370991955912 -0.13475903015271606 -0.028909200911292704 0.071229192720672005 0.095937057409369336 0.15021359596449829 -0.043887167850722067 0.12187652816215178 0.14945670522616 0.14628696505481079 -0.13222198311579281 0.1448573889428586 0.14022390544818078 0.1403209715716239 0.14019476554783009 -0.12868394080911291 0.13824959093111552 0.13985485646132942 0.13948552000788614 0.13875497749482965 0.1389516944226081 -0.12692722980614776 -0.12602592593203454 0.13832483225945522 -0.12629414095191246 0.13856016078715638 0.13851278973265085 -0.12614528876928377 0.13850602948147944 0.13861618874217937 -0.12600357205514742
leaf_count=370 25 24 34 27 23 23 20 20 20 37 23 21 26 31 28 20 25 22 24 21 22 51 33 34 38 25 21 21 31 54
internal_value=0 1.12281 -0.146739 1.28311 0.570123 -1.2337 1.36559 1.39445 1.40339 -1.26603 1.39854 1.39488 1.40611 1.4222 -1.2622 1.39282 1.38914 1.38786 1.38647 1.38611 -1.26089 -1.26299 1.38539 -1.26134 1.38504 1.38406 -1.26038 1.38567 1.38585 -1.26033
internal_count=1194 554 59 495 47 640 448 421 401 617 381 361 121 54 580 67 240 219 194 41 552 107 172 85 148 58 445 90 69 424
shrinkage=0.1


Tree=8
num_leaves=31
num_cat=0
split_feature=886 382 236 755 203 88 899 331 473 440 791 290 498 264 517 749 422 1125 331 138 1032 957 590 726 151 710 163 892 37 586
split_gain=268.416 21.4705 31.0862 23.7254 3.31073 0.908582 0.751624 0.136726 0.126061 0.0851188 0.0426354 0.0200774 0.01276 0.0231123 0.00520111 0.00261386 0.00257274 0.00194077 0.000528844 0.000481634 0.000376094 0.00056006 0.000356807 0.000406611 6.89516e-05 4.28806e-05 3.75768e-05 4.25304e-05 1.77154e-05 1.59891e-05
threshold=1.0000000180025095e-35 1.0000000180025095e-35 1.0000000180025095e-35 1.0000000180025095e-35 1.0000000180025095e-35 1.0000000180025095e-35 1.0000000180025095e-35 1.0000000180025095e-35 1.0000000180025095e-35 1.0000000180025095e-35 1.0000000180025095e-35 1.0000000180025095e-35 1.0000000180025095e-35 1.0000000180025095e-35 1.0000000180025095e-35 1.0000000180025095e-35 1.0000000180025095e-35 1.0000000180025095e-35 1.0000000180025095e-35 1.0000000180025095e-35 1.0000000180025095e-35 1.0000000180025095e-35 1.0000000180025095e-35 1.0000000180025095e-35 1.0000000180025095e-35 1.0000000180025095e-35 1.0000000180025095e-35 1.0000000180025095e-35 1.0000000180025095e-35 1.0000000180025095e-35
decision_type=2 2 2 2 2 2 2 2 2 2 2 2 2 2 2 2 2 2 2 2 2 2 2 2 2 2 2 2 2 2
left_child=4 2 3 5 8 -2 -3 -4 14 -8 -11 -12 13 -13 17 -14 -9 20 19 -17 21 -1 23 -20 -24 28 29 -28 -26 -22
right_child=1 6 7 -5 -6 -7 9 16 -10 10 11 12 15 -15 -16 18 -18 -19 22 -21 26 -23 24 -25 25 -27 27 -29 -30 -31
leaf_value=-0.12303932373665501 -0.15862809365330985 0.10110753432941609 0.15670694735641477 0.13719043308100609 -0.027579964558584052 -0.095714143694952805 0.14901118399057348 0.13726554714428468 -0.14166313704677541 0.14578565790614223 0.14224928115591981 0.14275519388064667 0.13604517247564729 0.13387084666848512 -0.12697539476711092 0.13383375414698842 0.13395626516693898 -0.12531660316081605 0.13356277219906432 0.13516821540695736 -0.12295201959104399 -0.12474618021049662 0.13317010585312059 0.13494369524385305 0.13330058436091882 0.13379812068337171 -0.12295346179087628 -0.12346895028841121 0.13357589521321031 -0.12308766689084152
leaf_count=32 38 31 20 20 21 20 26 20 20 20 20 27 36 34 23 27 31 25 22 30 385 20 25 23 20 36 20 22 33 67
internal_value=0 1.07236 0.343157 -0.638023 -1.20461 -1.40407 1.34209 1.41805 -1.2408 1.37059 1.36088 1.3544 1.34977 1.37921 -1.23324 1.34249 1.35282 -1.23167 1.33944 1.34542 -1.23063 -1.23713 1.33727 1.34274 1.3351 1.33604 -1.22994 -1.23225 1.33472 -1.22972
internal_count=1194 559 149 78 635 58 410 71 614 379 353 333 313 61 594 252 51 571 216 57 546 52 159 45 114 89 494 42 53 452
shrinkage=0.1


Tree=9
num_leaves=31
num_cat=0
split_feature=887 385 236 806 506 804 190 1024 812 452 791 567 890 1013 287 614 821 738 753 1128 414 892 903 206 138 583 586 460 1112 629
split_gain=234.907 16.7766 16.2321 13.4513 4.15384 3.30821 1.826 0.127246 0.115815 0.118346 0.0667985 0.0342904 0.0809755 0.031045 0.00482023 0.00980648 0.0023047 0.00218589 0.00247013 0.00123767 0.00055708 0.000345689 0.00050703 0.000308432 0.000104324 7.13529e-05 5.13498e-05 8.78426e-05 4.82154e-05 3.48005e-05
threshold=1.0000000180025095e-35 1.0000000180025095e-35 1.0000000180025095e-35 1.0000000180025095e-35 1.0000000180025095e-35 1.0000000180025095e-35 1.0000000180025095e-35 1.0000000180025095e-35 1.0000000180025095e-35 1.0000000180025095e-35 1.0000000180025095e-35 1.0000000180025095e-35 1.0000000180025095e-35 1.0000000180025095e-35 1.0000000180025095e-35 1.0000000180025095e-35 1.0000000180025095e-35 1.0000000180025095e-35 1.0000000180025095e-35 1.0000000180025095e-35 1.0000000180025095e-35 1.0000000180025095e-35 1.0000000180025095e-35 1.0000000180025095e-35 1.0000000180025095e-35 1.0000000180025095e-35 1.0000000180025095e-35 1.0000000180025095e-35 1.0000000180025095e-35 1.0000000180025095e-35
decision_type=2 2 2 2 2 2 2 2 2 2 2 2 2 2 2 2 2 2 2 2 2 2 2 2 2 2 2 2 2 2
left_child=3 2 5 -1 -3 -2 -6 -8 9 13 -9 12 -12 19 15 -13 -14 20 -19 21 24 26 -23 -22 -16 28 -5 -28 -25 -30
right_child=1 4 -4 8 6 -7 7 10 -10 -11 11 14 16 -15 17 -17 -18 18 -20 -21 23 22 -24 25 -26 -27 27 -29 29 -31
leaf_value=0.057193967961595593 -0.14610127237730741 0.025586356824243629 0.14351234542437996 -0.12031842091439029 0.062390936574534643 -0.018016085901637679 0.1139489291431328 0.14159010376609604 -0.13699273104341456 -0.10048511949747763 0.14828756750029123 0.13016567410232302 0.132845693804231 -0.12960225491182228 0.13014184752786398 0.13646230509719018 0.12954493668544051 0.13002927642161233 0.13352503950397307 -0.12220451434467183 0.13021114755802962 -0.12048081881417372 -0.12175721681785817 0.12952592939231575 0.13083422466046235 0.12971709457567307 -0.12093762490308546 -0.12030775786990018 0.12891315109993448 0.12933500425373756
leaf_count=24 24 21 26 372 21 21 20 38 25 20 20 36 21 24 21 21 27 24 21 29 38 66 32 31 29 33 27 37 21 24
internal_value=0 1.07409 0.0201763 -1.12786 1.2355 -0.855671 1.28508 1.31901 -1.21096 -1.20293 1.32816 1.31783 1.36489 -1.20985 1.30677 1.32607 1.31015 1.30209 1.31688 -1.20553 1.29865 -1.20459 -1.20908 1.2963 1.30545 1.29425 -1.20357 -1.20576 1.29297 1.29139
internal_count=1194 538 71 656 467 45 446 425 632 607 405 367 68 587 299 57 48 242 45 563 197 534 98 147 50 109 436 64 76 45
shrinkage=0.1


Tree=10
num_leaves=31
num_cat=0
split_feature=886 382 236 755 1133 777 88 993 331 290 791 444 457 422 409 710 639 1032 914 977 354 163 903 410 237 63 233 586 233 735
split_gain=206.668 17.4527 24.3334 18.7509 3.21963 0.865414 0.817163 0.0777083 0.0704329 0.0359287 0.0254437 0.0067631 0.0124861 0.00194745 0.00109678 0.000738534 0.000416015 0.000308828 0.000344234 0.000263702 0.000207395 0.000202509 0.000234067 0.000109604 0.000136131 6.10952e-05 9.62477e-05 4.54051e-05 7.25164e-05 3.89205e-05
threshold=1.0000000180025095e-35 1.0000000180025095e-35 1.0000000180025095e-35 1.0000000180025095e-35 1.0000000180025095e-35 1.0000000180025095e-35 1.0000000180025095e-35 1.0000000180025095e-35 1.0000000180025095e-35 1.0000000180025095e-35 1.0000000180025095e-35 1.0000000180025095e-35 1.0000000180025095e-35 1.0000000180025095e-35 1.0000000180025095e-35 1.0000000180025095e-35 1.0000000180025095e-35 1.0000000180025095e-35 1.0000000180025095e-35 1.0000000180025095e-35 1.0000000180025095e-35 1.0000000180025095e-35 1.0000000180025095e-35 1.0000000180025095e-35 1.0000000180025095e-35 1.0000000180025095e-35 1.0000000180025095e-35 1.0000000180025095e-35 1.0000000180025095e-35 1.0000000180025095e-35
decision_type=2 2 2 2 2 2 2 2 2 2 2 2 2 2 2 2 2 2 2 2 2 2 2 2 2 2 2 2 2 2
left_child=4 2 3 6 7 -3 -2 17 -4 -7 -11 15 14 -10 16 23 -13 18 -1 -17 -21 25 -23 24 -12 26 -19 -27 -29 -26
right_child=1 5 8 -5 -6 9 -8 -9 13 10 11 12 -14 -15 -16 19 -18 21 -20 20 -22 22 -24 -25 29 27 -28 28 -30 -31
leaf_value=-0.11823892316825711 -0.14852783485572524 0.085222406484507976 0.14366399609113273 0.12682090942386129 -0.021971160296233309 0.13636164394273462 -0.085785099491677216 -0.13030484966271347 0.12920567186410134 0.13501861507326116 0.12659502068936934 0.12706507769354614 0.13232385106371544 0.12613050830689881 0.12814946857875245 0.12752100771574792 0.12564435465774138 -0.11802531808699122 -0.11964156583125979 0.12610585494769694 0.12702266409711191 -0.11815351907020576 -0.11938330770196617 0.12570849401583337 0.12569197633758683 -0.11800817888463536 -0.11876740258041851 -0.11801514978415842 -0.11861402647121416 0.12614712479111567
leaf_count=32 38 26 20 20 22 29 20 35 20 24 30 22 37 31 29 30 29 30 22 26 35 28 20 47 23 358 24 38 26 23
internal_value=0 0.992544 0.301912 -0.595291 -1.1496 1.25457 -1.30748 -1.19057 1.32434 1.28533 1.27826 1.27233 1.28715 1.27375 1.26962 1.26404 1.26266 -1.18204 -1.18827 1.26931 1.26636 -1.18138 -1.18676 1.26007 1.26189 -1.18083 -1.18359 -1.18047 -1.18262 1.25921
internal_count=1194 559 149 78 635 410 58 613 71 384 355 331 117 51 80 214 51 578 54 91 61 524 48 123 76 476 54 422 64 46
shrinkage=0.1


Tree=11
num_leaves=31
num_cat=0
split_feature=477 382 237 110 473 777 232 801 301 369 791 291 1130 761 755 561 693 369 138 270 472 407 1032 957 681 573 661 235 524 703
split_gain=182.271 14.7116 22.2931 7.42196 2.89714 1.2697 0.380418 0.0264486 0.0262235 0.0208743 0.0182159 0.00441362 0.00233019 0.00103266 0.000905817 0.00184081 0.000591222 0.000230505 0.000331393 0.000212863 0.00015742 0.000260985 0.000115173 0.000265625 0.000110565 5.84511e-05 2.97451e-05 2.66673e-05 4.61088e-05 1.60211e-05
threshold=1.0000000180025095e-35 1.0000000180025095e-35 1.0000000180025095e-35 1.0000000180025095e-35 1.0000000180025095e-35 1.0000000180025095e-35 1.0000000180025095e-35 1.0000000180025095e-35 1.0000000180025095e-35 1.0000000180025095e-35 1.0000000180025095e-35 1.0000000180025095e-35 1.0000000180025095e-35 1.0000000180025095e-35 1.0000000180025095e-35 1.0000000180025095e-35 1.0000000180025095e-35 1.0000000180025095e-35 1.0000000180025095e-35 1.0000000180025095e-35 1.0000000180025095e-35 1.0000000180025095e-35 1.0000000180025095e-35 1.0000000180025095e-35 1.0000000180025095e-35 1.0000000180025095e-35 1.0000000180025095e-35 1.0000000180025095e-35 1.0000000180025095e-35 1.0000000180025095e-35
decision_type=2 2 2 2 2 2 2 2 2 2 2 2 2 2 2 2 2 2 2 2 2 2 2 2 2 2 2 2 2 2
left_child=4 2 3 6 12 -3 -2 13 9 -7 -10 -12 19 -4 17 -16 -17 18 -13 22 -18 -22 23 -1 -19 26 27 28 -24 -26
right_child=1 5 7 -5 -6 8 -8 -9 10 -11 11 14 -14 -15 15 16 20 24 -20 -21 21 -23 25 -25 29 -27 -28 -29 -30 -31
leaf_value=-0.11593564159928066 -0.10305630069940344 0.072483137637344305 0.12504016732859655 0.036500655631803949 -0.027007286428382266 0.1357842574214326 -0.14794428625347719 0.13427829854639411 0.13063622039835515 0.1249487256505766 0.12685029422609334 0.12289405808936092 -0.11865373733758887 0.12270949146329224 0.12571047706407731 0.12460071300740672 0.12276047477984596 0.12322830787643418 0.12413839571244836 -0.11689183809838027 0.12407994533982394 0.12296090249544078 -0.11605494448486085 -0.11722775726846693 0.12275619389313495 -0.11643867547097048 -0.11577557143666169 -0.1160257740760148 -0.11648530044334703 0.12249807449591277
leaf_count=30 21 27 30 25 20 21 20 21 24 21 27 30 30 21 30 24 35 30 26 30 24 31 62 23 33 33 33 350 31 31
internal_value=0 0.968072 0.292296 -0.666509 -1.11941 1.21139 -1.26699 1.27391 1.25106 1.30792 1.24347 1.23808 -1.16284 1.2411 1.23514 1.23968 1.23494 1.23071 1.2348 -1.16152 1.23189 1.23456 -1.16112 -1.16514 1.22824 -1.16069 -1.16043 -1.16063 -1.162 1.22632
internal_count=1194 552 138 66 642 414 41 72 387 42 345 321 622 51 294 144 114 150 56 592 90 55 562 53 94 509 476 443 93 64
shrinkage=0.1


Tree=12
num_leaves=31
num_cat=0
split_feature=887 385 236 806 506 804 190 1024 677 473 791 567 890 1017 452 1130 291 502 729 635 1173 802 723 1032 890 586 1172 412 439 515
split_gain=161.37 11.7565 10.7869 10.1794 3.75755 2.68302 1.59641 0.117834 0.0894124 0.115847 0.0278527 0.0235746 0.0525247 0.00566848 0.00199872 0.00172042 0.00137042 0.00109779 0.00108778 0.000893511 0.000207296 0.000124144 7.40836e-05 6.50094e-05 4.91649e-05 3.88587e-05 3.50811e-05 2.67974e-05 2.36035e-05 1.44653e-05
threshold=1.0000000180025095e-35 1.0000000180025095e-35 1.0000000180025095e-35 1.0000000180025095e-35 1.0000000180025095e-35 1.0000000180025095e-35 1.0000000180025095e-35 1.0000000180025095e-35 1.0000000180025095e-35 1.0000000180025095e-35 1.0000000180025095e-35 1.0000000180025095e-35 1.0000000180025095e-35 1.0000000180025095e-35 1.0000000180025095e-35 1.0000000180025095e-35 1.0000000180025095e-35 1.0000000180025095e-35 1.0000000180025095e-35 1.0000000180025095e-35 1.0000000180025095e-35 1.0000000180025095e-35 1.0000000180025095e-35 1.0000000180025095e-35 1.0000000180025095e-35 1.0000000180025095e-35 1.0000000180025095e-35 1.0000000180025095e-35 1.0000000180025095e-35 1.0000000180025095e-35
decision_type=2 2 2 2 2 2 2 2 2 2 2 2 2 2 2 2 2 2 2 2 2 2 2 2 2 2 2 2 2 2
left_child=3 2 5 -1 -3 -2 -6 -8 9 13 -9 12 -12 15 17 23 -16 -13 -14 -18 -21 22 26 24 -5 -25 -22 28 -27 -23
right_child=1 4 -4 8 6 -7 7 10 -10 -11 11 14 18 -15 16 -17 19 -19 -20 20 21 29 -24 25 -26 27 -28 -29 -30 -31
leaf_value=0.050324991832559354 -0.13304566335852044 0.013791332095310763 0.13130465948101955 -0.11434780465704647 0.052074947780376614 -0.010065799143525079 0.10288492043928557 0.1290166992835062 -0.097853170823148677 -0.13375462304162744 0.13666449877888054 0.12404711085263231 0.12246388901192432 -0.11931414980336325 0.12259617240597825 -0.11657415358902179 0.12200781857166264 0.12136815966058097 0.11991504574286489 0.1210863915855214 0.12055070304729679 0.12012780577313165 0.12084747010173454 -0.11425710577725974 -0.1150041844398107 -0.11476943046057241 0.12010303300969499 -0.11425624828610853 -0.11437521220294729 0.1198818270043529
leaf_count=24 24 21 26 20 21 21 20 38 25 20 20 20 27 20 25 30 26 21 21 25 24 80 30 408 21 32 26 32 24 22
internal_value=0 0.97396 0.0233804 -1.0619 1.12715 -0.723086 1.18178 1.21844 -1.14839 -1.15577 1.22839 1.22079 1.26397 -1.14644 1.21045 -1.14457 1.20765 1.22718 1.21383 1.2056 1.20372 1.20272 1.20519 -1.14327 -1.14689 -1.14297 1.20319 -1.14478 -1.14602 1.20075
internal_count=1194 538 71 656 467 45 446 425 632 607 405 367 68 587 299 567 258 41 48 233 207 182 80 537 41 496 50 88 56 102
shrinkage=0.1


Tree=13
num_leaves=31
num_cat=0
split_feature=473 382 237 754 274 777 752 566 379 290 801 663 791 1130 287 237 216 549 559 1032 914 765 407 225 332 49 815 608 341 822
split_gain=142.737 13.9496 17.8098 19.4058 2.0155 1.03926 0.0779829 0.0392 0.0248565 0.0154346 0.0152023 0.00790921 0.00757095 0.000988666 0.000869318 0.000692782 0.000916696 0.000923484 0.000392646 0.000241155 0.000239136 0.000149505 0.000189049 0.000128645 0.000198457 7.64458e-05 4.72124e-05 6.60705e-05 3.25124e-05 1.90251e-05
threshold=1.0000000180025095e-35 1.0000000180025095e-35 1.0000000180025095e-35 1.0000000180025095e-35 1.0000000180025095e-35 1.0000000180025095e-35 1.0000000180025095e-35 1.0000000180025095e-35 1.0000000180025095e-35 1.0000000180025095e-35 1.0000000180025095e-35 1.0000000180025095e-35 1.0000000180025095e-35 1.0000000180025095e-35 1.0000000180025095e-35 1.0000000180025095e-35 1.0000000180025095e-35 1.0000000180025095e-35 1.0000000180025095e-35 1.0000000180025095e-35 1.0000000180025095e-35 1.0000000180025095e-35 1.0000000180025095e-35 1.0000000180025095e-35 1.0000000180025095e-35 1.0000000180025095e-35 1.0000000180025095e-35 1.0000000180025095e-35 1.0000000180025095e-35 1.0000000180025095e-35
decision_type=2 2 2 2 2 2 2 2 2 2 2 2 2 2 2 2 2 2 2 2 2 2 2 2 2 2 2 2 2 2
left_child=4 2 3 6 11 -3 -2 8 -7 -9 14 13 -11 19 -4 16 17 -14 25 20 -1 -18 -23 26 -25 28 27 -21 -17 -27
right_child=1 5 10 -5 -6 7 -8 9 -10 12 -12 -13 15 -15 -16 18 21 -19 -20 23 -22 22 -24 24 -26 29 -28 -29 -30 -31
leaf_value=-0.11299056601939195 -0.12646869003118921 0.069512600213472497 0.11780699428779424 0.14090842056256861 -0.027492980642191234 0.13310045546240812 -0.14522323550616312 0.12598941071751621 0.12067858903151703 0.12343455667201289 0.12741382446585259 -0.11805772685968868 0.11866244765732648 -0.11470142123578614 0.12010040885427974 0.11798521426706383 0.11789145888261454 0.12105901208861392 0.11920968663923022 -0.11331758444583623 -0.11430226132554158 0.11914854974435965 0.11813702023993054 -0.11401274043342707 -0.11275672592843809 0.11771478693716353 -0.11271292109527545 -0.11279051740639584 0.11848493243793008 0.11799044551151164
leaf_count=35 29 26 22 20 23 24 22 21 21 22 21 28 24 29 29 20 31 23 20 33 21 28 28 21 29 77 342 79 20 26
internal_value=0 0.899054 0.234041 -0.568724 -1.09521 1.16486 -1.35915 1.2041 1.27649 1.1937 1.21852 -1.13253 1.18857 -1.12992 1.19152 1.18465 1.18924 1.19879 1.18077 -1.12895 -1.13504 1.18385 1.18651 -1.12825 -1.133 1.17913 -1.12772 -1.12948 1.18237 1.17785
internal_count=1194 554 143 71 640 411 51 385 45 340 72 617 319 589 51 297 134 47 163 560 56 87 56 504 50 143 454 112 40 103
shrinkage=0.1


Tree=14
num_leaves=31
num_cat=0
split_feature=886 382 236 755 813 899 88 993 331 440 64 562 1175 755 422 629 1130 270 804 457 815 581 854 527 174 710 1147 956 226 532
split_gain=126.867 11.6205 15.1048 12.6047 2.84506 1.08744 0.565448 0.0329575 0.0254754 0.0180033 0.00870176 0.00308848 0.00235566 0.000934886 0.000811748 0.000786995 0.00078206 0.000648793 0.000471028 0.000366064 0.000238489 9.99355e-05 9.75777e-05 0.000129646 0.000102166 7.99506e-05 4.49701e-05 2.58869e-05 1.41158e-05 1.35569e-05
threshold=1.0000000180025095e-35 1.0000000180025095e-35 1.0000000180025095e-35 1.0000000180025095e-35 1.0000000180025095e-35 1.0000000180025095e-35 1.0000000180025095e-35 1.0000000180025095e-35 1.0000000180025095e-35 1.0000000180025095e-35 1.0000000180025095e-35 1.0000000180025095e-35 1.0000000180025095e-35 1.0000000180025095e-35 1.0000000180025095e-35 1.0000000180025095e-35 1.0000000180025095e-35 1.0000000180025095e-35 1.0000000180025095e-35 1.0000000180025095e-35 1.0000000180025095e-35 1.0000000180025095e-35 1.0000000180025095e-35 1.0000000180025095e-35 1.0000000180025095e-35 1.0000000180025095e-35 1.0000000180025095e-35 1.0000000180025095e-35 1.0000000180025095e-35 1.0000000180025095e-35
decision_type=2 2 2 2 2 2 2 2 2 2 2 2 2 2 2 2 2 2 2 2 2 2 2 2 2 2 2 2 2 2
left_child=4 2 3 6 7 -3 -2 16 -4 -7 -11 -12 -13 20 -10 -15 17 22 19 -17 -14 -20 23 24 -1 28 -25 -27 -22 -24
right_child=1 5 8 -5 -6 9 -8 -9 14 10 11 12 13 15 -16 18 -18 -19 21 -21 25 -23 29 26 -26 27 -28 -29 -30 -31
leaf_value=-0.11168440205217452 -0.13270037272953367 0.06707852227471027 0.12818982798417131 0.1150532926857722 -0.012823327060533081 0.12465146416073965 -0.073768505938399218 -0.12090346566055261 0.1182967042976104 0.12264095017923152 0.12040345697403879 0.11952756711439116 0.11699531148979128 0.11880047147018831 0.11598127998417569 0.11793582346461989 -0.11321606548662561 -0.11307293003362828 0.11665251920550453 0.11663234576642018 0.11563661284860237 0.11579336121540079 -0.11161000006208149 -0.11139852279400309 -0.112667788788747 0.11655628962457798 -0.11193150836352246 0.11609804086439751 0.11590387733431884 -0.11137224792570553
leaf_count=23 38 31 20 20 26 26 20 33 20 22 21 24 23 20 31 38 30 27 20 32 23 26 28 86 21 20 21 21 63 340
internal_value=0 0.883322 0.250886 -0.511239 -1.07379 1.13594 -1.16828 -1.12327 1.20555 1.18092 1.17513 1.17123 1.16891 1.16654 1.16935 1.1719 -1.11662 -1.11568 1.16899 1.17356 1.16152 1.16173 -1.11483 -1.11704 -1.12167 1.15994 -1.11505 1.16324 1.15833 -1.11391
internal_count=1194 559 149 78 635 410 58 609 71 379 353 331 310 286 51 136 576 546 116 70 150 46 519 151 44 127 107 41 86 368
shrinkage=0.1


Tree=15
num_leaves=31
num_cat=0
split_feature=473 382 237 754 577 777 386 301 362 798 564 791 555 13 683 270 333 1130 808 537 193 710 527 876 818 543 559 778 658 1139
split_gain=112.882 11.0485 14.0275 15.1389 2.04615 1.19557 0.0414107 0.0289165 0.012218 0.0102328 0.00530081 0.0031175 0.00163491 0.00106581 0.00216693 0.000691853 0.000529023 0.000353598 0.00030792 0.000224437 0.000131082 7.0278e-05 5.45093e-05 0.000113276 5.16599e-05 3.67056e-05 2.77301e-05 2.13614e-05 1.59594e-05 2.42111e-05
threshold=1.0000000180025095e-35 1.0000000180025095e-35 1.0000000180025095e-35 1.0000000180025095e-35 1.0000000180025095e-35 1.0000000180025095e-35 1.0000000180025095e-35 1.0000000180025095e-35 1.0000000180025095e-35 1.0000000180025095e-35 1.0000000180025095e-35 1.0000000180025095e-35 1.0000000180025095e-35 1.0000000180025095e-35 1.0000000180025095e-35 1.0000000180025095e-35 1.0000000180025095e-35 1.0000000180025095e-35 1.0000000180025095e-35 1.0000000180025095e-35 1.0000000180025095e-35 1.0000000180025095e-35 1.0000000180025095e-35 1.0000000180025095e-35 1.0000000180025095e-35 1.0000000180025095e-35 1.0000000180025095e-35 1.0000000180025095e-35 1.0000000180025095e-35 1.0000000180025095e-35
decision_type=2 2 2 2 2 2 2 2 2 2 2 2 2 2 2 2 2 2 2 2 2 2 2 2 2 2 2 2 2 2
left_child=4 2 3 6 12 -3 -2 8 -7 16 -9 -12 15 14 -13 17 -4 22 19 20 -15 27 23 -1 -23 28 -27 -20 -24 -30
right_child=1 5 9 -5 -6 7 -8 10 -10 -11 11 13 -14 18 -16 -17 -18 -19 21 -21 -22 24 25 -25 -26 26 -28 -29 29 -31
leaf_value=-0.11101424210234874 -0.12017939518218859 0.059270791778301885 0.11419244280859714 0.13274616252362179 -0.01688441432940288 0.12800457576346189 -0.134888149492013 0.11909062872400003 0.11841281585095152 0.12257743429449711 0.1183809361196726 0.11804426062147451 -0.11318591408698447 0.11504848714420844 0.11412224278021064 -0.11192326329730795 0.11609021991691047 -0.11154384012229607 0.11433235321936588 0.11566612278225004 0.11408989781826231 0.11494612004201757 -0.11018914252548813 -0.11022357485769091 0.1142931447009502 -0.11026722542447216 -0.11083519378547246 0.11406293544545626 -0.11065959923057096 -0.11016690742219507
leaf_count=34 27 26 26 20 20 20 24 29 21 20 20 22 24 28 27 32 26 26 40 27 24 20 363 54 24 20 20 83 22 25
internal_value=0 0.859156 0.223632 -0.532984 -1.06452 1.11603 -1.28277 1.16344 1.23263 1.17532 1.15398 1.15029 -1.10566 1.14766 1.16016 -1.10448 1.15181 -1.10356 1.14506 1.14987 1.14616 1.1427 -1.10294 -1.10539 1.14595 -1.10245 -1.10556 1.14151 -1.10214 -1.10402
internal_count=1194 554 143 71 640 411 51 385 41 72 344 315 620 295 49 596 52 564 246 79 52 167 538 88 44 450 40 123 410 47
shrinkage=0.1


Tree=16
num_leaves=31
num_cat=0
split_feature=887 169 566 806 382 143 677 473 557 761 777 301 564 604 754 225 1125 345 216 183 182 276 420 556 614 467 1032 233 1148 453
split_gain=100.652 7.9908 8.07938 7.34498 2.53684 5.42754 0.0839514 0.0617811 0.0476473 0.0186973 0.0110597 0.00803394 0.00293225 0.00178729 0.0010658 0.00187927 0.00046613 0.000238464 0.000441319 0.000208025 0.000123276 0.000113758 0.000104264 3.40199e-05 3.55915e-05 2.36557e-05 2.60817e-05 1.81372e-05 1.49578e-05 6.01302e-06
threshold=1.0000000180025095e-35 1.0000000180025095e-35 1.0000000180025095e-35 1.0000000180025095e-35 1.0000000180025095e-35 1.0000000180025095e-35 1.0000000180025095e-35 1.0000000180025095e-35 1.0000000180025095e-35 1.0000000180025095e-35 1.0000000180025095e-35 1.0000000180025095e-35 1.0000000180025095e-35 1.0000000180025095e-35 1.0000000180025095e-35 1.0000000180025095e-35 1.0000000180025095e-35 1.0000000180025095e-35 1.0000000180025095e-35 1.0000000180025095e-35 1.0000000180025095e-35 1.0000000180025095e-35 1.0000000180025095e-35 1.0000000180025095e-35 1.0000000180025095e-35 1.0000000180025095e-35 1.0000000180025095e-35 1.0000000180025095e-35 1.0000000180025095e-35 1.0000000180025095e-35
decision_type=2 2 2 2 2 2 2 2 2 2 2 2 2 2 2 2 2 2 2 2 2 2 2 2 2 2 2 2 2 2
left_child=3 2 -2 -1 5 8 7 13 9 -3 -6 -12 -13 16 22 17 21 19 -19 -16 -21 25 -14 24 -24 26 -5 29 -29 -27
right_child=1 4 -4 6 10 -7 -8 -9 -10 -11 11 12 14 -15 15 -17 -18 18 -20 20 -22 -23 23 -25 -26 27 -28 28 -30 -31
leaf_value=0.046082192686532165 -0.11383775962562025 0.11467511639979998 0.089578118205311891 -0.1094652131038074 0.12045993477695459 -0.025864062256720527 -0.090187669604641099 -0.125531440262836 0.12584614932947863 0.10167730722735775 0.11845418923986249 0.1167625042866495 0.11326498942080997 -0.1123683802731968 0.11402427947300137 0.11656108113519195 -0.1106504855335361 0.11514551642286033 0.11314082982279242 0.11351960047190882 0.11260588528221992 -0.11000942731295574 0.11316969120948872 0.1125054216833523 0.1126088220472251 -0.10928341393785322 -0.10910732056181305 -0.10963312808947241 -0.10925954428974233 -0.10908686120165248
leaf_count=24 32 23 35 28 23 31 25 20 21 20 35 27 41 22 24 22 28 20 21 23 39 21 21 56 24 48 350 30 25 35
internal_value=0 0.886576 -0.0539659 -1.00046 1.02905 0.616284 -1.09399 -1.10264 1.15271 1.08986 1.14773 1.1429 1.13769 -1.09427 1.13472 1.1404 -1.09295 1.13566 1.14167 1.13266 1.12955 -1.09216 1.12846 1.12672 1.12875 -1.09182 -1.09135 -1.09308 -1.09466 -1.09201
internal_count=1194 538 67 656 471 95 632 607 64 43 376 353 318 587 291 149 565 127 41 86 62 537 142 101 45 516 378 138 55 83
shrinkage=0.1


Tree=17
num_leaves=31
num_cat=0
split_feature=477 382 237 333 473 777 1118 987 801 64 754 205 270 333 1130 979 667 363 369 23 887 377 63 1149 541 467 977 568 607 1032
split_gain=89.729 8.20115 11.8998 3.50009 2.38856 1.55323 0.373531 0.0153173 0.00813629 0.00370907 0.00121085 0.0012145 0.000619379 0.000329816 0.000266001 0.000203123 0.000205339 0.000115083 9.81367e-05 0.000111231 8.83815e-05 6.19879e-05 3.88734e-05 6.94347e-05 3.52828e-05 2.5288e-05 2.45912e-05 1.8512e-05 1.63689e-05 1.48761e-05
threshold=1.0000000180025095e-35 1.0000000180025095e-35 1.0000000180025095e-35 1.0000000180025095e-35 1.0000000180025095e-35 1.0000000180025095e-35 1.0000000180025095e-35 1.0000000180025095e-35 1.0000000180025095e-35 1.0000000180025095e-35 1.0000000180025095e-35 1.0000000180025095e-35 1.0000000180025095e-35 1.0000000180025095e-35 1.0000000180025095e-35 1.0000000180025095e-35 1.0000000180025095e-35 1.0000000180025095e-35 1.0000000180025095e-35 1.0000000180025095e-35 1.0000000180025095e-35 1.0000000180025095e-35 1.0000000180025095e-35 1.0000000180025095e-35 1.0000000180025095e-35 1.0000000180025095e-35 1.0000000180025095e-35 1.0000000180025095e-35 1.0000000180025095e-35 1.0000000180025095e-35
decision_type=2 2 2 2 2 2 2 2 2 2 2 2 2 2 2 2 2 2 2 2 2 2 2 2 2 2 2 2 2 2
left_child=4 2 3 6 12 -3 -2 -7 13 -9 18 -12 14 -4 20 16 -13 -17 19 -11 22 -19 23 -1 26 29 -20 -26 -27 -24
right_child=1 5 8 -5 -6 7 -8 9 -10 10 11 15 -14 -15 -16 17 -18 21 24 -21 -22 -23 25 -25 27 28 -28 -29 -30 -31
leaf_value=-0.10911399088370824 -0.073288555985035558 0.045599010046455779 0.11137115560343032 0.03112224131443686 -0.015944427033209221 0.11927519766946877 -0.12562751131313329 0.11607690537056668 0.11913784470685217 0.11145319998407931 0.1143333605317457 0.11345880958778361 -0.10997018024319885 0.11301564191500063 -0.10944250395713673 0.11237990471046154 0.11217697536503926 0.11116305537134058 0.11166780250589198 0.11236543210620241 -0.10906300591715501 0.11190782974049047 -0.10843462216591698 -0.1082327715555747 0.11080368683000939 -0.10831102529063547 0.11120518605210319 0.11120878124475125 -0.10862408629416112 -0.10816735494526147
leaf_count=20 21 27 26 22 20 31 23 23 21 43 34 21 32 25 28 31 31 22 25 21 20 27 32 32 21 100 25 32 30 328
internal_value=0 0.833516 0.226067 -0.581328 -1.02641 1.06898 -1.04098 1.1303 1.14624 1.12377 1.12082 1.12685 -1.08458 1.12216 -1.08365 1.1223 1.12715 1.119 1.11445 1.11761 -1.08306 1.11582 -1.08277 -1.08583 1.11242 -1.08244 1.1144 1.11051 -1.08385 -1.08192
internal_count=1194 552 138 66 642 414 44 387 72 356 333 166 622 51 590 132 52 80 167 64 562 49 542 52 103 490 50 53 130 360
shrinkage=0.1


Tree=18
num_leaves=31
num_cat=0
split_feature=887 95 749 381 1134 136 715 663 295 387 384 212 1157 993 453 270 755 654 1130 345 737 61 235 568 467 563 1020 129 516 233
split_gain=79.9072 6.77694 6.49485 6.3285 2.77905 1.86939 0.119446 0.0234205 0.0115993 0.0140536 0.00848783 0.00704933 0.00164046 0.00112544 0.000563298 0.00037955 0.00024273 0.000309689 0.000194526 0.000152638 8.67945e-05 3.94862e-05 9.41822e-05 1.81967e-05 1.58546e-05 1.53929e-05 1.34773e-05 7.58482e-06 6.22041e-06 3.7385e-06
threshold=1.0000000180025095e-35 1.0000000180025095e-35 1.0000000180025095e-35 1.0000000180025095e-35 1.0000000180025095e-35 1.0000000180025095e-35 1.0000000180025095e-35 1.0000000180025095e-35 1.0000000180025095e-35 1.0000000180025095e-35 1.0000000180025095e-35 1.0000000180025095e-35 1.0000000180025095e-35 1.0000000180025095e-35 1.0000000180025095e-35 1.0000000180025095e-35 1.0000000180025095e-35 1.0000000180025095e-35 1.0000000180025095e-35 1.0000000180025095e-35 1.0000000180025095e-35 1.0000000180025095e-35 1.0000000180025095e-35 1.0000000180025095e-35 1.0000000180025095e-35 1.0000000180025095e-35 1.0000000180025095e-35 1.0000000180025095e-35 1.0000000180025095e-35 1.0000000180025095e-35
decision_type=2 2 2 2 2 2 2 2 2 2 2 2 2 2 2 2 2 2 2 2 2 2 2 2 2 2 2 2 2 2
left_child=3 2 -2 6 -3 -6 7 13 9 -7 11 -10 -12 15 -14 18 20 -18 21 23 -16 22 -1 -19 -23 -22 -24 29 -27 -26
right_child=1 4 -4 -5 5 8 -8 -9 10 -11 12 -13 14 -15 16 -17 17 19 -20 -21 25 24 26 -25 27 28 -28 -29 -30 -31
leaf_value=-0.10822196941050213 -0.11839534199962731 0.016736255810160104 0.097496333500842608 0.049362232573326073 0.042544346481258835 0.1104407073104937 -0.083674929090158223 -0.11813461314061405 0.11869900435267983 0.12158293596134447 0.11312758408278541 0.11122613714982849 0.11223554982878266 -0.11028271007516677 0.1106000256806719 -0.10888850607104344 0.11182707924545177 0.11038817185687583 -0.10846615637044051 0.11105935276825235 0.10976722685325327 -0.1073309334739348 -0.10737067491250785 0.10999781635711917 -0.10736244586546838 0.11019227366028544 -0.10772094374528347 -0.10769033727306934 0.11000005779928548 -0.10754505436933287
leaf_count=30 31 30 26 22 36 23 30 22 23 22 30 26 21 20 39 29 26 25 28 36 26 276 81 33 38 33 21 27 52 32
internal_value=0 0.847532 -0.189767 -0.975744 0.975041 1.05045 -1.07087 -1.08286 1.12212 1.1689 1.1155 1.15302 1.1086 -1.07698 1.10599 -1.07584 1.1046 1.10818 -1.07505 1.10522 1.10164 -1.07446 -1.0763 1.10169 -1.0738 1.10005 -1.07445 -1.07516 1.10075 -1.07447
internal_count=1194 538 57 656 481 451 634 604 415 45 370 49 321 582 291 562 270 120 533 94 150 505 132 58 373 111 102 97 85 70
shrinkage=0.1


Tree=19
num_leaves=31
num_cat=0
split_feature=886 382 237 754 1133 752 473 993 739 194 801 44 987 333 556 412 270 808 355 237 407 175 61 235 508 665 591 607 129 40
split_gain=70.9406 7.43134 9.57766 11.1436 2.57519 1.36837 0.0417524 0.0123491 0.00656956 0.00591554 0.00472567 0.00366374 0.0015917 0.000348954 0.000317737 0.00055493 0.000316862 9.24255e-05 9.21361e-05 5.18519e-05 3.42041e-05 2.95093e-05 2.62924e-05 6.19684e-05 2.30396e-05 1.06155e-05 1.03409e-05 8.84514e-06 5.7137e-06 3.52153e-06
threshold=1.0000000180025095e-35 1.0000000180025095e-35 1.0000000180025095e-35 1.0000000180025095e-35 1.0000000180025095e-35 1.0000000180025095e-35 1.0000000180025095e-35 1.0000000180025095e-35 1.0000000180025095e-35 1.0000000180025095e-35 1.0000000180025095e-35 1.0000000180025095e-35 1.0000000180025095e-35 1.0000000180025095e-35 1.0000000180025095e-35 1.0000000180025095e-35 1.0000000180025095e-35 1.0000000180025095e-35 1.0000000180025095e-35 1.0000000180025095e-35 1.0000000180025095e-35 1.0000000180025095e-35 1.0000000180025095e-35 1.0000000180025095e-35 1.0000000180025095e-35 1.0000000180025095e-35 1.0000000180025095e-35 1.0000000180025095e-35 1.0000000180025095e-35 1.0000000180025095e-35
decision_type=2 2 2 2 2 2 2 2 2 2 2 2 2 2 2 2 2 2 2 2 2 2 2 2 2 2 2 2 2 2
left_child=4 2 3 6 7 -3 -2 16 9 -7 13 -10 -13 -4 15 -14 22 20 -19 -17 -16 24 23 -1 -20 -23 -24 -25 29 -28
right_child=1 5 10 -5 -6 8 -8 -9 11 -11 -12 12 14 -15 17 19 -18 18 21 -21 -22 25 26 27 -26 -27 28 -29 -30 -31
leaf_value=-0.10733567937711766 -0.10799414355475279 0.046656708735034261 0.10935130826482092 0.12635301030732246 0.0057565226824619368 0.11704872506309903 -0.1262556533191794 -0.11336976456940236 0.11416637371347144 0.11040516140815862 0.11596186490118388 0.11264161455834457 0.11149587334290528 0.11117088616582876 0.11008614042933296 0.10983469588297637 -0.10799736155425761 0.10975450741421633 0.10949022094785135 0.10912140292019268 0.10951311712140155 0.10864051235422696 -0.10659804064814359 -0.10661865060252269 0.109038769389944 0.10899334526651472 -0.10657022734273909 -0.10687512651245856 -0.10689596720317181 -0.10674606303665829
leaf_count=32 27 39 26 20 22 29 30 35 21 30 21 21 25 25 24 32 30 32 25 22 28 20 288 77 35 27 29 32 30 60
internal_value=0 0.784269 0.202379 -0.480458 -1.01197 1.04041 -1.21082 -1.07319 1.10929 1.14089 1.12278 1.10257 1.09889 1.10302 1.09641 1.10223 -1.0677 1.09385 1.09229 1.09554 1.09784 1.09065 -1.06695 -1.06847 1.09231 1.08846 -1.06641 -1.06696 -1.06743 -1.0669
internal_count=1194 559 149 77 635 410 57 613 371 59 72 312 291 51 270 79 578 191 139 54 52 107 548 141 60 47 407 109 119 89
shrinkage=0.1


Tree=20
num_leaves=31
num_cat=0
split_feature=473 687 95 328 382 619 725 385 384 420 663 538 987 1125 270 1142 237 195 509 503 586 225 413 585 590 883 710 260 815 846
split_gain=63.5177 7.32495 4.8016 3.21076 5.534 1.70015 0.242929 0.0209339 0.00297151 0.0031848 0.0022447 0.000747972 0.000556152 0.000380387 0.000204129 0.000203972 0.00018538 9.95614e-05 8.63666e-05 6.2009e-05 3.50125e-05 2.42463e-05 4.67655e-05 1.6269e-05 7.19628e-06 6.78766e-06 6.33681e-06 6.07317e-06 5.80584e-06 1.25267e-05
threshold=1.0000000180025095e-35 1.0000000180025095e-35 1.0000000180025095e-35 1.0000000180025095e-35 1.0000000180025095e-35 1.0000000180025095e-35 1.0000000180025095e-35 1.0000000180025095e-35 1.0000000180025095e-35 1.0000000180025095e-35 1.0000000180025095e-35 1.0000000180025095e-35 1.0000000180025095e-35 1.0000000180025095e-35 1.0000000180025095e-35 1.0000000180025095e-35 1.0000000180025095e-35 1.0000000180025095e-35 1.0000000180025095e-35 1.0000000180025095e-35 1.0000000180025095e-35 1.0000000180025095e-35 1.0000000180025095e-35 1.0000000180025095e-35 1.0000000180025095e-35 1.0000000180025095e-35 1.0000000180025095e-35 1.0000000180025095e-35 1.0000000180025095e-35 1.0000000180025095e-35
decision_type=2 2 2 2 2 2 2 2 2 2 2 2 2 2 2 2 2 2 2 2 2 2 2 2 2 2 2 2 2 2
left_child=5 2 -2 4 -3 10 11 -5 -9 -10 13 20 -11 14 21 -14 17 19 -19 -17 -6 24 -23 -18 28 -26 -25 -27 29 -1
right_child=1 3 -4 7 6 -7 -8 8 9 12 -12 -13 15 -15 -16 16 23 18 -20 -21 -22 22 -24 26 25 27 -28 -29 -30 -31
leaf_value=-0.10631744248152433 -0.11780528364970932 -0.048931831807356246 0.054111970986159497 0.1188644195896031 0.10835072534821558 -0.0071067702744873219 0.065725783950043803 0.1123163108520211 0.11313002001948565 0.11038659250603199 -0.10969617149327554 0.11108615640064388 0.10957918671892045 -0.10757890621152991 -0.10716662563917144 0.10890046425615366 0.10843139169202559 0.10856389825889648 0.10955284576854679 0.10812004985735962 0.10898416650529981 -0.10598697786770601 -0.10676445996822753 0.10802809507334979 -0.10596997029122822 -0.10606956223882731 0.10821673100795781 -0.10636045677296149 -0.10591143415056176 -0.10594830052260701
leaf_count=22 28 28 31 27 28 23 20 35 20 22 28 22 22 28 27 24 23 20 29 34 21 41 21 83 64 37 37 20 257 72
internal_value=0 0.764247 -0.211147 0.926467 0.467241 -1.01281 0.992987 1.10262 1.09413 1.09021 -1.06356 1.09488 1.08684 -1.06157 -1.06073 1.08531 1.08431 1.08794 1.09169 1.08457 1.08629 -1.06011 -1.06263 1.08144 -1.05977 -1.06068 1.08087 -1.06174 -1.05946 -1.06037
internal_count=1194 554 59 495 119 640 91 376 349 314 617 71 294 589 561 272 250 107 49 58 49 534 62 143 472 121 120 57 351 94
shrinkage=0.1


Tree=21
num_leaves=31
num_cat=0
split_feature=887 169 806 754 382 143 677 473 830 470 777 562 900 453 1125 561 227 1165 237 229 647 710 1155 1021 26 591 607 582 911 1163
split_gain=56.9162 5.4611 5.44474 5.22439 2.22533 4.24515 0.0812854 0.0516529 0.0387848 0.015259 0.00457001 0.00261921 0.00180825 0.000691214 0.000633206 0.000185509 0.000184764 0.00045373 7.01936e-05 5.77597e-05 2.52142e-05 2.02141e-05 1.94835e-05 3.55132e-05 1.00393e-05 6.04109e-06 4.90092e-06 2.40471e-06 1.9831e-06 1.2333e-06
threshold=1.0000000180025095e-35 1.0000000180025095e-35 1.0000000180025095e-35 1.0000000180025095e-35 1.0000000180025095e-35 1.0000000180025095e-35 1.0000000180025095e-35 1.0000000180025095e-35 1.0000000180025095e-35 1.0000000180025095e-35 1.0000000180025095e-35 1.0000000180025095e-35 1.0000000180025095e-35 1.0000000180025095e-35 1.0000000180025095e-35 1.0000000180025095e-35 1.0000000180025095e-35 1.0000000180025095e-35 1.0000000180025095e-35 1.0000000180025095e-35 1.0000000180025095e-35 1.0000000180025095e-35 1.0000000180025095e-35 1.0000000180025095e-35 1.0000000180025095e-35 1.0000000180025095e-35 1.0000000180025095e-35 1.0000000180025095e-35 1.0000000180025095e-35 1.0000000180025095e-35
decision_type=2 2 2 2 2 2 2 2 2 2 2 2 2 2 2 2 2 2 2 2 2 2 2 2 2 2 2 2 2 2
left_child=2 3 -1 -2 5 8 7 14 9 -3 -6 -12 -13 -14 15 22 18 -18 19 -15 -21 27 23 29 -19 -24 28 -20 -27 -4
right_child=1 4 6 -5 10 -7 -8 -9 -10 -11 11 12 13 16 -16 -17 17 24 21 20 -22 -23 25 -25 -26 26 -28 -29 -30 -31
leaf_value=0.046785766750822397 -0.08440734308020599 0.12098246884713822 -0.10531514036489027 0.11233795241908562 0.11325354432657141 -0.033267151000210542 -0.082508734461860508 -0.12262111677743193 0.095962468209706275 0.10770563535130713 0.11232534003722937 0.11070361339642967 0.10952723181000126 0.10825560078785695 -0.10736468867653173 -0.1066555485113506 0.10954589698337387 0.10763652956107267 0.10734445797245876 0.10780776934483707 0.10724734076203618 0.10759345802517489 -0.10533651953034127 -0.10607113069639146 0.10724126329037287 -0.10536753872219279 -0.1056088286921382 0.10719764197791877 -0.10550897538962356 -0.10546555021440383
leaf_count=24 39 20 23 28 23 31 25 20 21 23 22 35 32 27 31 23 23 20 24 27 23 34 329 22 20 80 30 66 27 22
internal_value=0 0.796582 -0.944874 -0.105756 0.945523 0.502606 -1.05538 -1.0663 1.09636 1.15305 1.08958 1.08553 1.08265 1.07933 -1.05584 -1.05461 1.07713 1.08282 1.07525 1.07813 1.07558 1.07338 -1.05404 -1.05628 1.07443 -1.0537 -1.0545 1.07237 -1.05404 -1.0539
internal_count=1194 538 656 67 471 95 632 607 64 43 376 353 331 296 587 556 264 63 201 77 50 124 533 67 40 466 137 90 107 45
shrinkage=0.1


Tree=22
num_leaves=31
num_cat=0
split_feature=473 382 237 754 274 899 752 1174 801 290 791 663 566 339 1125 63 235 13 683 1032 1174 345 376 370 976 1117 568 237 586 529
split_gain=50.6718 6.19128 8.05402 8.75971 1.59941 1.59337 0.0172464 0.016762 0.00498626 0.00374635 0.00217846 0.00177493 0.000898983 0.000217182 0.000165259 8.78221e-05 0.000171642 7.08237e-05 0.000138525 2.46012e-05 2.5992e-05 1.93501e-05 2.13611e-05 1.25824e-05 1.17419e-05 1.62248e-05 5.00712e-06 5.21351e-06 4.1345e-06 3.05026e-06
threshold=1.0000000180025095e-35 1.0000000180025095e-35 1.0000000180025095e-35 1.0000000180025095e-35 1.0000000180025095e-35 1.0000000180025095e-35 1.0000000180025095e-35 1.0000000180025095e-35 1.0000000180025095e-35 1.0000000180025095e-35 1.0000000180025095e-35 1.0000000180025095e-35 1.0000000180025095e-35 1.0000000180025095e-35 1.0000000180025095e-35 1.0000000180025095e-35 1.0000000180025095e-35 1.0000000180025095e-35 1.0000000180025095e-35 1.0000000180025095e-35 1.0000000180025095e-35 1.0000000180025095e-35 1.0000000180025095e-35 1.0000000180025095e-35 1.0000000180025095e-35 1.0000000180025095e-35 1.0000000180025095e-35 1.0000000180025095e-35 1.0000000180025095e-35 1.0000000180025095e-35
decision_type=2 2 2 2 2 2 2 2 2 2 2 2 2 2 2 2 2 2 2 2 2 2 2 2 2 2 2 2 2 2
left_child=4 2 3 6 11 -3 -2 -7 13 -9 -11 14 -12 -4 15 16 -1 18 -14 20 -17 24 -23 28 25 -19 27 -26 -21 -30
right_child=1 5 8 -5 -6 7 -8 9 -10 10 12 -13 17 -15 -16 19 -18 21 -20 23 -22 22 -24 -25 26 -27 -28 -29 29 -31
leaf_value=-0.10649079883219725 -0.11167563291214073 0.029750406826108595 0.10670951928266535 0.12154068290731157 -0.0045908557975801066 0.11824080759443528 -0.12306225566661554 0.11205946516773563 0.11403433856712109 0.11027726189504246 0.10930287794350607 -0.10841549366759316 0.10797472134586845 0.10837310636501495 -0.10604529394206859 -0.10554751577103981 -0.10489083372241584 0.10705941018045698 0.1066152613494214 -0.10480679727372494 -0.10486483403808214 0.10670775320996014 0.1072207829903539 -0.10518348393392114 0.1068152365972722 0.1066237694927817 0.10648801818104203 0.10654102204710225 -0.10483507920468278 -0.10502986175458273
leaf_count=20 29 31 22 20 23 20 22 24 21 29 24 28 21 29 28 22 42 22 28 356 26 34 22 23 21 40 68 27 37 35
internal_value=0 0.729303 0.157865 -0.506564 -0.99544 1.00103 -1.18128 1.08484 1.1012 1.07772 1.07384 -1.05208 1.07019 1.07721 -1.05011 -1.0495 -1.05467 1.06804 1.07243 -1.04882 -1.05197 1.06708 1.06916 -1.04847 1.0664 1.06784 1.06561 1.06663 -1.04828 -1.04931
internal_count=1194 554 143 71 640 411 51 380 72 360 336 617 307 51 589 561 62 283 49 499 48 234 56 451 178 62 116 48 428 72
shrinkage=0.1


Tree=23
num_leaves=31
num_cat=0
split_feature=477 323 478 706 1161 788 179 987 1157 252 46 1085 993 270 371 1125 237 195 322 581 355 61 25 48 503 551 680 222 733 334
split_gain=45.4882 5.11485 5.97468 2.46811 2.02316 1.54015 1.00114 0.00792298 0.00205322 0.00199103 0.00173938 0.00141853 0.000964504 0.00020547 0.000202072 0.000120337 5.4574e-05 5.69094e-05 3.6106e-05 3.51089e-05 2.76499e-05 2.43303e-05 4.5151e-05 5.24999e-05 1.90831e-05 4.45908e-06 3.59128e-06 2.79469e-06 2.28319e-06 2.09111e-06
threshold=1.0000000180025095e-35 1.0000000180025095e-35 1.0000000180025095e-35 1.0000000180025095e-35 1.0000000180025095e-35 1.0000000180025095e-35 1.0000000180025095e-35 1.0000000180025095e-35 1.0000000180025095e-35 1.0000000180025095e-35 1.0000000180025095e-35 1.0000000180025095e-35 1.0000000180025095e-35 1.0000000180025095e-35 1.0000000180025095e-35 1.0000000180025095e-35 1.0000000180025095e-35 1.0000000180025095e-35 1.0000000180025095e-35 1.0000000180025095e-35 1.0000000180025095e-35 1.0000000180025095e-35 1.0000000180025095e-35 1.0000000180025095e-35 1.0000000180025095e-35 1.0000000180025095e-35 1.0000000180025095e-35 1.0000000180025095e-35 1.0000000180025095e-35 1.0000000180025095e-35
decision_type=2 2 2 2 2 2 2 2 2 2 2 2 2 2 2 2 2 2 2 2 2 2 2 2 2 2 2 2 2 2
left_child=4 2 6 -4 12 -3 -2 -7 11 -5 -10 -9 13 15 -12 21 17 24 26 -19 -18 22 -1 -24 -16 -22 -11 -23 -27 -30
right_child=1 5 3 9 -6 7 -8 8 10 18 14 -13 -14 -15 16 -17 20 19 -20 -21 25 27 23 -25 -26 28 -28 -29 29 -31
leaf_value=-0.10436153195555074 -0.01054870159090516 0.016277762669523445 -0.042677301828556613 0.11014029385457264 -0.0064533762431591146 0.11282363753185767 -0.10271960609484015 0.11107642120048618 0.10980120083969312 0.10584468105170303 0.10753774115568016 0.10714916222937793 -0.10702712927573446 -0.1056727731615794 0.10638323254208931 -0.10541214811720097 0.10635193672168364 0.10707894132471366 0.10663107210910494 0.10638599061114261 0.10604640248642726 -0.10433847758972777 -0.10439939499604983 -0.10541094325586707 0.10587137605469139 0.10569564239581408 0.10608331140826335 -0.10451225830479803 0.10594236568496006 0.10577757454921871
leaf_count=80 21 21 21 25 27 38 25 25 23 22 20 28 32 31 22 27 27 22 22 29 20 373 23 25 34 22 26 24 30 29
internal_value=0 0.735903 0.201545 0.788233 -0.966561 1.00222 -0.650308 1.07871 1.07144 1.07518 1.06637 1.0926 -1.04707 -1.04544 1.06282 -1.04468 1.06166 1.06387 1.06192 1.06699 1.05972 -1.04411 -1.04597 -1.0496 1.06081 1.05864 1.05976 -1.04349 1.05818 1.05862
internal_count=1194 552 162 116 642 390 46 369 331 95 278 53 615 583 255 552 235 107 70 51 128 525 128 48 56 101 48 397 81 59
shrinkage=0.1


end of trees

feature importances:
ECs_1812=18
ECs_1206=15
ECs_3129=15
ECs_1563=13
ECs_5257=10
ECs_4563=9
ECs_1056=8
ECs_1272=8
ECs_1824=8
ECs_3858=8
ECs_4795=8
ECs_1629=7
ECs_2240=7
ECs_2973=7
ECs_3009=7
ECs_5262=7
ECs_1399=6
ECs_2757=6
ECs_2805=6
ECs_2974=6
ECs_1205=5
ECs_1358=5
ECs_1378=5
ECs_1568=5
ECs_2195=5
ECs_3244=5
ECs_3965=5
ECs_0543=4
ECs_1200=4
ECs_1203=4
ECs_1316=4
ECs_1333=4
ECs_1376=4
ECs_1763=4
ECs_2716=4
ECs_3410=4
ECs_3857=4
ECs_3869=4
ECs_4557=4
ECs_5266=4
ECs_0225=3
ECs_0316=3
ECs_0319=3
ECs_0443=3
ECs_0818=3
ECs_1064=3
ECs_1091=3
ECs_1168=3
ECs_1186=3
ECs_1336=3
ECs_1380=3
ECs_1403=3
ECs_1529=3
ECs_1611=3
ECs_1645=3
ECs_1801=3
ECs_2199=3
ECs_2203=3
ECs_2234=3
ECs_2255=3
ECs_2275=3
ECs_2738=3
ECs_2971=3
ECs_3232=3
ECs_3279=3
ECs_3483=3
ECs_3497=3
ECs_3502=3
ECs_4457=3
ECs_4545=3
ECs_4618=3
ECs_5243=3
ECs_5714=3
ECs_0236=2
ECs_0280=2
ECs_0320=2
ECs_0627=2
ECs_0802=2
ECs_0829=2
ECs_0847=2
ECs_0941=2
ECs_1084=2
ECs_1121=2
ECs_1177=2
ECs_1276=2
ECs_1305=2
ECs_1317=2
ECs_1360=2
ECs_1370=2
ECs_1507=2
ECs_1517=2
ECs_1565=2
ECs_1616=2
ECs_1625=2
ECs_1642=2
ECs_1662=2
ECs_1762=2
ECs_1768=2
ECs_1953=2
ECs_1958=2
ECs_1985=2
ECs_1989=2
ECs_2011=2
ECs_2153=2
ECs_2182=2
ECs_2183=2
ECs_2190=2
ECs_2191=2
ECs_2193=2
ECs_2196=2
ECs_2197=2
ECs_2202=2
ECs_2225=2
ECs_2244=2
ECs_2245=2
ECs_2285=2
ECs_2473=2
ECs_2618=2
ECs_2637=2
ECs_2674=2
ECs_2726=2
ECs_2752=2
ECs_2796=2
ECs_2967=2
ECs_2981=2
ECs_2988=2
ECs_3513=2
ECs_3912=2
ECs_4022=2
ECs_4308=2
ECs_4415=2
ECs_4585=2
ECs_5244=2
ECs_5307=2
ECs_5719=2
ECs_5766=2
ECs_0025=1
ECs_0218=1
ECs_0241=1
ECs_0242=1
ECs_0245=1
ECs_0274=1
ECs_0284=1
ECs_0285=1
ECs_0289=1
ECs_0297=1
ECs_0299=1
ECs_0300=1
ECs_0462=1
ECs_0809=1
ECs_0814=1
ECs_0824=1
ECs_0837=1
ECs_0850=1
ECs_1065=1
ECs_1070=1
ECs_1074=1
ECs_1075=1
ECs_1082=1
ECs_1088=1
ECs_1090=1
ECs_1096=1
ECs_1117=1
ECs_1122=1
ECs_1163=1
ECs_1167=1
ECs_1169=1
ECs_1187=1
ECs_1189=1
ECs_1193=1
ECs_1199=1
ECs_1235=1
ECs_1246=1
ECs_1251=1
ECs_1273=1
ECs_1278=1
ECs_1300=1
ECs_1302=1
ECs_1313=1
ECs_1323=1
ECs_1338=1
ECs_1377=1
ECs_1393=1
ECs_1396=1
ECs_1506=1
ECs_1516=1
ECs_1530=1
ECs_1532=1
ECs_1552=1
ECs_1556=1
ECs_1558=1
ECs_1561=1
ECs_1574=1
ECs_1577=1
ECs_1590=1
ECs_1595=1
ECs_1612=1
ECs_1613=1
ECs_1614=1
ECs_1617=1
ECs_1618=1
ECs_1644=1
ECs_1657=1
ECs_1693=1
ECs_1772=1
ECs_1774=1
ECs_1803=1
ECs_1806=1
ECs_1808=1
ECs_1814=1
ECs_1825=1
ECs_1931=1
ECs_1937=1
ECs_1944=1
ECs_1945=1
ECs_1950=1
ECs_1959=1
ECs_1963=1
ECs_1974=1
ECs_1975=1
ECs_1982=1
ECs_1983=1
ECs_1986=1
ECs_2006=1
ECs_2059=1
ECs_2064=1
ECs_2154=1
ECs_2159=1
ECs_2168=1
ECs_2175=1
ECs_2177=1
ECs_2189=1
ECs_2204=1
ECs_2208=1
ECs_2212=1
ECs_2230=1
ECs_2235=1
ECs_2239=1
ECs_2242=1
ECs_2251=1
ECs_2261=1
ECs_2271=1
ECs_2276=1
ECs_2279=1
ECs_2624=1
ECs_2628=1
ECs_2634=1
ECs_2636=1
ECs_2646=1
ECs_2671=1
ECs_2672=1
ECs_2714=1
ECs_2719=1
ECs_2742=1
ECs_2749=1
ECs_2761=1
ECs_2765=1
ECs_2800=1
ECs_2836=1
ECs_2870=1
ECs_2908=1
ECs_2931=1
ECs_2939=1
ECs_2940=1
ECs_2942=1
ECs_2946=1
ECs_2948=1
ECs_2950=1
ECs_2951=1
ECs_2952=1
ECs_2972=1
ECs_2989=1
ECs_3010=1
ECs_3011=1
ECs_3056=1
ECs_3241=1
ECs_3242=1
ECs_3276=1
ECs_3489=1
ECs_3495=1
ECs_3501=1
ECs_3504=1
ECs_3505=1
ECs_3615=1
ECs_3709=1
ECs_3737=1
ECs_3847=1
ECs_3855=1
ECs_4001=1
ECs_4280=1
ECs_4307=1
ECs_4349=1
ECs_4426=1
ECs_4431=1
ECs_4470=1
ECs_4540=1
ECs_4547=1
ECs_4570=1
ECs_4590=1
ECs_4597=1
ECs_4598=1
ECs_4986=1
ECs_5183=1
ECs_5260=1
ECs_5264=1
ECs_5271=1
ECs_5303=1
ECs_5399=1
ECs_5400=1
ECs_5414=1
ECs_5709=1
ECs_5728=1
ECs_5731=1
ECs_5743=1
ECs_5764=1
ECs_5773=1

parameters:
[boosting: gbdt]
[objective: binary]
[metric: binary_error,none]
[tree_learner: serial]
[device_type: cpu]
[data: ]
[valid: ]
[num_iterations: 100]
[learning_rate: 0.1]
[num_leaves: 31]
[num_threads: -1]
[max_depth: -1]
[min_data_in_leaf: 20]
[min_sum_hessian_in_leaf: 0.001]
[bagging_fraction: 1]
[bagging_freq: 0]
[bagging_seed: 7615]
[feature_fraction: 1]
[feature_fraction_seed: 21677]
[early_stopping_round: 0]
[max_delta_step: 0]
[lambda_l1: 0]
[lambda_l2: 0]
[min_gain_to_split: 0]
[drop_rate: 0.1]
[max_drop: 50]
[skip_drop: 0.5]
[xgboost_dart_mode: 0]
[uniform_drop: 0]
[drop_seed: 27260]
[top_rate: 0.2]
[other_rate: 0.1]
[min_data_per_group: 100]
[max_cat_threshold: 32]
[cat_l2: 10]
[cat_smooth: 10]
[max_cat_to_onehot: 4]
[top_k: 20]
[monotone_constraints: ]
[feature_contri: ]
[forcedsplits_filename: ]
[refit_decay_rate: 0.9]
[verbosity: -1]
[max_bin: 255]
[min_data_in_bin: 3]
[bin_construct_sample_cnt: 200000]
[histogram_pool_size: -1]
[data_random_seed: 1064]
[output_model: LightGBM_model.txt]
[snapshot_freq: -1]
[input_model: ]
[output_result: LightGBM_predict_result.txt]
[initscore_filename: ]
[valid_data_initscores: ]
[pre_partition: 0]
[enable_bundle: 1]
[max_conflict_rate: 0]
[is_enable_sparse: 1]
[sparse_threshold: 0.8]
[use_missing: 1]
[zero_as_missing: 0]
[two_round: 0]
[save_binary: 0]
[enable_load_from_binary_file: 1]
[header: 0]
[label_column: ]
[weight_column: ]
[group_column: ]
[ignore_column: ]
[categorical_feature: ]
[predict_raw_score: 0]
[predict_leaf_index: 0]
[predict_contrib: 0]
[num_iteration_predict: -1]
[pred_early_stop: 0]
[pred_early_stop_freq: 10]
[pred_early_stop_margin: 10]
[convert_model_language: ]
[convert_model: gbdt_prediction.cpp]
[num_class: 1]
[is_unbalance: 0]
[scale_pos_weight: 1]
[sigmoid: 1]
[boost_from_average: 1]
[reg_sqrt: 0]
[alpha: 0.9]
[fair_c: 1]
[poisson_max_delta_step: 0.7]
[tweedie_variance_power: 1.5]
[max_position: 20]
[label_gain: ]
[metric_freq: 1]
[is_provide_training_metric: 0]
[eval_at: ]
[num_machines: 1]
[local_listen_port: 12400]
[time_out: 120]
[machine_list_filename: ]
[machines: ]
[gpu_platform_id: -1]
[gpu_device_id: -1]
[gpu_use_dp: 0]

end of parameters

pandas_categorical:[]
