tree
version=v2
num_class=1
num_tree_per_iteration=1
label_index=0
max_feature_idx=5
objective=binary sigmoid:1
feature_names=ECs_1812 ECs_3129 ECs_1206 ECs_1563 ECs_5257 ECs_4563
feature_infos=[0:1] [0:1] [0:1] [0:1] [0:1] [0:1]
tree_sizes=809 804 808 806 807 808 890 806 805 884 889 887 974 970 890 893 896 896 974 890 976 973 973 975 976 1057 977 1140 975 976 978 1063 978 1060 982 979 981 984 981 986 984 1067 1067 1066

Tree=0
num_leaves=9
num_cat=0
split_feature=0 3 2 1 4 2 4 1
split_gain=971.333 58.072 72.4061 6.76615 1.57803 0.114876 0.0523481 0.0134203
threshold=1.0000000180025095e-35 1.0000000180025095e-35 1.0000000180025095e-35 1.0000000180025095e-35 1.0000000180025095e-35 1.0000000180025095e-35 1.0000000180025095e-35 1.0000000180025095e-35
decision_type=2 2 2 2 2 2 2 2
left_child=4 2 3 -2 -1 6 7 -3
right_child=1 5 -4 -5 -6 -7 -8 -9
leaf_value=-0.48397746403368064 -0.42707048258703073 -0.086298087806503998 -0.074247197617801658 -0.30537709149342568 -0.44195384696538531 -0.074247197617801658 -0.074247197617801658 -0.081696838825363105
leaf_count=598 36 34 67 39 39 234 37 110
internal_value=0 1.95242 0.835082 -0.531071 -1.70722 2.33474 2.29645 2.279
internal_count=1194 557 142 75 637 415 181 144
shrinkage=1


Tree=1
num_leaves=9
num_cat=0
split_feature=0 3 2 1 4 2 4 1
split_gain=791.603 44.4718 57.0257 5.65855 1.42362 0.0888623 0.0405027 0.0103768
threshold=1.0000000180025095e-35 1.0000000180025095e-35 1.0000000180025095e-35 1.0000000180025095e-35 1.0000000180025095e-35 1.0000000180025095e-35 1.0000000180025095e-35 1.0000000180025095e-35
decision_type=2 2 2 2 2 2 2 2
left_child=4 2 3 -2 -1 6 7 -3
right_child=1 5 -4 -5 -6 -7 -8 -9
leaf_value=-0.16163270756244708 -0.10711427932781457 0.1972265041298352 0.20770728816727782 0.004771089782011218 -0.12121615087356724 0.20770728816727782 0.20770728816727782 0.20122780900356352
leaf_count=598 36 34 67 39 39 234 37 110
internal_value=0 1.72257 0.745486 -0.483189 -1.59136 2.05132 2.01801 2.00283
internal_count=1194 557 142 75 637 415 181 144
shrinkage=0.1


Tree=2
num_leaves=9
num_cat=0
split_feature=0 3 2 1 4 2 4 1
split_gain=657.606 35.8017 46.3156 4.76031 1.34274 0.0778072 0.0354331 0.00903184
threshold=1.0000000180025095e-35 1.0000000180025095e-35 1.0000000180025095e-35 1.0000000180025095e-35 1.0000000180025095e-35 1.0000000180025095e-35 1.0000000180025095e-35 1.0000000180025095e-35
decision_type=2 2 2 2 2 2 2 2
left_child=4 2 3 -2 -1 6 7 -3
right_child=1 5 -4 -5 -6 -7 -8 -9
leaf_value=-0.15243424213159004 -0.099000750379098126 0.17769934957830158 0.18750623401084734 0.0042907206947232204 -0.11257466347027011 0.18750623401084734 0.18750623401084734 0.18143491677647405
leaf_count=598 36 34 67 39 39 234 37 110
internal_value=0 1.55611 0.675611 -0.440531 -1.49938 1.85092 1.81973 1.80553
internal_count=1194 557 142 75 637 415 181 144
shrinkage=0.1


Tree=3
num_leaves=9
num_cat=0
split_feature=0 3 2 1 4 2 4 1
split_gain=553.867 29.8563 38.4383 4.02112 1.30789 0.073801 0.0335535 0.00848744
threshold=1.0000000180025095e-35 1.0000000180025095e-35 1.0000000180025095e-35 1.0000000180025095e-35 1.0000000180025095e-35 1.0000000180025095e-35 1.0000000180025095e-35 1.0000000180025095e-35
decision_type=2 2 2 2 2 2 2 2
left_child=4 2 3 -2 -1 6 7 -3
right_child=1 5 -4 -5 -6 -7 -8 -9
leaf_value=-0.14502085668870612 -0.091777304738114934 0.16291767512355282 0.17254476000331206 0.0038590678767383563 -0.10498775467652706 0.17254476000331206 0.17254476000331206 0.16657163018062704
leaf_count=598 36 34 67 39 39 234 37 110
internal_value=0 1.42934 0.61885 -0.402185 -1.42469 1.70167 1.67101 1.65708
internal_count=1194 557 142 75 637 415 181 144
shrinkage=0.1


Tree=4
num_leaves=9
num_cat=0
split_feature=0 3 2 1 4 2 4 1
split_gain=471.343 25.5602 32.4161 3.40586 1.30372 0.0737552 0.0334571 0.00838517
threshold=1.0000000180025095e-35 1.0000000180025095e-35 1.0000000180025095e-35 1.0000000180025095e-35 1.0000000180025095e-35 1.0000000180025095e-35 1.0000000180025095e-35 1.0000000180025095e-35
decision_type=2 2 2 2 2 2 2 2
left_child=4 2 3 -2 -1 6 7 -3
right_child=1 5 -4 -5 -6 -7 -8 -9
leaf_value=-0.13894322537410281 -0.085253745409134468 0.15128969851450746 0.16104791412379019 0.0034710867634879629 -0.098205587381359094 0.16104791412379019 0.16104791412379019 0.15497686455721094
leaf_count=598 36 34 67 39 39 234 37 110
internal_value=0 1.3291 0.571256 -0.367478 -1.3629 1.58627 1.55516 1.54104
internal_count=1194 557 142 75 637 415 181 144
shrinkage=0.1


Tree=5
num_leaves=9
num_cat=0
split_feature=0 3 2 1 4 2 4 1
split_gain=404.334 22.3305 27.6781 2.88931 1.32103 0.0762804 0.0345058 0.0085592
threshold=1.0000000180025095e-35 1.0000000180025095e-35 1.0000000180025095e-35 1.0000000180025095e-35 1.0000000180025095e-35 1.0000000180025095e-35 1.0000000180025095e-35 1.0000000180025095e-35
decision_type=2 2 2 2 2 2 2 2
left_child=4 2 3 -2 -1 6 7 -3
right_child=1 5 -4 -5 -6 -7 -8 -9
leaf_value=-0.13389141502296301 -0.079293439948638356 0.14185946670232513 0.15196711185207143 0.0031223302070888794 -0.092049908524265478 0.15196711185207143 0.15196711185207143 0.14565898968980776
leaf_count=598 36 34 67 39 39 234 37 110
internal_value=0 1.24743 0.530312 -0.335903 -1.31099 1.49447 1.46218 1.44758
internal_count=1194 557 142 75 637 415 181 144
shrinkage=0.1


Tree=6
num_leaves=10
num_cat=0
split_feature=0 3 2 1 4 2 4 1 1
split_gain=349.044 19.8256 23.8667 2.45283 1.3539 0.080689 0.0363794 0.00892374 2.84217e-14
threshold=1.0000000180025095e-35 1.0000000180025095e-35 1.0000000180025095e-35 1.0000000180025095e-35 1.0000000180025095e-35 1.0000000180025095e-35 1.0000000180025095e-35 1.0000000180025095e-35 1.0000000180025095e-35
decision_type=2 2 2 2 2 2 2 2 2
left_child=4 2 3 -2 8 6 7 -3 -1
right_child=1 5 -4 -5 -6 -7 -8 -9 -10
leaf_value=-0.12964431739600069 -0.073796898733968039 0.13401535111668381 0.14464061208605991 0.0028087737221860402 -0.086391274512665345 0.14464061208605994 0.14464061208605994 0.13798653416943601 -0.12964431739600069
leaf_count=98 36 34 67 39 39 234 37 110 500
internal_value=0 1.17921 0.494335 -0.307066 -1.26677 1.41976 1.38576 1.37043 -1.29644
internal_count=1194 557 142 75 637 415 181 144 598
shrinkage=0.1


Tree=7
num_leaves=9
num_cat=0
split_feature=0 3 2 1 4 2 4 1
split_gain=302.835 17.8327 20.7461 2.0823 1.39832 0.0866188 0.0389046 0.00942991
threshold=1.0000000180025095e-35 1.0000000180025095e-35 1.0000000180025095e-35 1.0000000180025095e-35 1.0000000180025095e-35 1.0000000180025095e-35 1.0000000180025095e-35 1.0000000180025095e-35
decision_type=2 2 2 2 2 2 2 2
left_child=4 2 3 -2 -1 6 7 -3
right_child=1 5 -4 -5 -6 -7 -8 -9
leaf_value=-0.12603979113906447 -0.068690990749926503 0.12734621670779855 0.13862901413719406 0.0025268373711578025 -0.081134641621395706 0.13862901413719406 0.13862901413719406 0.13153661004014669
leaf_count=598 36 34 67 39 39 234 37 110
internal_value=0 1.12097 0.46216 -0.28066 -1.22863 1.35781 1.32163 1.30538
internal_count=1194 557 142 75 637 415 181 144
shrinkage=0.1


Tree=8
num_leaves=9
num_cat=0
split_feature=0 3 2 1 4 2 4 1
split_gain=263.81 16.2128 18.1539 1.76677 1.45138 0.093873 0.0419815 0.0100472
threshold=1.0000000180025095e-35 1.0000000180025095e-35 1.0000000180025095e-35 1.0000000180025095e-35 1.0000000180025095e-35 1.0000000180025095e-35 1.0000000180025095e-35 1.0000000180025095e-35
decision_type=2 2 2 2 2 2 2 2
left_child=4 2 3 -2 -1 6 7 -3
right_child=1 5 -4 -5 -6 -7 -8 -9
leaf_value=-0.12295616108221107 -0.063921636756898756 0.12156449216108099 0.1336285149947552 0.0022733038128604165 -0.076209782444763036 0.13362851499475523 0.13362851499475523 0.12601428250193222
leaf_count=598 36 34 67 39 39 234 37 110
internal_value=0 1.07028 0.432958 -0.256435 -1.19537 1.30561 1.26685 1.24952
internal_count=1194 557 142 75 637 415 181 144
shrinkage=0.1


Tree=9
num_leaves=10
num_cat=0
split_feature=0 3 2 4 1 2 4 1 4
split_gain=230.566 14.8712 15.9745 1.51083 1.49756 0.102346 0.0455504 0.0107547 1.42109e-14
threshold=1.0000000180025095e-35 1.0000000180025095e-35 1.0000000180025095e-35 1.0000000180025095e-35 1.0000000180025095e-35 1.0000000180025095e-35 1.0000000180025095e-35 1.0000000180025095e-35 1.0000000180025095e-35
decision_type=2 2 2 2 2 2 2 2 2
left_child=3 2 4 -1 -2 6 7 -3 -7
right_child=1 5 -4 -5 -6 8 -8 -9 -10
leaf_value=-0.12030018430076986 -0.059448702608687544 0.11646232760286496 0.12942209832875304 -0.071564791875754291 0.0020452913502371542 0.12942209832875307 0.12942209832875307 0.1212068441143937 0.12942209832875307
leaf_count=598 36 34 67 39 39 86 37 110 148
internal_value=0 1.02539 0.40613 -1.16604 -0.234187 1.261 1.21927 1.20071 1.29422
internal_count=1194 557 142 637 75 415 181 144 234
shrinkage=0.1


Tree=10
num_leaves=10
num_cat=0
split_feature=0 3 2 5 1 2 4 4 1
split_gain=202.042 13.7412 14.1236 1.62177 1.26769 0.111983 0.049573 0.0317797 0.0115363
threshold=1.0000000180025095e-35 1.0000000180025095e-35 1.0000000180025095e-35 1.0000000180025095e-35 1.0000000180025095e-35 1.0000000180025095e-35 1.0000000180025095e-35 1.0000000180025095e-35 1.0000000180025095e-35
decision_type=2 2 2 2 2 2 2 2 2
left_child=3 2 4 7 -2 6 8 -1 -3
right_child=1 5 -4 -5 -6 -7 -8 -9 -10
leaf_value=-0.11799924496765178 -0.055242295895921237 0.11188534026328739 0.12585034311722296 -0.057894949537356979 0.0018402175812185851 0.12585034311722298 0.12585034311722298 -0.11028937404700692 0.11695634341394399
leaf_count=567 36 34 67 36 39 234 37 34 110
internal_value=0 0.984966 0.381236 -1.13992 -0.213744 1.22238 1.17733 -1.17437 1.15738
internal_count=1194 557 142 637 75 415 181 601 144
shrinkage=0.1


Tree=11
num_leaves=10
num_cat=0
split_feature=0 3 2 4 1 2 4 1 5
split_gain=177.384 12.7748 12.5377 1.75555 1.07138 0.122761 0.0540229 0.0123785 0.000357406
threshold=1.0000000180025095e-35 1.0000000180025095e-35 1.0000000180025095e-35 1.0000000180025095e-35 1.0000000180025095e-35 1.0000000180025095e-35 1.0000000180025095e-35 1.0000000180025095e-35 1.0000000180025095e-35
decision_type=2 2 2 2 2 2 2 2 2
left_child=3 2 4 8 -2 6 7 -3 -1
right_child=1 5 -4 -5 -6 -7 -8 -9 -10
leaf_value=-0.11599586345697901 -0.051280026247568979 0.10771618782131437 0.12279345589967577 -0.06067990448164106 0.0016557495916420574 0.12279345589967579 0.12279345589967579 0.1131427214550975 -0.11698677718514282
leaf_count=567 36 34 67 39 39 234 37 110 31
internal_value=0 0.948023 0.357952 -1.116 -0.194956 1.18856 1.1398 1.11834 -1.16049
internal_count=1194 557 142 637 75 415 181 144 598
shrinkage=0.1


Tree=12
num_leaves=11
num_cat=0
split_feature=0 3 2 4 1 2 4 1 5 2
split_gain=156.026 11.936 11.1684 1.81732 0.903859 0.134673 0.0588796 0.0132689 0.000251616 1.42109e-14
threshold=1.0000000180025095e-35 1.0000000180025095e-35 1.0000000180025095e-35 1.0000000180025095e-35 1.0000000180025095e-35 1.0000000180025095e-35 1.0000000180025095e-35 1.0000000180025095e-35 1.0000000180025095e-35 1.0000000180025095e-35
decision_type=2 2 2 2 2 2 2 2 2 2
left_child=3 2 4 8 -2 6 7 -3 9 -1
right_child=1 5 -4 -5 -6 -7 -8 -9 -10 -11
leaf_value=-0.11424398127838038 -0.047545006620897501 0.10386399321737977 0.12015959257682139 -0.056788016107333694 0.0014898306458447893 0.12015959257682141 0.12015959257682141 0.10967262751735279 -0.11511138103176183 -0.11424398127838038
leaf_count=446 36 34 67 39 39 234 37 110 31 121
internal_value=0 0.913783 0.336036 -1.0946 -0.177695 1.15858 1.10576 1.08267 -1.14291 -1.14244
internal_count=1194 557 142 637 75 415 181 144 598 567
shrinkage=0.1


Tree=13
num_leaves=11
num_cat=0
split_feature=0 3 2 5 1 2 4 4 1 4
split_gain=137.417 11.1978 9.97836 1.91791 0.76106 0.147724 0.0641244 0.0518903 0.0141948 7.10543e-15
threshold=1.0000000180025095e-35 1.0000000180025095e-35 1.0000000180025095e-35 1.0000000180025095e-35 1.0000000180025095e-35 1.0000000180025095e-35 1.0000000180025095e-35 1.0000000180025095e-35 1.0000000180025095e-35 1.0000000180025095e-35
decision_type=2 2 2 2 2 2 2 2 2 2
left_child=3 2 4 7 -2 6 8 -1 -3 -7
right_child=1 5 -4 -5 -6 9 -8 -9 -10 -11
leaf_value=-0.11270620940418492 -0.044024256998043354 0.10025724510577193 0.11787709898369479 -0.040447947046862442 0.0013405544358102083 0.11787709898369476 0.11787709898369481 -0.10210445328078564 0.10647216593969333 0.11787709898369481
leaf_count=567 36 34 67 36 39 86 37 34 110 148
internal_value=0 0.881637 0.315311 -1.07492 -0.161844 1.13173 1.07447 -1.11843 1.04962 1.17877
internal_count=1194 557 142 637 75 415 181 601 144 234
shrinkage=0.1


Tree=14
num_leaves=10
num_cat=0
split_feature=0 3 2 4 1 2 4 1 5
split_gain=121.113 10.5394 8.93786 2.07437 0.63953 0.161919 0.0697382 0.0151432 0.000742333
threshold=1.0000000180025095e-35 1.0000000180025095e-35 1.0000000180025095e-35 1.0000000180025095e-35 1.0000000180025095e-35 1.0000000180025095e-35 1.0000000180025095e-35 1.0000000180025095e-35 1.0000000180025095e-35
decision_type=2 2 2 2 2 2 2 2 2
left_child=3 2 4 8 -2 6 7 -3 -1
right_child=1 5 -4 -5 -6 -7 -8 -9 -10
leaf_value=-0.111351890657997 -0.040707553821965718 0.096839043309631445 0.11588926759663272 -0.046743951927185029 0.0012062704169822245 0.11588926759663272 0.11588926759663272 0.10348188292266827 -0.11293437637981665
leaf_count=567 36 34 67 39 39 234 37 110 31
internal_value=0 0.851101 0.295646 -1.05619 -0.147299 1.10739 1.04533 1.0186 -1.11442
internal_count=1194 557 142 637 75 415 181 144 598
shrinkage=0.1


Tree=15
num_leaves=10
num_cat=0
split_feature=0 3 2 4 1 2 4 1 5
split_gain=106.841 9.94443 8.02338 2.12851 0.536296 0.177266 0.0756987 0.0161002 0.000529894
threshold=1.0000000180025095e-35 1.0000000180025095e-35 1.0000000180025095e-35 1.0000000180025095e-35 1.0000000180025095e-35 1.0000000180025095e-35 1.0000000180025095e-35 1.0000000180025095e-35 1.0000000180025095e-35
decision_type=2 2 2 2 2 2 2 2 2
left_child=3 2 4 8 -2 6 7 -3 -1
right_child=1 5 -4 -5 -6 -7 -8 -9 -10
leaf_value=-0.11015567462878242 -0.037586506321313967 0.093563748411171072 0.11415056404762168 -0.043483551332665682 0.0010854614632768223 0.11415056404762168 0.11415056404762168 0.10065328177710596 -0.11155311026602421
leaf_count=567 36 34 67 39 39 234 37 110 31
internal_value=0 0.821788 0.276945 -1.039 -0.133962 1.08509 1.01786 0.989144 -1.10236
internal_count=1194 557 142 637 75 415 181 144 598
shrinkage=0.1


Tree=16
num_leaves=10
num_cat=0
split_feature=0 3 2 5 1 2 4 4 1
split_gain=94.2913 9.40001 7.21592 2.27191 0.448791 0.193766 0.0819794 0.0738011 0.0170508
threshold=1.0000000180025095e-35 1.0000000180025095e-35 1.0000000180025095e-35 1.0000000180025095e-35 1.0000000180025095e-35 1.0000000180025095e-35 1.0000000180025095e-35 1.0000000180025095e-35 1.0000000180025095e-35
decision_type=2 2 2 2 2 2 2 2 2
left_child=3 2 4 7 -2 6 8 -1 -3
right_child=1 5 -4 -5 -6 -7 -8 -9 -10
leaf_value=-0.10909638514282863 -0.03465389834091738 0.090394614725749375 0.11262404039841452 -0.022456815983199784 0.00097676366611549855 0.11262404039841452 0.11262404039841452 -0.095533123111622514 0.097946365806184155
leaf_count=567 36 34 67 36 39 234 37 34 110
internal_value=0 0.793388 0.259137 -1.02269 -0.121745 1.06443 0.991641 -1.07841 0.960846
internal_count=1194 557 142 637 75 415 181 601 144
shrinkage=0.1


Tree=17
num_leaves=10
num_cat=0
split_feature=0 3 2 4 1 2 4 1 5
split_gain=83.2056 8.89594 6.50002 2.38284 0.374786 0.211412 0.088548 0.0179789 0.000920235
threshold=1.0000000180025095e-35 1.0000000180025095e-35 1.0000000180025095e-35 1.0000000180025095e-35 1.0000000180025095e-35 1.0000000180025095e-35 1.0000000180025095e-35 1.0000000180025095e-35 1.0000000180025095e-35
decision_type=2 2 2 2 2 2 2 2 2
left_child=3 2 4 8 -2 6 7 -3 -1
right_child=1 5 -4 -5 -6 -7 -8 -9 -10
leaf_value=-0.10815621643010415 -0.031903169171066358 0.087302147171375882 0.11127941954136047 -0.034085487651256539 0.00087896860371055826 0.11127941954136047 0.11127941954136047 0.095327888660385871 -0.11010413087264762
leaf_count=567 36 34 67 39 39 234 37 110 31
internal_value=0 0.765657 0.242174 -1.0065 -0.110564 1.04506 0.966351 0.933383 -1.08276
internal_count=1194 557 142 637 75 415 181 144 598
shrinkage=0.1


Tree=18
num_leaves=11
num_cat=0
split_feature=0 3 2 5 1 2 4 4 1 1
split_gain=73.4449 8.42404 5.86299 2.45121 0.312349 0.230187 0.0953648 0.094847 0.0188674 7.10543e-15
threshold=1.0000000180025095e-35 1.0000000180025095e-35 1.0000000180025095e-35 1.0000000180025095e-35 1.0000000180025095e-35 1.0000000180025095e-35 1.0000000180025095e-35 1.0000000180025095e-35 1.0000000180025095e-35 1.0000000180025095e-35
decision_type=2 2 2 2 2 2 2 2 2 2
left_child=3 2 4 7 -2 6 8 9 -3 -1
right_child=1 5 -4 -5 -6 -7 -8 -9 -10 -11
leaf_value=-0.10732009567762586 -0.02932805869301381 0.084262852269875441 0.1100915677657841 -0.012490471183999164 0.00079097769548191208 0.1100915677657841 0.1100915677657841 -0.091148887033312684 0.092770076249586844 -0.10732009567762586
leaf_count=81 36 34 67 36 39 234 37 34 110 486
internal_value=0 0.738398 0.226018 -0.991288 -0.100343 1.02671 0.941704 -1.05693 0.906487 -1.0732
internal_count=1194 557 142 637 75 415 181 601 144 567
shrinkage=0.1


Tree=19
num_leaves=10
num_cat=0
split_feature=0 3 2 4 1 2 4 1 5
split_gain=64.7951 7.97783 5.29433 2.62324 0.259797 0.250057 0.102383 0.0196985 0.0012173
threshold=1.0000000180025095e-35 1.0000000180025095e-35 1.0000000180025095e-35 1.0000000180025095e-35 1.0000000180025095e-35 1.0000000180025095e-35 1.0000000180025095e-35 1.0000000180025095e-35 1.0000000180025095e-35
decision_type=2 2 2 2 2 2 2 2 2
left_child=3 2 4 8 -2 6 7 -3 -1
right_child=1 5 -4 -5 -6 -7 -8 -9 -10
leaf_value=-0.10657519122914859 -0.026922335886205347 0.08125834881890609 0.1090395347349026 -0.02517341147754544 0.00071179879339500771 0.1090395347349026 0.1090395347349026 0.09024971579783464 -0.1089383437279372
leaf_count=567 36 34 67 39 39 234 37 110 31
internal_value=0 0.711464 0.210645 -0.975837 -0.0910077 1.00912 0.917463 0.879935 -1.06732
internal_count=1194 557 142 637 75 415 181 144 598
shrinkage=0.1


Tree=20
num_leaves=11
num_cat=0
split_feature=3 0 2 4 2 1 4 1 2 5
split_gain=58.278 20.1643 4.78528 1.06617 0.222342 0.215674 0.0245033 0.0159105 0.0158237 0.000881049
threshold=1.0000000180025095e-35 1.0000000180025095e-35 1.0000000180025095e-35 1.0000000180025095e-35 1.0000000180025095e-35 1.0000000180025095e-35 1.0000000180025095e-35 1.0000000180025095e-35 1.0000000180025095e-35 1.0000000180025095e-35
decision_type=2 2 2 2 2 2 2 2 2 2
left_child=1 6 5 4 7 -3 9 -2 -5 -1
right_child=3 2 -4 8 -6 -7 -8 -9 -10 -11
leaf_value=-0.10591048789301061 0.078274691734945404 -0.024679707965740632 0.10810571258076176 0.13644228755491747 0.10810571258076176 0.00064055886091033386 -0.11448996146871269 0.086623284312683443 0.12784022074044044 -0.10801577778876713
leaf_count=566 34 36 67 38 86 39 35 111 151 31
internal_value=0 -0.624674 0.196034 1.08112 0.922987 -0.0824906 -1.06959 0.845237 1.29566 -1.06051
internal_count=1194 774 142 420 231 75 632 145 189 597
shrinkage=0.1


Tree=21
num_leaves=11
num_cat=0
split_feature=3 0 2 4 2 1 4 2 1 5
split_gain=51.6854 18.5485 4.32849 1.11499 0.238489 0.178716 0.0176433 0.0170797 0.016147 0.000639274
threshold=1.0000000180025095e-35 1.0000000180025095e-35 1.0000000180025095e-35 1.0000000180025095e-35 1.0000000180025095e-35 1.0000000180025095e-35 1.0000000180025095e-35 1.0000000180025095e-35 1.0000000180025095e-35 1.0000000180025095e-35
decision_type=2 2 2 2 2 2 2 2 2 2
left_child=1 6 5 4 8 -3 9 -5 -2 -1
right_child=3 2 -4 7 -6 -7 -8 -9 -10 -11
leaf_value=-0.10531651427056135 0.075301847786876319 -0.022593647499528774 0.10727514650811283 0.13750452500278601 0.10727514650811283 0.00057644543531493576 -0.11292418215388689 0.1280799102114844 0.08399050470777536 -0.10719507778037968
leaf_count=566 34 36 67 38 86 39 35 151 111 31
internal_value=0 -0.605495 0.18217 1.06736 0.900607 -0.0747275 -1.06253 1.29962 0.817932 -1.05442
internal_count=1194 774 142 420 231 75 632 189 145 597
shrinkage=0.1


Tree=22
num_leaves=11
num_cat=0
split_feature=3 0 2 4 2 1 2 1 4 5
split_gain=45.8145 17.0878 3.91774 1.16219 0.254902 0.147832 0.0183385 0.016263 0.012742 0.000464816
threshold=1.0000000180025095e-35 1.0000000180025095e-35 1.0000000180025095e-35 1.0000000180025095e-35 1.0000000180025095e-35 1.0000000180025095e-35 1.0000000180025095e-35 1.0000000180025095e-35 1.0000000180025095e-35 1.0000000180025095e-35
decision_type=2 2 2 2 2 2 2 2 2 2
left_child=1 8 5 4 7 -3 -5 -2 9 -1
right_child=3 2 -4 6 -6 -7 -8 -9 -10 -11
leaf_value=-0.10478507787285077 0.072333280585365492 -0.020657444457431964 0.10653510172875907 0.13872289007956728 0.10653510172875902 0.0005187615057369422 0.12841933664292229 0.081335477311473836 -0.11154551806996381 -0.10646369347828444
leaf_count=566 34 36 67 38 86 39 151 111 35 31
internal_value=0 -0.58618 0.169038 1.05349 0.878092 -0.0676583 1.30467 0.790457 -1.05622 -1.04897
internal_count=1194 774 142 420 231 75 189 145 632 597
shrinkage=0.1


Tree=23
num_leaves=11
num_cat=0
split_feature=3 0 2 4 2 1 2 1 4 5
split_gain=40.579 15.7627 3.54771 1.20584 0.271409 0.122083 0.0195032 0.0162523 0.00922676 0.000338607
threshold=1.0000000180025095e-35 1.0000000180025095e-35 1.0000000180025095e-35 1.0000000180025095e-35 1.0000000180025095e-35 1.0000000180025095e-35 1.0000000180025095e-35 1.0000000180025095e-35 1.0000000180025095e-35 1.0000000180025095e-35
decision_type=2 2 2 2 2 2 2 2 2 2
left_child=1 8 5 4 7 -3 -5 -2 9 -1
right_child=3 2 -4 6 -6 -7 -8 -9 -10 -11
leaf_value=-0.10430905582840343 0.069365578880665552 -0.018864147386234098 0.10587468486687873 0.14002883329146812 0.10587468486687868 0.00046685192857186817 0.12881511939523602 0.078649159628599516 -0.11032804357666015 -0.10581091128698213
leaf_count=566 34 36 67 38 86 39 151 111 35 31
internal_value=0 -0.566688 0.156625 1.0392 0.855313 -0.0612268 1.31033 0.762739 -1.05059 -1.0441
internal_count=1194 774 142 420 231 75 189 145 632 597
shrinkage=0.1


Tree=24
num_leaves=11
num_cat=0
split_feature=3 0 2 4 2 1 2 1 4 5
split_gain=35.905 14.5568 3.21388 1.24397 0.287819 0.100661 0.0204567 0.0161118 0.00669713 0.000247085
threshold=1.0000000180025095e-35 1.0000000180025095e-35 1.0000000180025095e-35 1.0000000180025095e-35 1.0000000180025095e-35 1.0000000180025095e-35 1.0000000180025095e-35 1.0000000180025095e-35 1.0000000180025095e-35 1.0000000180025095e-35
decision_type=2 2 2 2 2 2 2 2 2 2
left_child=1 8 5 4 7 -3 -5 -2 9 -1
right_child=3 2 -4 6 -6 -7 -8 -9 -10 -11
leaf_value=-0.10388222808078323 0.066398155080596488 -0.017206674481945475 0.10528449890843326 0.14134161990423674 0.10528449890843322 0.00042014619483494574 0.12922164230270869 0.075925549806048542 -0.10925011529251138 -0.10522746271897881
leaf_count=566 34 36 67 38 86 39 151 111 35 31
internal_value=0 -0.546994 0.144917 1.0242 0.832164 -0.0553806 1.31608 0.734733 -1.04554 -1.03972
internal_count=1194 774 142 420 231 75 189 145 632 597
shrinkage=0.1


Tree=25
num_leaves=12
num_cat=0
split_feature=3 0 2 4 2 1 2 1 4 5 1
split_gain=31.7291 13.4558 2.91232 1.27475 0.303916 0.082876 0.0210704 0.0158421 0.00487121 0.000180572 3.55271e-15
threshold=1.0000000180025095e-35 1.0000000180025095e-35 1.0000000180025095e-35 1.0000000180025095e-35 1.0000000180025095e-35 1.0000000180025095e-35 1.0000000180025095e-35 1.0000000180025095e-35 1.0000000180025095e-35 1.0000000180025095e-35 1.0000000180025095e-35
decision_type=2 2 2 2 2 2 2 2 2 2 2
left_child=1 8 5 4 7 -3 -5 -2 9 10 -1
right_child=3 2 -4 6 -6 -7 -8 -9 -10 -11 -12
leaf_value=-0.10349917170527866 0.063432877039192828 -0.015677758237729655 0.1047564109715516 0.14256921856537325 0.1047564109715516 0.00037810113285744357 0.12959196435193374 0.07316160972772047 -0.10829354054487278 -0.10470533726548546 -0.10349917170527899
leaf_count=81 34 36 67 38 86 39 151 111 35 31 485
internal_value=0 -0.527094 0.133898 1.00823 0.808561 -0.0500708 1.32136 0.706423 -1.04102 -1.0358 -1.03499
internal_count=1194 774 142 420 231 75 189 145 632 597 566
shrinkage=0.1


Tree=26
num_leaves=11
num_cat=0
split_feature=3 0 2 4 2 1 2 1 4 5
split_gain=27.9968 12.4474 2.63962 1.29657 0.31947 0.0681398 0.0212222 0.0154472 0.00354976 0.000132144
threshold=1.0000000180025095e-35 1.0000000180025095e-35 1.0000000180025095e-35 1.0000000180025095e-35 1.0000000180025095e-35 1.0000000180025095e-35 1.0000000180025095e-35 1.0000000180025095e-35 1.0000000180025095e-35 1.0000000180025095e-35
decision_type=2 2 2 2 2 2 2 2 2 2
left_child=1 8 5 4 7 -3 -5 -2 9 -1
right_child=3 2 -4 6 -6 -7 -8 -9 -10 -11
leaf_value=-0.10315511909828608 0.060473814546517658 -0.0142701339459792 0.10428335488528034 0.14361215458949728 0.10428335488528034 0.00034027534497699366 0.12987954012432282 0.070357090592398627 -0.10744295182346855 -0.10423758327360202
leaf_count=566 34 36 67 38 86 39 151 111 35 31
internal_value=0 -0.506997 0.123551 0.991065 0.784447 -0.0452516 1.32561 0.677821 -1.03696 -1.03228
internal_count=1194 774 142 420 231 75 189 145 632 597
shrinkage=0.1


Tree=27
num_leaves=13
num_cat=0
split_feature=3 0 2 4 2 1 2 1 4 5 1 2
split_gain=24.6611 11.5212 2.39281 1.30827 0.33424 0.0559523 0.020821 0.0149352 0.0025911 9.68195e-05 3.55271e-15 1.77636e-15
threshold=1.0000000180025095e-35 1.0000000180025095e-35 1.0000000180025095e-35 1.0000000180025095e-35 1.0000000180025095e-35 1.0000000180025095e-35 1.0000000180025095e-35 1.0000000180025095e-35 1.0000000180025095e-35 1.0000000180025095e-35 1.0000000180025095e-35 1.0000000180025095e-35
decision_type=2 2 2 2 2 2 2 2 2 2 2 2
left_child=1 8 5 4 7 -3 -5 -2 9 10 -1 -12
right_child=3 2 -4 6 -6 -7 -8 -9 -10 -11 11 -13
leaf_value=-0.10284587732977019 0.057526883212823815 -0.012976523513286806 0.10385917548180473 0.14437073845203821 0.10385917548180471 0.0003062377763422483 0.13004082069776368 0.067514435954598911 -0.10668523089048676 -0.10381810801374658 -0.10284587732977035 -0.1028458773297703
leaf_count=81 34 36 67 38 86 39 151 111 35 31 389 96
internal_value=0 -0.486727 0.113857 0.972508 0.759784 -0.0408811 1.3283 0.648963 -1.03332 -1.02911 -1.02846 -1.02846
internal_count=1194 774 142 420 231 75 189 145 632 597 566 485
shrinkage=0.1


Tree=28
num_leaves=11
num_cat=0
split_feature=3 0 2 4 2 1 2 1 4 5
split_gain=21.6811 10.668 2.16929 1.30925 0.347979 0.0458901 0.0198313 0.0143172 0.00189415 7.10171e-05
threshold=1.0000000180025095e-35 1.0000000180025095e-35 1.0000000180025095e-35 1.0000000180025095e-35 1.0000000180025095e-35 1.0000000180025095e-35 1.0000000180025095e-35 1.0000000180025095e-35 1.0000000180025095e-35 1.0000000180025095e-35
decision_type=2 2 2 2 2 2 2 2 2 2
left_child=1 8 5 4 7 -3 -5 -2 9 -1
right_child=3 2 -4 6 -6 -7 -8 -9 -10 -11
leaf_value=-0.10256773273454776 0.054599487385044401 -0.01178971715802119 0.10347847705794776 0.14475526574284586 0.10347847705794772 0.00027559926197120104 0.13003822876017918 0.064638605601189489 -0.1060091538218349 -0.10344160573289377
leaf_count=566 34 36 67 38 86 39 151 111 35 31
internal_value=0 -0.466322 0.104794 0.952431 0.734559 -0.03692 1.32897 0.619909 -1.03005 -1.02627
internal_count=1194 774 142 420 231 75 189 145 632 597
shrinkage=0.1


Tree=29
num_leaves=11
num_cat=0
split_feature=3 0 2 4 2 1 2 1 4 5
split_gain=19.0216 9.88019 1.96675 1.29958 0.360444 0.037596 0.0182918 0.0136074 0.00138651 5.21406e-05
threshold=1.0000000180025095e-35 1.0000000180025095e-35 1.0000000180025095e-35 1.0000000180025095e-35 1.0000000180025095e-35 1.0000000180025095e-35 1.0000000180025095e-35 1.0000000180025095e-35 1.0000000180025095e-35 1.0000000180025095e-35
decision_type=2 2 2 2 2 2 2 2 2 2
left_child=1 8 5 4 7 -3 -5 -2 9 -1
right_child=3 2 -4 6 -6 -7 -8 -9 -10 -11
leaf_value=-0.10231742686287254 0.051700219546805919 -0.010702622648220066 0.1031365258292595 0.14469770863944956 0.10313652582925957 0.00024802625161277758 0.12984327080260297 0.061736784520516556 -0.10540507249910609 -0.10310339699166252
leaf_count=566 34 36 67 38 86 39 151 111 35 31
internal_value=0 -0.44583 0.0963399 0.930764 0.708781 -0.0333322 1.32727 0.590738 -1.0271 -1.0237
internal_count=1194 774 142 420 231 75 189 145 632 597
shrinkage=0.1


Tree=30
num_leaves=11
num_cat=0
split_feature=3 0 2 4 2 1 2 1 4 5
split_gain=16.6515 9.15098 1.78314 1.27999 0.371402 0.0307699 0.0163151 0.0128224 0.00101613 3.83149e-05
threshold=1.0000000180025095e-35 1.0000000180025095e-35 1.0000000180025095e-35 1.0000000180025095e-35 1.0000000180025095e-35 1.0000000180025095e-35 1.0000000180025095e-35 1.0000000180025095e-35 1.0000000180025095e-35 1.0000000180025095e-35
decision_type=2 2 2 2 2 2 2 2 2 2
left_child=1 8 5 4 7 -3 -5 -2 9 -1
right_child=3 2 -4 6 -6 -7 -8 -9 -10 -11
leaf_value=-0.10209204368609044 0.048838464647130438 -0.0097083742728130765 0.10282916204942655 0.14416185144275273 0.1028291620494266 0.00022322392903444946 0.12943904607678955 0.058818189389459735 -0.10486462503986345 -0.10279936817244617
leaf_count=566 34 36 67 38 86 39 151 111 35 31
internal_value=0 -0.42531 0.0884695 0.907506 0.68248 -0.0300843 1.32298 0.561545 -1.02446 -1.0214
internal_count=1194 774 142 420 231 75 189 145 632 597
shrinkage=0.1


Tree=31
num_leaves=12
num_cat=0
split_feature=3 0 2 4 2 1 2 1 4 5 1
split_gain=14.5433 8.47469 1.61665 1.25177 0.380642 0.0251595 0.0140687 0.0119802 0.000745488 2.81778e-05 1.77636e-15
threshold=1.0000000180025095e-35 1.0000000180025095e-35 1.0000000180025095e-35 1.0000000180025095e-35 1.0000000180025095e-35 1.0000000180025095e-35 1.0000000180025095e-35 1.0000000180025095e-35 1.0000000180025095e-35 1.0000000180025095e-35 1.0000000180025095e-35
decision_type=2 2 2 2 2 2 2 2 2 2 2
left_child=1 8 5 4 7 -3 -5 -2 9 10 -1
right_child=3 2 -4 6 -6 -7 -8 -9 -10 -11 -12
leaf_value=-0.10188900701836519 0.046024059575945971 -0.0088003005477490289 0.10255269773738146 0.1431490766871355 0.10255269773738152 0.00020089325261339087 0.12882162869011252 0.055893663456265424 -0.10438056209562191 -0.10252589507343429 -0.10188900701836492
leaf_count=81 34 36 67 38 86 39 151 111 35 31 485
internal_value=0 -0.404828 0.0811571 0.88272 0.655708 -0.0271457 1.31609 0.53244 -1.02208 -1.01932 -1.01889
internal_count=1194 774 142 420 231 75 189 145 632 597 566
shrinkage=0.1


Tree=32
num_leaves=11
num_cat=0
split_feature=3 0 2 4 2 1 2 1 4 5
split_gain=12.6723 7.8464 1.46565 1.2166 0.387981 0.0205545 0.0117405 0.0110995 0.000547451 2.07371e-05
threshold=1.0000000180025095e-35 1.0000000180025095e-35 1.0000000180025095e-35 1.0000000180025095e-35 1.0000000180025095e-35 1.0000000180025095e-35 1.0000000180025095e-35 1.0000000180025095e-35 1.0000000180025095e-35 1.0000000180025095e-35
decision_type=2 2 2 2 2 2 2 2 2 2
left_child=1 8 5 4 7 -3 -5 -2 9 -1
right_child=3 2 -4 6 -6 -7 -8 -9 -10 -11
leaf_value=-0.10170602225018575 0.043266957377615066 -0.007971996734306647 0.10230389389003057 0.14169760659876862 0.10230389389003065 0.00018079500923661644 0.1280000139660685 0.052975295082842336 -0.10394655038545669 -0.10227975711377579
leaf_count=566 34 36 67 38 86 39 151 111 35 31
internal_value=0 -0.384456 0.074376 0.856527 0.628534 -0.0244883 1.30672 0.503542 -1.01993 -1.01745
internal_count=1194 774 142 420 231 75 189 145 632 597
shrinkage=0.1


Tree=33
num_leaves=12
num_cat=0
split_feature=3 0 2 4 2 1 1 2 4 5 1
split_gain=11.016 7.26191 1.32867 1.17634 0.393274 0.0167791 0.0101988 0.00950148 0.000402376 1.52713e-05 1.77636e-15
threshold=1.0000000180025095e-35 1.0000000180025095e-35 1.0000000180025095e-35 1.0000000180025095e-35 1.0000000180025095e-35 1.0000000180025095e-35 1.0000000180025095e-35 1.0000000180025095e-35 1.0000000180025095e-35 1.0000000180025095e-35 1.0000000180025095e-35
decision_type=2 2 2 2 2 2 2 2 2 2 2
left_child=1 8 5 4 6 -3 -2 -5 9 10 -1
right_child=3 2 -4 7 -6 -7 -8 -9 -10 -11 -12
leaf_value=-0.10154103636331145 0.040576878466995057 -0.0072173615314719336 0.10207984254900382 0.13987531417010399 0.10207984254900392 0.00016271432219688744 0.050076046135707264 0.12699454137863242 -0.1035570787637979 -0.10205810843574717 -0.1015410363633112
leaf_count=81 34 36 67 38 86 39 111 151 35 31 485
internal_value=0 -0.36427 0.068099 0.829091 0.601048 -0.0220861 0.474974 1.29517 -1.018 -1.01576 -1.01541
internal_count=1194 774 142 420 231 75 145 189 632 597 566
shrinkage=0.1


Tree=34
num_leaves=11
num_cat=0
split_feature=3 0 2 4 2 1 1 2 4 5
split_gain=9.55382 6.7176 1.20442 1.13279 0.396416 0.0136872 0.0092958 0.00747919 0.000295972 1.12526e-05
threshold=1.0000000180025095e-35 1.0000000180025095e-35 1.0000000180025095e-35 1.0000000180025095e-35 1.0000000180025095e-35 1.0000000180025095e-35 1.0000000180025095e-35 1.0000000180025095e-35 1.0000000180025095e-35 1.0000000180025095e-35
decision_type=2 2 2 2 2 2 2 2 2 2
left_child=1 8 5 4 6 -3 -2 -5 9 -1
right_child=3 2 -4 7 -6 -7 -8 -9 -10 -11
leaf_value=-0.10139223949407622 0.037963070302929343 -0.0065305956597045932 0.10187801150294128 0.13776845701677928 0.10187801150294136 0.00014644261628960097 0.047209286466977168 0.12583414741972959 -0.10320727253618241 -0.10185842402124064
leaf_count=566 34 36 67 38 86 39 111 151 35 31
internal_value=0 -0.344347 0.0622982 0.800601 0.573349 -0.0199155 0.44686 1.28182 -1.01626 -1.01424
internal_count=1194 774 142 420 231 75 145 189 632 597
shrinkage=0.1


Tree=35
num_leaves=11
num_cat=0
split_feature=3 0 2 4 2 1 1 2 4 5
split_gain=8.26662 6.21033 1.0917 1.08753 0.397354 0.0111578 0.00840641 0.00574636 0.000217855 8.29581e-06
threshold=1.0000000180025095e-35 1.0000000180025095e-35 1.0000000180025095e-35 1.0000000180025095e-35 1.0000000180025095e-35 1.0000000180025095e-35 1.0000000180025095e-35 1.0000000180025095e-35 1.0000000180025095e-35 1.0000000180025095e-35
decision_type=2 2 2 2 2 2 2 2 2 2
left_child=1 8 5 4 6 -3 -2 -5 9 -1
right_child=3 2 -4 7 -6 -7 -8 -9 -10 -11
leaf_value=-0.10125799998572955 0.03543398030857297 -0.005906240452152641 0.1016961162687712 0.13546929509654587 0.10169611626877129 0.00013179623526207994 0.044388367044631394 0.12455298082373548 -0.1028928639323016 -0.10167845198987094
leaf_count=566 34 36 67 38 86 39 111 151 35 31
internal_value=0 -0.324763 0.056946 0.771263 0.545554 -0.0179551 0.419324 1.26712 -1.01468 -1.01286
internal_count=1194 774 142 420 231 75 145 189 632 597
shrinkage=0.1


Tree=36
num_leaves=11
num_cat=0
split_feature=3 0 4 2 2 1 1 2 4 5
split_gain=7.13667 5.7374 1.04182 0.989445 0.396079 0.0090903 0.00754458 0.00432542 0.00016046 6.11889e-06
threshold=1.0000000180025095e-35 1.0000000180025095e-35 1.0000000180025095e-35 1.0000000180025095e-35 1.0000000180025095e-35 1.0000000180025095e-35 1.0000000180025095e-35 1.0000000180025095e-35 1.0000000180025095e-35 1.0000000180025095e-35
decision_type=2 2 2 2 2 2 2 2 2 2
left_child=1 8 4 5 6 -3 -2 -4 9 -1
right_child=2 3 7 -5 -6 -7 -8 -9 -10 -11
leaf_value=-0.10113684831134816 0.032997134570331731 -0.0053391292970083291 0.13306560077792687 0.1015321017982239 0.10153210179822401 0.00011861211215691034 0.041626250504469053 0.12318699593458673 -0.10261009841498377 -0.10151617595979312
leaf_count=566 34 36 38 67 86 39 111 151 35 31
internal_value=0 -0.305593 0.74128 0.0520151 0.517784 -0.0161849 0.39248 1.25151 -1.01327 -1.01162
internal_count=1194 774 420 142 231 75 145 189 632 597
shrinkage=0.1


Tree=37
num_leaves=11
num_cat=0
split_feature=3 0 4 2 2 1 1 2 4 5
split_gain=6.14753 5.29643 0.996589 0.896689 0.392634 0.00740186 0.00672176 0.00320161 0.00011825 4.51479e-06
threshold=1.0000000180025095e-35 1.0000000180025095e-35 1.0000000180025095e-35 1.0000000180025095e-35 1.0000000180025095e-35 1.0000000180025095e-35 1.0000000180025095e-35 1.0000000180025095e-35 1.0000000180025095e-35 1.0000000180025095e-35
decision_type=2 2 2 2 2 2 2 2 2 2
left_child=1 8 4 5 6 -3 -2 -4 9 -1
right_child=2 3 7 -5 -6 -7 -8 -9 -10 -11
leaf_value=-0.10102750526510063 0.030658932455346451 -0.0048244737993015123 0.13063361787933028 0.10138418022635819 0.1013841802263583 0.00010674833803769675 0.03893507697642707 0.12177107281751931 -0.10235562743811209 -0.10136981506574383
leaf_count=566 34 36 38 67 86 39 111 151 35 31
internal_value=0 -0.286905 0.710846 0.0474785 0.490167 -0.014587 0.366437 1.23542 -1.01199 -1.01051
internal_count=1194 774 420 142 231 75 145 189 632 597
shrinkage=0.1


Tree=38
num_leaves=11
num_cat=0
split_feature=3 0 4 2 2 1 1 2 4 5
split_gain=5.28399 4.88534 0.952417 0.812555 0.38711 0.00602401 0.00594693 0.00233841 8.71895e-05 3.33296e-06
threshold=1.0000000180025095e-35 1.0000000180025095e-35 1.0000000180025095e-35 1.0000000180025095e-35 1.0000000180025095e-35 1.0000000180025095e-35 1.0000000180025095e-35 1.0000000180025095e-35 1.0000000180025095e-35 1.0000000180025095e-35
decision_type=2 2 2 2 2 2 2 2 2 2
left_child=1 8 4 5 6 -3 -2 -4 9 -1
right_child=2 3 7 -5 -6 -7 -8 -9 -10 -11
leaf_value=-0.10092876088196939 0.02842453520739845 -0.004357768485152555 0.12823460889003377 0.10125072624993786 0.10125072624993799 9.6069266646171768e-05 0.03632594044985709 0.1203368765346492 -0.1021264985916067 -0.10123776623703494
leaf_count=566 34 36 38 67 86 39 111 151 35 31
internal_value=0 -0.268763 0.680142 0.0433101 0.462832 -0.0131451 0.341288 1.21923 -1.01084 -1.0095
internal_count=1194 774 420 142 231 75 145 189 632 597
shrinkage=0.1


Tree=39
num_leaves=11
num_cat=0
split_feature=3 0 2 2 4 4 1 1 4 5
split_gain=4.53208 4.50224 0.921233 0.736249 0.350406 0.0193074 0.00522645 0.00490042 6.43148e-05 2.46114e-06
threshold=1.0000000180025095e-35 1.0000000180025095e-35 1.0000000180025095e-35 1.0000000180025095e-35 1.0000000180025095e-35 1.0000000180025095e-35 1.0000000180025095e-35 1.0000000180025095e-35 1.0000000180025095e-35 1.0000000180025095e-35
decision_type=2 2 2 2 2 2 2 2 2 2
left_child=1 8 4 7 6 -4 -2 -3 9 -1
right_child=2 3 5 -5 -6 -7 -8 -9 -10 -11
leaf_value=-0.10083960220749183 0.026297860806958354 -0.0039348558418019581 0.1011302888195645 0.10113028881956437 0.12591436206708093 0.11891151376834211 0.033808593904514586 8.6461022322348611e-05 -0.10192008458066776 -0.10111859645753359
leaf_count=566 34 36 86 67 38 151 111 39 35 31
internal_value=0 -0.251225 0.649334 0.0394845 0.397913 1.12555 0.317116 -0.0118443 -1.00979 -1.00858
internal_count=1194 774 420 142 183 237 145 75 632 597
shrinkage=0.1


Tree=40
num_leaves=11
num_cat=0
split_feature=3 0 2 2 4 4 1 1 4 5
split_gain=3.87903 4.14547 0.900158 0.66705 0.324635 0.0151049 0.00456429 0.00398477 4.74622e-05 1.81791e-06
threshold=1.0000000180025095e-35 1.0000000180025095e-35 1.0000000180025095e-35 1.0000000180025095e-35 1.0000000180025095e-35 1.0000000180025095e-35 1.0000000180025095e-35 1.0000000180025095e-35 1.0000000180025095e-35 1.0000000180025095e-35
decision_type=2 2 2 2 2 2 2 2 2 2
left_child=1 8 4 7 6 -4 -2 -3 9 -1
right_child=2 3 5 -5 -6 -7 -8 -9 -10 -11
leaf_value=-0.10075906476265606 0.024281542568639854 -0.0035518743133834394 0.10102157331892599 0.10102157331892586 0.12370449372728697 0.11751699953177944 0.031391293211587484 7.7812249662976646e-05 -0.10173406732366813 -0.10101101356821798
leaf_count=566 34 36 86 67 38 151 111 39 35 31
internal_value=0 -0.234338 0.61857 0.0359774 0.370888 1.11658 0.293987 -0.010671 -1.00885 -1.00776
internal_count=1194 774 420 142 183 237 145 75 632 597
shrinkage=0.1


Tree=41
num_leaves=12
num_cat=0
split_feature=3 0 2 2 4 4 1 1 4 5 1
split_gain=3.31322 3.81347 0.876441 0.604302 0.300673 0.0117291 0.00396228 0.00323899 3.50389e-05 1.34309e-06 4.44089e-16
threshold=1.0000000180025095e-35 1.0000000180025095e-35 1.0000000180025095e-35 1.0000000180025095e-35 1.0000000180025095e-35 1.0000000180025095e-35 1.0000000180025095e-35 1.0000000180025095e-35 1.0000000180025095e-35 1.0000000180025095e-35 1.0000000180025095e-35
decision_type=2 2 2 2 2 2 2 2 2 2 2
left_child=1 8 4 7 6 -4 -2 -3 9 10 -1
right_child=2 3 5 -5 -6 -7 -8 -9 -10 -11 -12
leaf_value=-0.10068630696677541 0.022376965034521204 -0.0032052522183595028 0.10092340995081071 0.10092340995081056 0.12162479271712119 0.11617028887164825 0.029080676914009219 7.0029640623483396e-05 -0.10156636242816622 -0.1009138682922528 -0.10068630696677645
leaf_count=81 34 36 86 67 38 151 111 39 35 31 485
internal_value=0 -0.218143 0.587986 0.0327655 0.344957 1.1079 0.271951 -0.00961289 -1.008 -1.00702 -1.00686
internal_count=1194 774 420 142 183 237 145 75 632 597 566
shrinkage=0.1


Tree=42
num_leaves=12
num_cat=0
split_feature=4 0 5 2 3 2 1 1 2 1 1
split_gain=2.88452 3.71704 1.30435 1.12741 0.490599 0.223759 0.026454 0.0156406 5.37974e-05 4.49243e-05 1.11022e-16
threshold=1.0000000180025095e-35 1.0000000180025095e-35 1.0000000180025095e-35 1.0000000180025095e-35 1.0000000180025095e-35 1.0000000180025095e-35 1.0000000180025095e-35 1.0000000180025095e-35 1.0000000180025095e-35 1.0000000180025095e-35 1.0000000180025095e-35
decision_type=2 2 2 2 2 2 2 2 2 2 2
left_child=1 8 -2 4 6 -4 -3 -6 9 -1 -10
right_child=2 3 5 -5 7 -7 -8 -9 10 -11 -12
leaf_value=-0.10067956787564825 -0.022678389202563209 -0.0028917133667581097 0.18538465453454289 0.10083477256704276 0.020584346542752773 0.11446644999355715 -0.01233860632278377 0.034143732656242994 -0.10062056823124246 -0.10172994339775417 -0.10062056823124287
leaf_count=73 42 36 39 144 34 154 37 110 25 404 96
internal_value=0 -0.12065 0.974946 0.0630342 -0.000433437 1.3787 -0.0926043 0.301841 -1.01386 -1.01568 -1.00621
internal_count=1194 959 235 361 217 193 73 144 598 477 121
shrinkage=0.1


Tree=43
num_leaves=12
num_cat=0
split_feature=4 0 5 2 3 2 1 1 2 1 1
split_gain=2.46674 3.37502 1.16163 1.02461 0.407348 0.133611 0.0214537 0.013818 4.21782e-05 3.53492e-05 2.22045e-16
threshold=1.0000000180025095e-35 1.0000000180025095e-35 1.0000000180025095e-35 1.0000000180025095e-35 1.0000000180025095e-35 1.0000000180025095e-35 1.0000000180025095e-35 1.0000000180025095e-35 1.0000000180025095e-35 1.0000000180025095e-35 1.0000000180025095e-35
decision_type=2 2 2 2 2 2 2 2 2 2 2
left_child=1 8 -2 4 6 -4 -3 -6 9 -1 -10
right_child=2 3 5 -5 7 -7 -8 -9 10 -11 -12
leaf_value=-0.10061449853173383 -0.020625189548880211 -0.002608231412009348 0.16918216335046113 0.10075469424291338 0.018902838605754202 0.11329400104548218 -0.011123775364031844 0.031794957470502455 -0.1005611634417783 -0.10159365780594649 -0.10056116344177878
leaf_count=73 42 36 39 144 34 154 37 110 25 404 96
internal_value=0 -0.112128 0.925556 0.0578999 -0.0002947 1.32701 -0.0834991 0.279948 -1.01274 -1.01443 -1.00561
internal_count=1194 959 235 361 217 193 73 144 598 477 121
shrinkage=0.1


end of trees

feature importances:
ECs_1206=111
ECs_3129=99
ECs_5257=91
ECs_1812=44
ECs_1563=44
ECs_4563=34

parameters:
[boosting: gbdt]
[objective: binary]
[metric: binary_error,none]
[tree_learner: serial]
[device_type: cpu]
[data: ]
[valid: ]
[num_iterations: 100]
[learning_rate: 0.1]
[num_leaves: 31]
[num_threads: -1]
[max_depth: -1]
[min_data_in_leaf: 20]
[min_sum_hessian_in_leaf: 0.001]
[bagging_fraction: 1]
[bagging_freq: 0]
[bagging_seed: 7615]
[feature_fraction: 1]
[feature_fraction_seed: 21677]
[early_stopping_round: 0]
[max_delta_step: 0]
[lambda_l1: 0]
[lambda_l2: 0]
[min_gain_to_split: 0]
[drop_rate: 0.1]
[max_drop: 50]
[skip_drop: 0.5]
[xgboost_dart_mode: 0]
[uniform_drop: 0]
[drop_seed: 27260]
[top_rate: 0.2]
[other_rate: 0.1]
[min_data_per_group: 100]
[max_cat_threshold: 32]
[cat_l2: 10]
[cat_smooth: 10]
[max_cat_to_onehot: 4]
[top_k: 20]
[monotone_constraints: ]
[feature_contri: ]
[forcedsplits_filename: ]
[refit_decay_rate: 0.9]
[verbosity: -1]
[max_bin: 255]
[min_data_in_bin: 3]
[bin_construct_sample_cnt: 200000]
[histogram_pool_size: -1]
[data_random_seed: 1064]
[output_model: LightGBM_model.txt]
[snapshot_freq: -1]
[input_model: ]
[output_result: LightGBM_predict_result.txt]
[initscore_filename: ]
[valid_data_initscores: ]
[pre_partition: 0]
[enable_bundle: 1]
[max_conflict_rate: 0]
[is_enable_sparse: 1]
[sparse_threshold: 0.8]
[use_missing: 1]
[zero_as_missing: 0]
[two_round: 0]
[save_binary: 0]
[enable_load_from_binary_file: 1]
[header: 0]
[label_column: ]
[weight_column: ]
[group_column: ]
[ignore_column: ]
[categorical_feature: ]
[predict_raw_score: 0]
[predict_leaf_index: 0]
[predict_contrib: 0]
[num_iteration_predict: -1]
[pred_early_stop: 0]
[pred_early_stop_freq: 10]
[pred_early_stop_margin: 10]
[convert_model_language: ]
[convert_model: gbdt_prediction.cpp]
[num_class: 1]
[is_unbalance: 0]
[scale_pos_weight: 1]
[sigmoid: 1]
[boost_from_average: 1]
[reg_sqrt: 0]
[alpha: 0.9]
[fair_c: 1]
[poisson_max_delta_step: 0.7]
[tweedie_variance_power: 1.5]
[max_position: 20]
[label_gain: ]
[metric_freq: 1]
[is_provide_training_metric: 0]
[eval_at: ]
[num_machines: 1]
[local_listen_port: 12400]
[time_out: 120]
[machine_list_filename: ]
[machines: ]
[gpu_platform_id: -1]
[gpu_device_id: -1]
[gpu_use_dp: 0]

end of parameters

pandas_categorical:[]
