tree
version=v2
num_class=1
num_tree_per_iteration=1
label_index=0
max_feature_idx=1177
objective=binary sigmoid:1
feature_names=ECs_0023 ECs_0024 ECs_0025 ECs_0052 ECs_0053 ECs_0061 ECs_0073 ECs_0146 ECs_0217 ECs_0218 ECs_0222 ECs_0223 ECs_0224 ECs_0225 ECs_0226 ECs_0227 ECs_0228 ECs_0229 ECs_0230 ECs_0231 ECs_0232 ECs_0233 ECs_0234 ECs_0236 ECs_0237 ECs_0241 ECs_0242 ECs_0244 ECs_0245 ECs_0252 ECs_0253 ECs_0257 ECs_0259 ECs_0262 ECs_0274 ECs_0275 ECs_0276 ECs_0280 ECs_0281 ECs_0282 ECs_0284 ECs_0285 ECs_0287 ECs_0288 ECs_0289 ECs_0296 ECs_0297 ECs_0298 ECs_0299 ECs_0300 ECs_0301 ECs_0302 ECs_0303 ECs_0305 ECs_0306 ECs_0307 ECs_0309 ECs_0310 ECs_0311 ECs_0314 ECs_0315 ECs_0316 ECs_0317 ECs_0319 ECs_0320 ECs_0321 ECs_0324 ECs_0331 ECs_0332 ECs_0338 ECs_0350 ECs_0351 ECs_0352 ECs_0356 ECs_0370 ECs_0374 ECs_0377 ECs_0378 ECs_0395 ECs_0399 ECs_0400 ECs_0413 ECs_0414 ECs_0415 ECs_0416 ECs_0417 ECs_0418 ECs_0442 ECs_0443 ECs_0454 ECs_0461 ECs_0462 ECs_0472 ECs_0540 ECs_0542 ECs_0543 ECs_0544 ECs_0546 ECs_0548 ECs_0549 ECs_0560 ECs_0561 ECs_0563 ECs_0602 ECs_0603 ECs_0605 ECs_0606 ECs_0607 ECs_0620 ECs_0621 ECs_0627 ECs_0647 ECs_0683 ECs_0721 ECs_0729 ECs_0730 ECs_0731 ECs_0755 ECs_0756 ECs_0757 ECs_0758 ECs_0759 ECs_0760 ECs_0761 ECs_0762 ECs_0763 ECs_0764 ECs_0766 ECs_0767 ECs_0802 ECs_0804 ECs_0805 ECs_0806 ECs_0807 ECs_0808 ECs_0809 ECs_0814 ECs_0815 ECs_0818 ECs_0820 ECs_0822 ECs_0824 ECs_0825 ECs_0829 ECs_0830 ECs_0831 ECs_0832 ECs_0833 ECs_0834 ECs_0835 ECs_0836 ECs_0837 ECs_0838 ECs_0839 ECs_0841 ECs_0842 ECs_0843 ECs_0847 ECs_0848 ECs_0849 ECs_0850 ECs_0876 ECs_0940 ECs_0941 ECs_0942 ECs_0950 ECs_1016 ECs_1020 ECs_1055 ECs_1056 ECs_1058 ECs_1059 ECs_1061 ECs_1063 ECs_1064 ECs_1065 ECs_1067 ECs_1068 ECs_1069 ECs_1070 ECs_1071 ECs_1073 ECs_1074 ECs_1075 ECs_1076 ECs_1077 ECs_1079 ECs_1080 ECs_1082 ECs_1083 ECs_1084 ECs_1085 ECs_1087 ECs_1088 ECs_1090 ECs_1091 ECs_1092 ECs_1094 ECs_1096 ECs_1097 ECs_1106 ECs_1114 ECs_1115 ECs_1117 ECs_1118 ECs_1121 ECs_1122 ECs_1123 ECs_1143 ECs_1160 ECs_1161 ECs_1162 ECs_1163 ECs_1164 ECs_1166 ECs_1167 ECs_1168 ECs_1169 ECs_1172 ECs_1174 ECs_1175 ECs_1176 ECs_1177 ECs_1181 ECs_1185 ECs_1186 ECs_1187 ECs_1189 ECs_1192 ECs_1193 ECs_1195 ECs_1196 ECs_1199 ECs_1200 ECs_1201 ECs_1203 ECs_1205 ECs_1206 ECs_1211 ECs_1219 ECs_1220 ECs_1221 ECs_1222 ECs_1223 ECs_1224 ECs_1225 ECs_1226 ECs_1227 ECs_1230 ECs_1232 ECs_1233 ECs_1234 ECs_1235 ECs_1236 ECs_1237 ECs_1238 ECs_1239 ECs_1240 ECs_1241 ECs_1242 ECs_1246 ECs_1247 ECs_1248 ECs_1249 ECs_1251 ECs_1262 ECs_1267 ECs_1269 ECs_1270 ECs_1271 ECs_1272 ECs_1273 ECs_1274 ECs_1275 ECs_1276 ECs_1277 ECs_1278 ECs_1280 ECs_1282 ECs_1283 ECs_1297 ECs_1298 ECs_1299 ECs_1300 ECs_1302 ECs_1303 ECs_1304 ECs_1305 ECs_1312 ECs_1313 ECs_1316 ECs_1317 ECs_1319 ECs_1321 ECs_1322 ECs_1323 ECs_1324 ECs_1325 ECs_1326 ECs_1327 ECs_1330 ECs_1333 ECs_1336 ECs_1337 ECs_1338 ECs_1339 ECs_1340 ECs_1341 ECs_1342 ECs_1343 ECs_1344 ECs_1345 ECs_1346 ECs_1348 ECs_1349 ECs_1350 ECs_1351 ECs_1352 ECs_1353 ECs_1354 ECs_1355 ECs_1356 ECs_1358 ECs_1360 ECs_1362 ECs_1364 ECs_1365 ECs_1366 ECs_1370 ECs_1373 ECs_1374 ECs_1376 ECs_1377 ECs_1378 ECs_1380 ECs_1382 ECs_1386 ECs_1387 ECs_1389 ECs_1393 ECs_1394 ECs_1396 ECs_1397 ECs_1398 ECs_1399 ECs_1403 ECs_1404 ECs_1405 ECs_1407 ECs_1408 ECs_1501 ECs_1502 ECs_1504 ECs_1505 ECs_1506 ECs_1507 ECs_1508 ECs_1510 ECs_1511 ECs_1512 ECs_1513 ECs_1515 ECs_1516 ECs_1517 ECs_1518 ECs_1523 ECs_1524 ECs_1527 ECs_1528 ECs_1529 ECs_1530 ECs_1532 ECs_1534 ECs_1536 ECs_1538 ECs_1544 ECs_1552 ECs_1556 ECs_1557 ECs_1558 ECs_1560 ECs_1561 ECs_1563 ECs_1564 ECs_1565 ECs_1568 ECs_1574 ECs_1577 ECs_1578 ECs_1579 ECs_1581 ECs_1582 ECs_1586 ECs_1587 ECs_1588 ECs_1589 ECs_1590 ECs_1591 ECs_1592 ECs_1593 ECs_1594 ECs_1595 ECs_1597 ECs_1598 ECs_1599 ECs_1609 ECs_1610 ECs_1611 ECs_1612 ECs_1613 ECs_1614 ECs_1615 ECs_1616 ECs_1617 ECs_1618 ECs_1619 ECs_1620 ECs_1621 ECs_1622 ECs_1623 ECs_1625 ECs_1627 ECs_1629 ECs_1630 ECs_1637 ECs_1638 ECs_1639 ECs_1640 ECs_1641 ECs_1642 ECs_1643 ECs_1644 ECs_1645 ECs_1646 ECs_1647 ECs_1648 ECs_1649 ECs_1652 ECs_1656 ECs_1657 ECs_1662 ECs_1663 ECs_1664 ECs_1689 ECs_1693 ECs_1694 ECs_1696 ECs_1697 ECs_1698 ECs_1699 ECs_1757 ECs_1759 ECs_1762 ECs_1763 ECs_1765 ECs_1766 ECs_1767 ECs_1768 ECs_1769 ECs_1772 ECs_1774 ECs_1775 ECs_1776 ECs_1777 ECs_1779 ECs_1780 ECs_1781 ECs_1801 ECs_1803 ECs_1805 ECs_1806 ECs_1807 ECs_1808 ECs_1812 ECs_1814 ECs_1815 ECs_1816 ECs_1824 ECs_1825 ECs_1840 ECs_1862 ECs_1863 ECs_1864 ECs_1865 ECs_1866 ECs_1929 ECs_1930 ECs_1931 ECs_1933 ECs_1934 ECs_1935 ECs_1936 ECs_1937 ECs_1940 ECs_1941 ECs_1942 ECs_1943 ECs_1944 ECs_1945 ECs_1946 ECs_1948 ECs_1949 ECs_1950 ECs_1953 ECs_1956 ECs_1957 ECs_1958 ECs_1959 ECs_1963 ECs_1974 ECs_1975 ECs_1980 ECs_1982 ECs_1983 ECs_1984 ECs_1985 ECs_1986 ECs_1989 ECs_1991 ECs_1992 ECs_1993 ECs_1994 ECs_1995 ECs_1996 ECs_2006 ECs_2009 ECs_2010 ECs_2011 ECs_2017 ECs_2059 ECs_2060 ECs_2061 ECs_2064 ECs_2112 ECs_2113 ECs_2125 ECs_2146 ECs_2153 ECs_2154 ECs_2155 ECs_2156 ECs_2159 ECs_2164 ECs_2168 ECs_2170 ECs_2171 ECs_2172 ECs_2173 ECs_2174 ECs_2175 ECs_2176 ECs_2177 ECs_2178 ECs_2179 ECs_2180 ECs_2182 ECs_2183 ECs_2189 ECs_2190 ECs_2191 ECs_2192 ECs_2193 ECs_2195 ECs_2196 ECs_2197 ECs_2198 ECs_2199 ECs_2202 ECs_2203 ECs_2204 ECs_2205 ECs_2206 ECs_2207 ECs_2208 ECs_2209 ECs_2210 ECs_2211 ECs_2212 ECs_2214 ECs_2215 ECs_2221 ECs_2225 ECs_2230 ECs_2234 ECs_2235 ECs_2239 ECs_2240 ECs_2241 ECs_2242 ECs_2243 ECs_2244 ECs_2245 ECs_2246 ECs_2247 ECs_2248 ECs_2250 ECs_2251 ECs_2252 ECs_2254 ECs_2255 ECs_2261 ECs_2265 ECs_2268 ECs_2269 ECs_2271 ECs_2272 ECs_2273 ECs_2275 ECs_2276 ECs_2277 ECs_2278 ECs_2279 ECs_2283 ECs_2284 ECs_2285 ECs_2286 ECs_2287 ECs_2452 ECs_2468 ECs_2473 ECs_2479 ECs_2480 ECs_2482 ECs_2483 ECs_2484 ECs_2485 ECs_2510 ECs_2529 ECs_2587 ECs_2618 ECs_2619 ECs_2620 ECs_2621 ECs_2622 ECs_2623 ECs_2624 ECs_2625 ECs_2626 ECs_2627 ECs_2628 ECs_2629 ECs_2630 ECs_2631 ECs_2632 ECs_2633 ECs_2634 ECs_2635 ECs_2636 ECs_2637 ECs_2638 ECs_2639 ECs_2643 ECs_2644 ECs_2645 ECs_2646 ECs_2647 ECs_2671 ECs_2672 ECs_2674 ECs_2699 ECs_2712 ECs_2714 ECs_2715 ECs_2716 ECs_2718 ECs_2719 ECs_2725 ECs_2726 ECs_2727 ECs_2728 ECs_2729 ECs_2731 ECs_2732 ECs_2733 ECs_2734 ECs_2735 ECs_2736 ECs_2738 ECs_2740 ECs_2741 ECs_2742 ECs_2749 ECs_2751 ECs_2752 ECs_2754 ECs_2755 ECs_2756 ECs_2757 ECs_2759 ECs_2760 ECs_2761 ECs_2762 ECs_2763 ECs_2765 ECs_2766 ECs_2767 ECs_2768 ECs_2769 ECs_2770 ECs_2772 ECs_2773 ECs_2792 ECs_2794 ECs_2796 ECs_2797 ECs_2799 ECs_2800 ECs_2801 ECs_2802 ECs_2804 ECs_2805 ECs_2806 ECs_2807 ECs_2808 ECs_2831 ECs_2836 ECs_2841 ECs_2843 ECs_2845 ECs_2847 ECs_2856 ECs_2869 ECs_2870 ECs_2908 ECs_2909 ECs_2931 ECs_2939 ECs_2940 ECs_2941 ECs_2942 ECs_2943 ECs_2944 ECs_2945 ECs_2946 ECs_2947 ECs_2948 ECs_2949 ECs_2950 ECs_2951 ECs_2952 ECs_2953 ECs_2954 ECs_2955 ECs_2956 ECs_2961 ECs_2962 ECs_2963 ECs_2964 ECs_2965 ECs_2967 ECs_2968 ECs_2970 ECs_2971 ECs_2972 ECs_2973 ECs_2974 ECs_2976 ECs_2977 ECs_2978 ECs_2979 ECs_2980 ECs_2981 ECs_2984 ECs_2985 ECs_2987 ECs_2988 ECs_2989 ECs_2990 ECs_2993 ECs_2995 ECs_2996 ECs_2997 ECs_3001 ECs_3003 ECs_3005 ECs_3006 ECs_3007 ECs_3009 ECs_3010 ECs_3011 ECs_3012 ECs_3013 ECs_3027 ECs_3028 ECs_3029 ECs_3030 ECs_3031 ECs_3032 ECs_3056 ECs_3057 ECs_3123 ECs_3129 ECs_3136 ECs_3219 ECs_3231 ECs_3232 ECs_3233 ECs_3240 ECs_3241 ECs_3242 ECs_3243 ECs_3244 ECs_3276 ECs_3277 ECs_3279 ECs_3408 ECs_3410 ECs_3412 ECs_3483 ECs_3485 ECs_3486 ECs_3487 ECs_3489 ECs_3495 ECs_3496 ECs_3497 ECs_3498 ECs_3500 ECs_3501 ECs_3502 ECs_3503 ECs_3504 ECs_3505 ECs_3506 ECs_3507 ECs_3508 ECs_3509 ECs_3510 ECs_3511 ECs_3512 ECs_3513 ECs_3514 ECs_3517 ECs_3534 ECs_3535 ECs_3591 ECs_3592 ECs_3593 ECs_3594 ECs_3608 ECs_3609 ECs_3610 ECs_3611 ECs_3612 ECs_3613 ECs_3614 ECs_3615 ECs_3635 ECs_3637 ECs_3704 ECs_3705 ECs_3706 ECs_3707 ECs_3708 ECs_3709 ECs_3710 ECs_3712 ECs_3715 ECs_3716 ECs_3717 ECs_3718 ECs_3719 ECs_3720 ECs_3721 ECs_3722 ECs_3724 ECs_3725 ECs_3726 ECs_3727 ECs_3729 ECs_3730 ECs_3731 ECs_3732 ECs_3733 ECs_3734 ECs_3735 ECs_3737 ECs_3799 ECs_3801 ECs_3802 ECs_3803 ECs_3813 ECs_3846 ECs_3847 ECs_3850 ECs_3855 ECs_3857 ECs_3858 ECs_3866 ECs_3868 ECs_3869 ECs_3904 ECs_3912 ECs_3913 ECs_3914 ECs_3915 ECs_3916 ECs_3917 ECs_3937 ECs_3965 ECs_4001 ECs_4020 ECs_4021 ECs_4022 ECs_4157 ECs_4190 ECs_4222 ECs_4223 ECs_4225 ECs_4261 ECs_4262 ECs_4280 ECs_4300 ECs_4307 ECs_4308 ECs_4324 ECs_4325 ECs_4326 ECs_4327 ECs_4328 ECs_4329 ECs_4330 ECs_4331 ECs_4332 ECs_4333 ECs_4334 ECs_4335 ECs_4336 ECs_4337 ECs_4338 ECs_4339 ECs_4340 ECs_4341 ECs_4349 ECs_4350 ECs_4351 ECs_4352 ECs_4353 ECs_4354 ECs_4355 ECs_4356 ECs_4357 ECs_4373 ECs_4374 ECs_4379 ECs_4380 ECs_4382 ECs_4383 ECs_4384 ECs_4385 ECs_4386 ECs_4387 ECs_4415 ECs_4426 ECs_4427 ECs_4430 ECs_4431 ECs_4457 ECs_4458 ECs_4459 ECs_4460 ECs_4461 ECs_4462 ECs_4465 ECs_4470 ECs_4471 ECs_4479 ECs_4480 ECs_4496 ECs_4500 ECs_4501 ECs_4528 ECs_4534 ECs_4535 ECs_4537 ECs_4539 ECs_4540 ECs_4545 ECs_4546 ECs_4547 ECs_4550 ECs_4551 ECs_4552 ECs_4553 ECs_4554 ECs_4555 ECs_4556 ECs_4557 ECs_4558 ECs_4559 ECs_4560 ECs_4561 ECs_4562 ECs_4563 ECs_4564 ECs_4565 ECs_4567 ECs_4568 ECs_4569 ECs_4570 ECs_4571 ECs_4572 ECs_4573 ECs_4574 ECs_4575 ECs_4576 ECs_4577 ECs_4578 ECs_4580 ECs_4581 ECs_4582 ECs_4583 ECs_4584 ECs_4585 ECs_4586 ECs_4587 ECs_4588 ECs_4590 ECs_4591 ECs_4592 ECs_4597 ECs_4598 ECs_4607 ECs_4609 ECs_4618 ECs_4653 ECs_4665 ECs_4667 ECs_4670 ECs_4744 ECs_4747 ECs_4748 ECs_4795 ECs_4797 ECs_4799 ECs_4800 ECs_4801 ECs_4802 ECs_4803 ECs_4813 ECs_4827 ECs_4854 ECs_4855 ECs_4864 ECs_4892 ECs_4893 ECs_4903 ECs_4912 ECs_4941 ECs_4945 ECs_4946 ECs_4947 ECs_4948 ECs_4950 ECs_4951 ECs_4952 ECs_4954 ECs_4955 ECs_4956 ECs_4957 ECs_4960 ECs_4961 ECs_4962 ECs_4963 ECs_4965 ECs_4966 ECs_4967 ECs_4968 ECs_4969 ECs_4970 ECs_4971 ECs_4972 ECs_4973 ECs_4974 ECs_4975 ECs_4976 ECs_4977 ECs_4978 ECs_4979 ECs_4980 ECs_4981 ECs_4982 ECs_4983 ECs_4984 ECs_4985 ECs_4986 ECs_4987 ECs_4988 ECs_4989 ECs_4990 ECs_4992 ECs_4995 ECs_4998 ECs_5000 ECs_5001 ECs_5002 ECs_5003 ECs_5004 ECs_5063 ECs_5067 ECs_5068 ECs_5069 ECs_5070 ECs_5071 ECs_5072 ECs_5073 ECs_5074 ECs_5075 ECs_5079 ECs_5082 ECs_5180 ECs_5182 ECs_5183 ECs_5193 ECs_5202 ECs_5203 ECs_5242 ECs_5243 ECs_5244 ECs_5246 ECs_5248 ECs_5249 ECs_5252 ECs_5254 ECs_5256 ECs_5257 ECs_5258 ECs_5259 ECs_5260 ECs_5261 ECs_5262 ECs_5263 ECs_5264 ECs_5266 ECs_5271 ECs_5280 ECs_5295 ECs_5301 ECs_5302 ECs_5303 ECs_5305 ECs_5306 ECs_5307 ECs_5308 ECs_5310 ECs_5316 ECs_5377 ECs_5399 ECs_5400 ECs_5414 ECs_5415 ECs_5418 ECs_5451 ECs_5700 ECs_5703 ECs_5709 ECs_5711 ECs_5714 ECs_5715 ECs_5717 ECs_5718 ECs_5719 ECs_5726 ECs_5728 ECs_5730 ECs_5731 ECs_5734 ECs_5735 ECs_5738 ECs_5740 ECs_5741 ECs_5742 ECs_5743 ECs_5764 ECs_5766 ECs_5773 ECs_5779 ECs_5781
feature_infos=[0:1] [0:1] [0:1] [0:1] [0:1] [0:1] [0:1] [0:1] [0:1] [0:1] [0:1] [0:1] [0:1] [0:1] [0:1] [0:1] [0:1] [0:1] [0:1] [0:1] [0:1] [0:1] [0:1] [0:1] [0:1] [0:1] [0:1] [0:1] [0:1] [0:1] [0:1] [0:1] [0:1] [0:1] [0:1] [0:1] [0:1] [0:1] [0:1] [0:1] [0:1] [0:1] [0:1] [0:1] [0:1] [0:1] [0:1] [0:1] [0:1] [0:1] [0:1] [0:1] [0:1] [0:1] [0:1] [0:1] [0:1] [0:1] [0:1] [0:1] [0:1] [0:1] [0:1] [0:1] [0:1] [0:1] [0:1] [0:1] [0:1] [0:1] [0:1] [0:1] [0:1] [0:1] [0:1] [0:1] [0:1] [0:1] [0:1] [0:1] [0:1] [0:1] [0:1] [0:1] [0:1] [0:1] [0:1] [0:1] [0:1] [0:1] [0:1] [0:1] [0:1] [0:1] [0:1] [0:1] [0:1] [0:1] [0:1] [0:1] [0:1] [0:1] [0:1] [0:1] [0:1] [0:1] [0:1] [0:1] [0:1] [0:1] [0:1] [0:1] [0:1] [0:1] [0:1] [0:1] [0:1] [0:1] [0:1] [0:1] [0:1] [0:1] [0:1] [0:1] [0:1] [0:1] [0:1] [0:1] [0:1] [0:1] [0:1] [0:1] [0:1] [0:1] [0:1] [0:1] [0:1] [0:1] [0:1] [0:1] [0:1] [0:1] [0:1] [0:1] [0:1] [0:1] [0:1] [0:1] [0:1] [0:1] [0:1] [0:1] [0:1] [0:1] [0:1] [0:1] [0:1] [0:1] [0:1] [0:1] [0:1] [0:1] [0:1] [0:1] [0:1] [0:1] [0:1] [0:1] [0:1] [0:1] [0:1] [0:1] [0:1] [0:1] [0:1] [0:1] [0:1] [0:1] [0:1] [0:1] [0:1] [0:1] [0:1] [0:1] [0:1] [0:1] [0:1] [0:1] [0:1] [0:1] [0:1] [0:1] [0:1] [0:1] [0:1] [0:1] [0:1] [0:1] [0:1] [0:1] [0:1] [0:1] [0:1] [0:1] [0:1] [0:1] [0:1] [0:1] [0:1] [0:1] [0:1] [0:1] [0:1] [0:1] [0:1] [0:1] [0:1] [0:1] [0:1] [0:1] [0:1] [0:1] [0:1] [0:1] [0:1] [0:1] [0:1] [0:1] [0:1] [0:1] [0:1] [0:1] [0:1] [0:1] [0:1] [0:1] [0:1] [0:1] [0:1] [0:1] [0:1] [0:1] [0:1] [0:1] [0:1] [0:1] [0:1] [0:1] [0:1] [0:1] [0:1] [0:1] [0:1] [0:1] [0:1] [0:1] [0:1] [0:1] [0:1] [0:1] [0:1] [0:1] [0:1] [0:1] [0:1] [0:1] [0:1] [0:1] [0:1] [0:1] [0:1] [0:1] [0:1] [0:1] [0:1] [0:1] [0:1] [0:1] [0:1] [0:1] [0:1] [0:1] [0:1] [0:1] [0:1] [0:1] [0:1] [0:1] [0:1] [0:1] [0:1] [0:1] [0:1] [0:1] [0:1] [0:1] [0:1] [0:1] [0:1] [0:1] [0:1] [0:1] [0:1] [0:1] [0:1] [0:1] [0:1] [0:1] [0:1] [0:1] [0:1] [0:1] [0:1] [0:1] [0:1] [0:1] [0:1] [0:1] [0:1] [0:1] [0:1] [0:1] [0:1] [0:1] [0:1] [0:1] [0:1] [0:1] [0:1] [0:1] [0:1] [0:1] [0:1] [0:1] [0:1] [0:1] [0:1] [0:1] [0:1] [0:1] [0:1] [0:1] [0:1] [0:1] [0:1] [0:1] [0:1] [0:1] [0:1] [0:1] [0:1] [0:1] [0:1] [0:1] [0:1] [0:1] [0:1] [0:1] [0:1] [0:1] [0:1] [0:1] [0:1] [0:1] [0:1] [0:1] [0:1] [0:1] [0:1] [0:1] [0:1] [0:1] [0:1] [0:1] [0:1] [0:1] [0:1] [0:1] [0:1] [0:1] [0:1] [0:1] [0:1] [0:1] [0:1] [0:1] [0:1] [0:1] [0:1] [0:1] [0:1] [0:1] [0:1] [0:1] [0:1] [0:1] [0:1] [0:1] [0:1] [0:1] [0:1] [0:1] [0:1] [0:1] [0:1] [0:1] [0:1] [0:1] [0:1] [0:1] [0:1] [0:1] [0:1] [0:1] [0:1] [0:1] [0:1] [0:1] [0:1] [0:1] [0:1] [0:1] [0:1] [0:1] [0:1] [0:1] [0:1] [0:1] [0:1] [0:1] [0:1] [0:1] [0:1] [0:1] [0:1] [0:1] [0:1] [0:1] [0:1] [0:1] [0:1] [0:1] [0:1] [0:1] [0:1] [0:1] [0:1] [0:1] [0:1] [0:1] [0:1] [0:1] [0:1] [0:1] [0:1] [0:1] [0:1] [0:1] [0:1] [0:1] [0:1] [0:1] [0:1] [0:1] [0:1] [0:1] [0:1] [0:1] [0:1] [0:1] [0:1] [0:1] [0:1] [0:1] [0:1] [0:1] [0:1] [0:1] [0:1] [0:1] [0:1] [0:1] [0:1] [0:1] [0:1] [0:1] [0:1] [0:1] [0:1] [0:1] [0:1] [0:1] [0:1] [0:1] [0:1] [0:1] [0:1] [0:1] [0:1] [0:1] [0:1] [0:1] [0:1] [0:1] [0:1] [0:1] [0:1] [0:1] [0:1] [0:1] [0:1] [0:1] [0:1] [0:1] [0:1] [0:1] [0:1] [0:1] [0:1] [0:1] [0:1] [0:1] [0:1] [0:1] [0:1] [0:1] [0:1] [0:1] [0:1] [0:1] [0:1] [0:1] [0:1] [0:1] [0:1] [0:1] [0:1] [0:1] [0:1] [0:1] [0:1] [0:1] [0:1] [0:1] [0:1] [0:1] [0:1] [0:1] [0:1] [0:1] [0:1] [0:1] [0:1] [0:1] [0:1] [0:1] [0:1] [0:1] [0:1] [0:1] [0:1] [0:1] [0:1] [0:1] [0:1] [0:1] [0:1] [0:1] [0:1] [0:1] [0:1] [0:1] [0:1] [0:1] [0:1] [0:1] [0:1] [0:1] [0:1] [0:1] [0:1] [0:1] [0:1] [0:1] [0:1] [0:1] [0:1] [0:1] [0:1] [0:1] [0:1] [0:1] [0:1] [0:1] [0:1] [0:1] [0:1] [0:1] [0:1] [0:1] [0:1] [0:1] [0:1] [0:1] [0:1] [0:1] [0:1] [0:1] [0:1] [0:1] [0:1] [0:1] [0:1] [0:1] [0:1] [0:1] [0:1] [0:1] [0:1] [0:1] [0:1] [0:1] [0:1] [0:1] [0:1] [0:1] [0:1] [0:1] [0:1] [0:1] [0:1] [0:1] [0:1] [0:1] [0:1] [0:1] [0:1] [0:1] [0:1] [0:1] [0:1] [0:1] [0:1] [0:1] [0:1] [0:1] [0:1] [0:1] [0:1] [0:1] [0:1] [0:1] [0:1] [0:1] [0:1] [0:1] [0:1] [0:1] [0:1] [0:1] [0:1] [0:1] [0:1] [0:1] [0:1] [0:1] [0:1] [0:1] [0:1] [0:1] [0:1] [0:1] [0:1] [0:1] [0:1] [0:1] [0:1] [0:1] [0:1] [0:1] [0:1] [0:1] [0:1] [0:1] [0:1] [0:1] [0:1] [0:1] [0:1] [0:1] [0:1] [0:1] [0:1] [0:1] [0:1] [0:1] [0:1] [0:1] [0:1] [0:1] [0:1] [0:1] [0:1] [0:1] [0:1] [0:1] [0:1] [0:1] [0:1] [0:1] [0:1] [0:1] [0:1] [0:1] [0:1] [0:1] [0:1] [0:1] [0:1] [0:1] [0:1] [0:1] [0:1] [0:1] [0:1] [0:1] [0:1] [0:1] [0:1] [0:1] [0:1] [0:1] [0:1] [0:1] [0:1] [0:1] [0:1] [0:1] [0:1] [0:1] [0:1] [0:1] [0:1] [0:1] [0:1] [0:1] [0:1] [0:1] [0:1] [0:1] [0:1] [0:1] [0:1] [0:1] [0:1] [0:1] [0:1] [0:1] [0:1] [0:1] [0:1] [0:1] [0:1] [0:1] [0:1] [0:1] [0:1] [0:1] [0:1] [0:1] [0:1] [0:1] [0:1] [0:1] [0:1] [0:1] [0:1] [0:1] [0:1] [0:1] [0:1] [0:1] [0:1] [0:1] [0:1] [0:1] [0:1] [0:1] [0:1] [0:1] [0:1] [0:1] [0:1] [0:1] [0:1] [0:1] [0:1] [0:1] [0:1] [0:1] [0:1] [0:1] [0:1] [0:1] [0:1] [0:1] [0:1] [0:1] [0:1] [0:1] [0:1] [0:1] [0:1] [0:1] [0:1] [0:1] [0:1] [0:1] [0:1] [0:1] [0:1] [0:1] [0:1] [0:1] [0:1] [0:1] [0:1] [0:1] [0:1] [0:1] [0:1] [0:1] [0:1] [0:1] [0:1] [0:1] [0:1] [0:1] [0:1] [0:1] [0:1] [0:1] [0:1] [0:1] [0:1] [0:1] [0:1] [0:1] [0:1] [0:1] [0:1] [0:1] [0:1] [0:1] [0:1] [0:1] [0:1] [0:1] [0:1] [0:1] [0:1] [0:1] [0:1] [0:1] [0:1] [0:1] [0:1] [0:1] [0:1] [0:1] [0:1] [0:1] [0:1] [0:1] [0:1] [0:1] [0:1] [0:1] [0:1] [0:1] [0:1] [0:1] [0:1] [0:1] [0:1] [0:1] [0:1] [0:1] [0:1] [0:1] [0:1] [0:1] [0:1] [0:1] [0:1] [0:1] [0:1] [0:1] [0:1] [0:1] [0:1] [0:1] [0:1] [0:1] [0:1] [0:1] [0:1] [0:1] [0:1] [0:1] [0:1] [0:1] [0:1] [0:1] [0:1] [0:1] [0:1] [0:1] [0:1] [0:1] [0:1] [0:1] [0:1] [0:1] [0:1] [0:1] [0:1] [0:1] [0:1] [0:1] [0:1] [0:1] [0:1] [0:1] [0:1] [0:1] [0:1] [0:1] [0:1] [0:1] [0:1] [0:1] [0:1] [0:1] [0:1] [0:1] [0:1] [0:1] [0:1] [0:1] [0:1] [0:1] [0:1] [0:1] [0:1] [0:1] [0:1] [0:1] [0:1] [0:1] [0:1] [0:1] [0:1] [0:1] [0:1] [0:1] [0:1] [0:1] [0:1] [0:1] [0:1] [0:1] [0:1] [0:1] [0:1] [0:1] [0:1] [0:1] [0:1] [0:1] [0:1] [0:1] [0:1] [0:1] [0:1] [0:1] [0:1] [0:1] [0:1] [0:1] [0:1] [0:1] [0:1] [0:1] [0:1] [0:1] [0:1] [0:1] [0:1] [0:1] [0:1] [0:1] [0:1] [0:1] [0:1] [0:1] [0:1] [0:1] [0:1] [0:1] [0:1] [0:1] [0:1] [0:1] [0:1] [0:1] [0:1] [0:1] [0:1] [0:1] [0:1] [0:1] [0:1] [0:1] [0:1] [0:1] [0:1] [0:1] [0:1] [0:1] [0:1] [0:1] [0:1] [0:1] [0:1] [0:1] [0:1] [0:1] [0:1] [0:1] [0:1] [0:1] [0:1] [0:1] [0:1] [0:1] [0:1] [0:1] [0:1] [0:1] [0:1] [0:1] [0:1] [0:1] [0:1] [0:1] [0:1] [0:1] [0:1] [0:1] [0:1] [0:1] [0:1] [0:1] [0:1] [0:1] [0:1] [0:1] [0:1] [0:1] [0:1] [0:1] [0:1] [0:1] [0:1] [0:1] [0:1] [0:1] [0:1] [0:1] [0:1] [0:1] [0:1] [0:1] [0:1] [0:1] [0:1] [0:1] [0:1] [0:1] [0:1] [0:1] [0:1] [0:1] [0:1] [0:1] [0:1] [0:1] [0:1] [0:1] [0:1] [0:1] [0:1] [0:1] [0:1] [0:1] [0:1] [0:1] [0:1] [0:1] [0:1] [0:1] [0:1] [0:1] [0:1] [0:1] [0:1] [0:1] [0:1] [0:1] [0:1] [0:1] [0:1] [0:1] [0:1] [0:1] [0:1] [0:1] [0:1] [0:1] [0:1] [0:1] [0:1] [0:1] [0:1] [0:1] [0:1] [0:1] [0:1] [0:1] [0:1] [0:1] [0:1] [0:1] [0:1] [0:1] [0:1] [0:1] [0:1] [0:1] [0:1] [0:1] [0:1] [0:1] [0:1] [0:1] [0:1] [0:1] [0:1] [0:1] [0:1] [0:1] [0:1] [0:1] [0:1] [0:1] [0:1] [0:1] [0:1] [0:1] [0:1] [0:1] [0:1] [0:1] [0:1] [0:1] [0:1] [0:1]
tree_sizes=578 661 910 1071 1076 829 989 910 909 995 997 832 759 922 1175 590 1087 844 845 594 682

Tree=0
num_leaves=6
num_cat=0
split_feature=985 294 696 323 263
split_gain=857.713 132.086 58.0279 6.00102 0.443308
threshold=1.0000000180025095e-35 1.0000000180025095e-35 1.0000000180025095e-35 1.0000000180025095e-35 1.0000000180025095e-35
decision_type=2 2 2 2 2
left_child=-1 2 -2 -3 -5
right_child=1 3 -4 4 -6
leaf_value=-1.0456712635155707 -0.93528249054060575 0.43597055354211223 0.18232067392209361 0.61421958171133351 0.69209390926038838
leaf_count=591 63 95 75 67 303
internal_value=0 1.69844 -0.0405769 2.21453 2.3311
internal_count=1194 603 138 465 370
shrinkage=1


Tree=1
num_leaves=7
num_cat=0
split_feature=998 169 374 695 881 531
split_gain=356.328 50.5892 14.921 2.73457 0.65005 0.0326369
threshold=1.0000000180025095e-35 1.0000000180025095e-35 1.0000000180025095e-35 1.0000000180025095e-35 1.0000000180025095e-35 1.0000000180025095e-35
decision_type=2 2 2 2 2 2
left_child=-1 -2 -3 4 -4 -6
right_child=1 2 3 -5 5 -7
leaf_value=-0.57318656536668766 -0.16902061683325953 0.22375820566642787 0.72376410998828056 0.50902061613047311 0.64561399160070798 0.61992986645682613
leaf_count=590 95 90 101 121 130 67
internal_value=0 1.045 1.30114 1.46715 1.57432 1.50182
internal_count=1194 604 509 419 298 197
shrinkage=0.424131


Tree=2
num_leaves=10
num_cat=0
split_feature=477 323 237 267 579 774 603 383 1101
split_gain=236.037 24.0353 36.1118 0.734294 0.463919 0.411347 0.360115 0.0878447 0.00513457
threshold=1.0000000180025095e-35 1.0000000180025095e-35 1.0000000180025095e-35 1.0000000180025095e-35 1.0000000180025095e-35 1.0000000180025095e-35 1.0000000180025095e-35 1.0000000180025095e-35 1.0000000180025095e-35
decision_type=2 2 2 2 2 2 2 2 2
left_child=4 2 -2 7 5 8 -5 -3 -1
right_child=1 3 -4 6 -6 -7 -8 -9 -10
leaf_value=-0.50901535134421827 -0.28859903368971651 0.58429442692676781 0.60318907799547039 0.45271435351156508 -0.44371005878357339 -0.5881968812714311 0.54413009311927785 0.62987292885324386 -0.52038872566196048
leaf_count=351 86 86 76 61 99 100 168 75 92
internal_value=0 0.987712 0.281415 1.31555 -1.21242 -1.2429 1.22413 1.42927 -1.20588
internal_count=1194 552 162 390 642 543 229 161 443
shrinkage=0.424131


Tree=3
num_leaves=12
num_cat=0
split_feature=382 582 236 603 585 749 325 502 175 504 674
split_gain=142.616 35.5147 5.01265 4.55427 2.02725 1.45016 0.399926 0.302702 0.0187871 0.0163998 0.0143943
threshold=1.0000000180025095e-35 1.0000000180025095e-35 1.0000000180025095e-35 1.0000000180025095e-35 1.0000000180025095e-35 1.0000000180025095e-35 1.0000000180025095e-35 1.0000000180025095e-35 1.0000000180025095e-35 1.0000000180025095e-35 1.0000000180025095e-35
decision_type=2 2 2 2 2 2 2 2 2 2 2
left_child=1 2 4 -4 7 -2 -7 10 9 -8 -1
right_child=5 -3 3 -5 -6 6 8 -9 -10 -11 -12
leaf_value=-0.47520183834178364 0.34828315091405615 0.35602387440228994 -0.475929867964964 -0.0083166558457172749 -0.63966335894442772 0.59382917737932772 0.52934731472920993 -0.38304299395520508 0.49591309655537569 0.50293598251901372 -0.49561519745334037
leaf_count=307 67 69 76 66 108 81 71 65 127 71 86
internal_value=0 -0.840136 -1.08081 -0.561905 -1.20655 1.18437 1.25375 -1.09775 1.19689 1.21876 -1.13215
internal_count=1194 777 708 142 566 417 350 458 269 142 393
shrinkage=0.424131


Tree=4
num_leaves=12
num_cat=0
split_feature=885 285 237 1105 712 222 62 80 889 544 463
split_gain=82.9127 10.3799 12.6227 6.92512 1.14153 0.357013 0.256443 0.0768678 0.0839726 0.0416116 0.000598814
threshold=1.0000000180025095e-35 1.0000000180025095e-35 1.0000000180025095e-35 1.0000000180025095e-35 1.0000000180025095e-35 1.0000000180025095e-35 1.0000000180025095e-35 1.0000000180025095e-35 1.0000000180025095e-35 1.0000000180025095e-35 1.0000000180025095e-35
decision_type=2 2 2 2 2 2 2 2 2 2 2
left_child=3 2 -2 5 -3 6 -1 8 -6 10 -8
right_child=1 4 -4 -5 7 -7 9 -9 -10 -11 -12
leaf_value=-0.35573510686753662 -0.23793294515121313 0.31678912004208404 0.49906419806200797 0.043526421145622059 0.48257028527566792 -0.56418109474045408 -0.45657225044816241 0.45737556628300852 0.53741730674327082 -0.49686705048157709 -0.46530742318682644
leaf_count=61 71 79 63 65 136 66 277 111 62 80 123
internal_value=0 0.784525 0.139151 -0.980727 1.06493 -1.10952 -1.07282 1.15481 1.18794 -1.10179 -1.08328
internal_count=1194 522 134 672 388 607 541 309 198 480 400
shrinkage=0.424131


Tree=5
num_leaves=9
num_cat=0
split_feature=886 754 1104 159 326 976 742 816
split_gain=54.2648 13.0415 16.2129 0.850071 0.460572 0.382165 0.18981 0.0149144
threshold=1.0000000180025095e-35 1.0000000180025095e-35 1.0000000180025095e-35 1.0000000180025095e-35 1.0000000180025095e-35 1.0000000180025095e-35 1.0000000180025095e-35 1.0000000180025095e-35
decision_type=2 2 2 2 2 2 2 2
left_child=4 2 -2 -4 6 -3 -1 -7
right_child=1 5 3 -5 -6 7 -8 -9
leaf_value=-0.44822690449266017 -0.29863078440855417 0.59103460329885538 0.26849355454366808 0.47474090717592055 -0.30999998870439072 0.46227322893557682 -0.54485135970733456 0.49318884242031974
leaf_count=494 100 64 99 105 79 128 62 63
internal_value=0 0.643192 0.167805 0.878949 -1.04696 1.21714 -1.09332 1.11643
internal_count=1194 559 304 204 635 255 556 191
shrinkage=0.424131


Tree=6
num_leaves=11
num_cat=0
split_feature=382 1172 741 187 950 1031 595 413 336 8
split_gain=35.7026 6.31951 5.95858 3.10903 1.30058 3.08696 0.376867 0.137859 0.0432882 0.00534343
threshold=1.0000000180025095e-35 1.0000000180025095e-35 1.0000000180025095e-35 1.0000000180025095e-35 1.0000000180025095e-35 1.0000000180025095e-35 1.0000000180025095e-35 1.0000000180025095e-35 1.0000000180025095e-35 1.0000000180025095e-35
decision_type=2 2 2 2 2 2 2 2 2 2
left_child=1 4 7 8 6 9 -1 -3 -2 -6
right_child=3 2 -4 -5 5 -7 -8 -9 -10 -11
leaf_value=-0.43964151824065761 0.49641077809133966 -0.47090515714887232 0.15692596199601555 0.024571960546424205 -0.46682340471266198 0.044476791078669108 -0.6017075443612615 -0.3341583873511933 0.45305677883188 -0.44045490343972388
leaf_count=165 90 63 111 63 67 61 70 62 264 178
internal_value=0 -0.635705 -0.123019 0.951181 -0.97458 -0.74281 -1.23111 -0.957767 1.101 -1.0592
internal_count=1194 777 236 417 541 306 235 125 354 245
shrinkage=0.424131


Tree=7
num_leaves=10
num_cat=0
split_feature=473 950 141 604 92 591 222 335 595
split_gain=26.9659 4.92892 6.30148 1.80765 0.16189 0.157443 0.109408 0.0319787 0.000760528
threshold=1.0000000180025095e-35 1.0000000180025095e-35 1.0000000180025095e-35 1.0000000180025095e-35 1.0000000180025095e-35 1.0000000180025095e-35 1.0000000180025095e-35 1.0000000180025095e-35 1.0000000180025095e-35
decision_type=2 2 2 2 2 2 2 2 2
left_child=4 2 -2 -3 6 -5 8 -7 -1
right_child=1 3 -4 5 -6 7 -8 -9 -10
leaf_value=-0.43522420748835128 0.30849133071599677 0.13062977581533119 -0.36214355595273495 0.35599414971126425 -0.32084108371162595 0.49552598077126281 -0.53030527242695658 0.4469571065559938 -0.44972526816255698
leaf_count=399 78 70 74 77 66 63 69 192 106
internal_value=0 0.563114 0.00185356 0.867292 -1.0448 1.03996 -1.07947 1.09535 -1.03469
internal_count=1194 554 152 402 640 332 574 255 505
shrinkage=0.424131


Tree=8
num_leaves=10
num_cat=0
split_feature=752 381 749 418 285 362 760 721 331
split_gain=13.3659 6.58896 3.25242 3.23076 2.11761 0.84877 0.700037 0.00412293 0.00396795
threshold=1.0000000180025095e-35 1.0000000180025095e-35 1.0000000180025095e-35 1.0000000180025095e-35 1.0000000180025095e-35 1.0000000180025095e-35 1.0000000180025095e-35 1.0000000180025095e-35 1.0000000180025095e-35
decision_type=2 2 2 2 2 2 2 2 2
left_child=2 3 6 -2 -5 -3 7 -1 -7
right_child=1 5 -4 4 -6 8 -8 -9 -10
leaf_value=-0.4355472005983449 -0.42717095892194995 0.18181823931042471 0.07734044771948291 -0.10981167573399142 0.34042906261983669 0.45752748324783682 -0.70939660873196952 -0.39969657374729922 0.43670196659404453
leaf_count=377 77 64 89 71 63 96 62 66 229
internal_value=0 0.417861 -0.904863 -0.154084 0.195933 0.91083 -1.1684 -1.01584 1.05122
internal_count=1194 600 594 211 134 389 505 443 325
shrinkage=0.424131


Tree=9
num_leaves=11
num_cat=0
split_feature=887 488 613 952 528 688 404 337 330 543
split_gain=13.1355 3.55012 4.25225 0.922122 0.730514 0.128075 0.0591874 0.0385699 0.0178689 0.0130973
threshold=1.0000000180025095e-35 1.0000000180025095e-35 1.0000000180025095e-35 1.0000000180025095e-35 1.0000000180025095e-35 1.0000000180025095e-35 1.0000000180025095e-35 1.0000000180025095e-35 1.0000000180025095e-35 1.0000000180025095e-35
decision_type=2 2 2 2 2 2 2 2 2 2
left_child=3 2 4 -1 -2 9 8 -8 -5 -3
right_child=1 5 -4 6 -6 -7 7 -9 -10 -11
leaf_value=-0.01764354464201142 0.18624402271470503 0.46957150728354968 -0.25057822802168284 -0.43195173255508273 0.51375625970640038 0.3152046524762448 -0.520950056718265 -0.43337260240852099 -0.35354060806928339 0.42808460592767661
leaf_count=62 106 85 79 328 61 88 95 107 64 119
internal_value=0 0.491128 0.101028 -0.968842 0.704931 0.995533 -1.07512 -1.15885 -0.988287 1.06069
internal_count=1194 538 246 656 167 292 594 202 392 204
shrinkage=0.424131


Tree=10
num_leaves=11
num_cat=0
split_feature=596 950 755 501 760 528 748 504 564 812
split_gain=9.46788 3.86989 2.57419 0.65104 0.196689 0.133286 0.0825354 0.00636871 0.00444012 0.000897395
threshold=1.0000000180025095e-35 1.0000000180025095e-35 1.0000000180025095e-35 1.0000000180025095e-35 1.0000000180025095e-35 1.0000000180025095e-35 1.0000000180025095e-35 1.0000000180025095e-35 1.0000000180025095e-35 1.0000000180025095e-35
decision_type=2 2 2 2 2 2 2 2 2 2
left_child=3 2 -2 5 -3 6 -1 9 -9 -6
right_child=1 4 -4 -5 7 -7 -8 8 -10 -11
leaf_value=-0.43408573890937169 -0.19757762032237838 0.2716657077348959 0.38691613057464347 -0.1356542292769605 0.40407013452744905 -0.24635025145098793 -0.54204370577778449 0.4681016779120169 0.43402799709578077 0.43440761656225058
leaf_count=380 96 81 71 90 72 69 100 67 100 68
internal_value=0 0.468112 -0.0816896 -0.945475 0.962697 -1.09212 -1.13781 1.04466 1.07029 0.991742
internal_count=1194 555 167 639 388 549 480 307 167 140
shrinkage=0.424131


Tree=11
num_leaves=9
num_cat=0
split_feature=887 755 457 811 327 466 597 422
split_gain=5.97484 2.33594 3.28571 1.02665 0.514466 0.421707 0.0108071 0.0039287
threshold=1.0000000180025095e-35 1.0000000180025095e-35 1.0000000180025095e-35 1.0000000180025095e-35 1.0000000180025095e-35 1.0000000180025095e-35 1.0000000180025095e-35 1.0000000180025095e-35
decision_type=2 2 2 2 2 2 2 2
left_child=4 2 3 -2 6 -5 -1 -3
right_child=1 7 -4 5 -6 -7 -8 -9
leaf_value=-0.42664215278092521 -0.03806902549129218 0.46430950503119178 -0.33717580655879048 0.17746660302464809 -0.11003503532562932 0.47341239117866812 -0.47389538049761648 0.43083634581176944
leaf_count=458 62 80 62 75 96 89 102 170
internal_value=0 0.395538 0.0958203 0.549973 -0.90074 0.848255 -1.05855 1.05593
internal_count=1194 538 288 226 656 164 560 250
shrinkage=0.424131


Tree=12
num_leaves=8
num_cat=0
split_feature=382 187 597 61 1090 772 1070
split_gain=3.57538 1.52189 1.26883 1.36897 0.626523 0.268658 0.0152786
threshold=1.0000000180025095e-35 1.0000000180025095e-35 1.0000000180025095e-35 1.0000000180025095e-35 1.0000000180025095e-35 1.0000000180025095e-35 1.0000000180025095e-35
decision_type=2 2 2 2 2 2 2
left_child=2 -2 6 -4 5 -5 -1
right_child=1 -3 3 4 -6 -7 -8
leaf_value=-0.42672620769455261 0.43371171971712513 -0.099750112320449197 0.38906254283577324 -0.085856882220684466 -0.0041188701691566472 -0.3859343973682775 -0.52062473550412147
leaf_count=457 354 63 63 67 68 61 61
internal_value=0 0.687877 -0.388015 -0.157431 -0.364393 -0.706757 -1.0523
internal_count=1194 417 777 259 196 128 518
shrinkage=0.424131


Tree=13
num_leaves=10
num_cat=0
split_feature=687 431 342 592 391 410 351 431 324
split_gain=2.79159 1.35222 0.982995 0.813011 0.0670531 0.0666444 0.0424005 0.0115429 0.0003832
threshold=1.0000000180025095e-35 1.0000000180025095e-35 1.0000000180025095e-35 1.0000000180025095e-35 1.0000000180025095e-35 1.0000000180025095e-35 1.0000000180025095e-35 1.0000000180025095e-35 1.0000000180025095e-35
decision_type=2 2 2 2 2 2 2 2 2
left_child=3 -2 -3 5 -4 7 -7 -1 -6
right_child=1 2 4 -5 8 6 -8 -9 -10
leaf_value=-0.55887363080400798 -0.097799867885493622 -0.063444067771985635 0.28998289308898512 -0.058601370742251288 0.45029399463860581 -0.42769775650072278 -0.2302277109893259 -0.46450108767291975 0.42657628656606589
leaf_count=64 90 85 79 120 66 273 83 67 267
internal_value=0 0.395995 0.709103 -0.671146 0.958141 -1.07222 -0.87644 -1.23318 1.02794
internal_count=1194 587 497 607 412 487 356 131 333
shrinkage=0.424131


Tree=14
num_leaves=13
num_cat=0
split_feature=136 573 1112 1143 459 434 103 328 709 1028 1089 579
split_gain=1.78748 1.43477 0.869755 0.710649 0.621948 0.486442 0.260664 0.0871703 0.00715574 0.00554249 0.00299494 0.00264127
threshold=1.0000000180025095e-35 1.0000000180025095e-35 1.0000000180025095e-35 1.0000000180025095e-35 1.0000000180025095e-35 1.0000000180025095e-35 1.0000000180025095e-35 1.0000000180025095e-35 1.0000000180025095e-35 1.0000000180025095e-35 1.0000000180025095e-35 1.0000000180025095e-35
decision_type=2 2 2 2 2 2 2 2 2 2 2 2
left_child=2 4 5 -3 -2 -1 -4 8 -8 -6 -10 -11
right_child=1 3 6 -5 9 -7 7 -9 10 11 -12 -13
leaf_value=-0.44506094438223959 -0.11036769195409472 -0.18201325293291029 -0.051045714009506214 0.42642387804993453 0.40008880484420117 0.26908475623960315 -0.48012814994943109 -0.19205246920224961 -0.44511138859274685 0.43532527513662961 -0.38388951395538973 0.47711367185128634
leaf_count=71 65 61 93 121 99 112 92 63 106 120 125 66
internal_value=0 0.381296 -0.53351 -0.185564 0.848665 0.260781 -0.843807 -0.985993 -1.06387 1.03749 -0.99259 1.06759
internal_count=1194 532 662 182 350 183 479 386 323 285 231 186
shrinkage=0.424131


Tree=15
num_leaves=6
num_cat=0
split_feature=473 754 593 856 93
split_gain=1.78668 1.01701 1.17954 1.07745 0.0621841
threshold=1.0000000180025095e-35 1.0000000180025095e-35 1.0000000180025095e-35 1.0000000180025095e-35 1.0000000180025095e-35
decision_type=2 2 2 2 2
left_child=4 2 3 -2 -1
right_child=1 -3 -4 -5 -6
leaf_value=-0.430379810978403 0.39172139963454883 0.44244549964380825 0.45450180817844388 -0.21148911309701884 -0.15832020541338104
leaf_count=568 99 256 87 112 72
internal_value=0 0.2834 0.0455595 -0.222398 -0.941467
internal_count=1194 554 298 211 640
shrinkage=0.424131


Tree=16
num_leaves=12
num_cat=0
split_feature=566 806 38 213 569 716 95 729 488 655 858
split_gain=1.06923 0.869197 0.513937 0.465197 0.282426 0.253324 0.172356 0.118237 0.00360293 0.000939307 0.000168852
threshold=1.0000000180025095e-35 1.0000000180025095e-35 1.0000000180025095e-35 1.0000000180025095e-35 1.0000000180025095e-35 1.0000000180025095e-35 1.0000000180025095e-35 1.0000000180025095e-35 1.0000000180025095e-35 1.0000000180025095e-35 1.0000000180025095e-35
decision_type=2 2 2 2 2 2 2 2 2 2 2
left_child=1 -1 3 4 -2 8 -7 -4 9 -3 -10
right_child=2 5 7 -5 -6 6 -8 -9 10 -11 -12
leaf_value=0.33223865543585862 0.41748367576222828 -0.43254575947297819 0.2067780760182836 -0.20306838115560194 -0.022324226095951274 -0.41135005555383702 0.12348293291985707 0.45718237660737637 -0.32671756255825046 -0.47539818586115057 -0.41249668423666175
leaf_count=72 61 305 116 119 80 63 61 114 67 75 61
internal_value=0 -0.507169 0.38871 0.0537279 0.502821 -0.812642 -0.174933 0.84395 -1.03594 -1.05702 -0.852871
internal_count=1194 704 490 260 141 632 124 230 508 380 128
shrinkage=0.424131


Tree=17
num_leaves=9
num_cat=0
split_feature=236 989 537 1145 528 527 640 492
split_gain=1.93384 0.674206 0.549928 0.224455 0.271157 0.0806203 0.0429383 0.00809095
threshold=1.0000000180025095e-35 1.0000000180025095e-35 1.0000000180025095e-35 1.0000000180025095e-35 1.0000000180025095e-35 1.0000000180025095e-35 1.0000000180025095e-35 1.0000000180025095e-35
decision_type=2 2 2 2 2 2 2 2
left_child=2 -2 3 -1 5 -5 7 -7
right_child=1 -3 -4 4 -6 6 -8 -9
leaf_value=0.31616358123325672 -0.41003773402653587 0.4376533701180198 0.41226387093333305 -0.17441744850135957 0.0044289857530475209 -0.44928732629295454 -0.24492942556073224 -0.2909257659015077
leaf_count=104 119 281 94 89 75 245 81 106
internal_value=0 0.824106 -0.51576 -0.654254 -0.719788 -0.879058 -0.969931 -1.03992
internal_count=1194 400 794 700 596 521 432 351
shrinkage=0.424131


Tree=18
num_leaves=9
num_cat=0
split_feature=237 1001 756 919 1172 22 504 503
split_gain=1.19845 0.424853 0.312065 0.260964 0.27138 0.153039 0.0779957 0.0612735
threshold=1.0000000180025095e-35 1.0000000180025095e-35 1.0000000180025095e-35 1.0000000180025095e-35 1.0000000180025095e-35 1.0000000180025095e-35 1.0000000180025095e-35 1.0000000180025095e-35
decision_type=2 2 2 2 2 2 2 2
left_child=2 -2 5 4 -4 6 -1 -6
right_child=1 -3 3 -5 7 -7 -8 -9
leaf_value=-0.36906980318420707 -0.36449557681872863 0.43311095713906289 -0.36194630516585774 0.34150371881608904 0.0042599340185549683 -0.44129757180915136 0.22171281746219643 0.36745215043014873
leaf_count=122 122 293 103 81 62 277 71 63
internal_value=0 0.813786 -0.435005 -0.0762558 -0.340276 -0.854629 0.00624508 0.271762
internal_count=1194 415 779 309 228 470 193 125
shrinkage=0.424131


Tree=19
num_leaves=6
num_cat=0
split_feature=237 754 998 793 474
split_gain=0.735038 1.2626 0.31346 0.0507912 0.013911
threshold=1.0000000180025095e-35 1.0000000180025095e-35 1.0000000180025095e-35 1.0000000180025095e-35 1.0000000180025095e-35
decision_type=2 2 2 2 2
left_child=1 3 -2 -1 -3
right_child=2 4 -4 -5 -6
leaf_value=0.012569765421832219 -0.41729689302758938 0.25880432310740054 0.4295018574187528 -0.434736053014879 0.43281437462992617
leaf_count=71 120 118 295 478 112
internal_value=0 -0.368987 0.798011 -0.978746 0.928247
internal_count=1194 779 415 549 230
shrinkage=0.424131


Tree=20
num_leaves=7
num_cat=0
split_feature=237 755 984 728 793 606
split_gain=0.473375 0.716653 0.204755 0.0556595 0.0474731 0.000169469
threshold=1.0000000180025095e-35 1.0000000180025095e-35 1.0000000180025095e-35 1.0000000180025095e-35 1.0000000180025095e-35 1.0000000180025095e-35
decision_type=2 2 2 2 2 2
left_child=1 4 -2 -3 -1 -5
right_child=2 3 -4 5 -6 -7
leaf_value=0.0073945160689913633 -0.41345597796657946 0.03370163991179205 0.42690206694570865 0.35593741722314248 -0.43047933521990922 0.42903396373216057
leaf_count=71 120 73 295 73 477 85
internal_value=0 -0.354274 0.792222 0.751851 -0.946059 0.969585
internal_count=1194 779 415 231 548 158
shrinkage=0.424131


end of trees

feature importances:
ECs_1206=5
ECs_1563=3
ECs_1956=3
ECs_2017=3
ECs_2973=3
ECs_2974=3
ECs_4386=3
ECs_1080=2
ECs_1177=2
ECs_1205=2
ECs_1303=2
ECs_1360=2
ECs_1644=2
ECs_1812=2
ECs_1933=2
ECs_2215=2
ECs_2250=2
ECs_2252=2
ECs_2269=2
ECs_2967=2
ECs_2980=2
ECs_3219=2
ECs_3858=2
ECs_4569=2
ECs_5743=2
ECs_0217=1
ECs_0234=1
ECs_0281=1
ECs_0316=1
ECs_0317=1
ECs_0400=1
ECs_0472=1
ECs_0540=1
ECs_0543=1
ECs_0602=1
ECs_0814=1
ECs_0824=1
ECs_0849=1
ECs_1056=1
ECs_1065=1
ECs_1164=1
ECs_1249=1
ECs_1269=1
ECs_1322=1
ECs_1362=1
ECs_1364=1
ECs_1365=1
ECs_1366=1
ECs_1370=1
ECs_1374=1
ECs_1376=1
ECs_1382=1
ECs_1386=1
ECs_1387=1
ECs_1397=1
ECs_1502=1
ECs_1516=1
ECs_1538=1
ECs_1561=1
ECs_1564=1
ECs_1582=1
ECs_1599=1
ECs_1614=1
ECs_1617=1
ECs_1622=1
ECs_1629=1
ECs_1647=1
ECs_1768=1
ECs_1772=1
ECs_1777=1
ECs_1781=1
ECs_1814=1
ECs_1824=1
ECs_1937=1
ECs_1949=1
ECs_1950=1
ECs_1953=1
ECs_2011=1
ECs_2061=1
ECs_2153=1
ECs_2168=1
ECs_2170=1
ECs_2197=1
ECs_2199=1
ECs_2204=1
ECs_2208=1
ECs_2230=1
ECs_2239=1
ECs_2245=1
ECs_2246=1
ECs_2247=1
ECs_2251=1
ECs_2271=1
ECs_2273=1
ECs_2284=1
ECs_2629=1
ECs_2647=1
ECs_2734=1
ECs_2757=1
ECs_2759=1
ECs_2767=1
ECs_2768=1
ECs_2804=1
ECs_2807=1
ECs_2841=1
ECs_2869=1
ECs_2941=1
ECs_2942=1
ECs_2954=1
ECs_2955=1
ECs_2965=1
ECs_2971=1
ECs_2976=1
ECs_3001=1
ECs_3005=1
ECs_3410=1
ECs_3487=1
ECs_3489=1
ECs_3498=1
ECs_3712=1
ECs_3716=1
ECs_3813=1
ECs_3855=1
ECs_3857=1
ECs_3868=1
ECs_4328=1
ECs_4415=1
ECs_4540=1
ECs_4554=1
ECs_4555=1
ECs_4559=1
ECs_4572=1
ECs_4670=1
ECs_4748=1
ECs_4971=1
ECs_4990=1
ECs_4992=1
ECs_5069=1
ECs_5072=1
ECs_5073=1
ECs_5183=1
ECs_5308=1
ECs_5316=1

parameters:
[boosting: gbdt]
[objective: binary]
[metric: binary_error,none]
[tree_learner: serial]
[device_type: cpu]
[data: ]
[valid: ]
[num_iterations: 100]
[learning_rate: 0.424131]
[num_leaves: 119]
[num_threads: -1]
[max_depth: -1]
[min_data_in_leaf: 61]
[min_sum_hessian_in_leaf: 0.0114683]
[bagging_fraction: 0.716905]
[bagging_freq: 0]
[bagging_seed: 7615]
[feature_fraction: 0.250004]
[feature_fraction_seed: 21677]
[early_stopping_round: 0]
[max_delta_step: 0]
[lambda_l1: 0.000116269]
[lambda_l2: 0.00140414]
[min_gain_to_split: 0]
[drop_rate: 0.1]
[max_drop: 50]
[skip_drop: 0.5]
[xgboost_dart_mode: 0]
[uniform_drop: 0]
[drop_seed: 27260]
[top_rate: 0.2]
[other_rate: 0.1]
[min_data_per_group: 100]
[max_cat_threshold: 32]
[cat_l2: 10]
[cat_smooth: 10]
[max_cat_to_onehot: 4]
[top_k: 20]
[monotone_constraints: ]
[feature_contri: ]
[forcedsplits_filename: ]
[refit_decay_rate: 0.9]
[verbosity: -1]
[max_bin: 255]
[min_data_in_bin: 3]
[bin_construct_sample_cnt: 200000]
[histogram_pool_size: -1]
[data_random_seed: 1064]
[output_model: LightGBM_model.txt]
[snapshot_freq: -1]
[input_model: ]
[output_result: LightGBM_predict_result.txt]
[initscore_filename: ]
[valid_data_initscores: ]
[pre_partition: 0]
[enable_bundle: 1]
[max_conflict_rate: 0]
[is_enable_sparse: 1]
[sparse_threshold: 0.8]
[use_missing: 1]
[zero_as_missing: 0]
[two_round: 0]
[save_binary: 0]
[enable_load_from_binary_file: 1]
[header: 0]
[label_column: ]
[weight_column: ]
[group_column: ]
[ignore_column: ]
[categorical_feature: ]
[predict_raw_score: 0]
[predict_leaf_index: 0]
[predict_contrib: 0]
[num_iteration_predict: -1]
[pred_early_stop: 0]
[pred_early_stop_freq: 10]
[pred_early_stop_margin: 10]
[convert_model_language: ]
[convert_model: gbdt_prediction.cpp]
[num_class: 1]
[is_unbalance: 0]
[scale_pos_weight: 1]
[sigmoid: 1]
[boost_from_average: 1]
[reg_sqrt: 0]
[alpha: 0.9]
[fair_c: 1]
[poisson_max_delta_step: 0.7]
[tweedie_variance_power: 1.5]
[max_position: 20]
[label_gain: ]
[metric_freq: 1]
[is_provide_training_metric: 0]
[eval_at: ]
[num_machines: 1]
[local_listen_port: 12400]
[time_out: 120]
[machine_list_filename: ]
[machines: ]
[gpu_platform_id: -1]
[gpu_device_id: -1]
[gpu_use_dp: 0]

end of parameters

pandas_categorical:[]
